digraph Tree {
node [shape=box] ;
0 [label="typeEvent <= 1.5\nmse = 2.749\nsamples = 700\nvalue = 4.711"] ;
1 [label="banden <= 1.5\nmse = 0.105\nsamples = 337\nvalue = 3.027"] ;
0 -> 1 [labeldistance=2.5, labelangle=45, headlabel="True"] ;
2 [label="hoogte <= 23.5\nmse = 0.041\nsamples = 168\nvalue = 2.767"] ;
1 -> 2 ;
3 [label="camber <= -0.45\nmse = 0.031\nsamples = 35\nvalue = 2.657"] ;
2 -> 3 ;
4 [label="hoogte <= 20.5\nmse = 0.03\nsamples = 18\nvalue = 2.739"] ;
3 -> 4 ;
5 [label="toespoor <= 1001.0\nmse = 0.019\nsamples = 7\nvalue = 2.669"] ;
4 -> 5 ;
6 [label="bandendruk <= 0.75\nmse = 0.018\nsamples = 4\nvalue = 2.605"] ;
5 -> 6 ;
7 [label="camber <= -0.85\nmse = 0.0\nsamples = 2\nvalue = 2.475"] ;
6 -> 7 ;
8 [label="mse = 0.0\nsamples = 1\nvalue = 2.48"] ;
7 -> 8 ;
9 [label="mse = -0.0\nsamples = 1\nvalue = 2.47"] ;
7 -> 9 ;
10 [label="camber <= -0.9\nmse = 0.001\nsamples = 2\nvalue = 2.735"] ;
6 -> 10 ;
11 [label="mse = 0.0\nsamples = 1\nvalue = 2.7"] ;
10 -> 11 ;
12 [label="mse = -0.0\nsamples = 1\nvalue = 2.77"] ;
10 -> 12 ;
13 [label="toespoor <= 1004.0\nmse = 0.008\nsamples = 3\nvalue = 2.753"] ;
5 -> 13 ;
14 [label="bandendruk <= 0.65\nmse = 0.008\nsamples = 2\nvalue = 2.72"] ;
13 -> 14 ;
15 [label="mse = 0.0\nsamples = 1\nvalue = 2.81"] ;
14 -> 15 ;
16 [label="mse = 0.0\nsamples = 1\nvalue = 2.63"] ;
14 -> 16 ;
17 [label="mse = -0.0\nsamples = 1\nvalue = 2.82"] ;
13 -> 17 ;
18 [label="camber <= -0.85\nmse = 0.032\nsamples = 11\nvalue = 2.784"] ;
4 -> 18 ;
19 [label="bandendruk <= 0.75\nmse = 0.017\nsamples = 6\nvalue = 2.71"] ;
18 -> 19 ;
20 [label="hoogte <= 21.5\nmse = 0.008\nsamples = 4\nvalue = 2.635"] ;
19 -> 20 ;
21 [label="camber <= -0.95\nmse = 0.0\nsamples = 2\nvalue = 2.695"] ;
20 -> 21 ;
22 [label="mse = 0.0\nsamples = 1\nvalue = 2.68"] ;
21 -> 22 ;
23 [label="mse = -0.0\nsamples = 1\nvalue = 2.71"] ;
21 -> 23 ;
24 [label="bandendruk <= 0.65\nmse = 0.009\nsamples = 2\nvalue = 2.575"] ;
20 -> 24 ;
25 [label="mse = 0.0\nsamples = 1\nvalue = 2.67"] ;
24 -> 25 ;
26 [label="mse = -0.0\nsamples = 1\nvalue = 2.48"] ;
24 -> 26 ;
27 [label="hoogte <= 22.0\nmse = 0.001\nsamples = 2\nvalue = 2.86"] ;
19 -> 27 ;
28 [label="mse = 0.0\nsamples = 1\nvalue = 2.83"] ;
27 -> 28 ;
29 [label="mse = -0.0\nsamples = 1\nvalue = 2.89"] ;
27 -> 29 ;
30 [label="camber <= -0.55\nmse = 0.036\nsamples = 5\nvalue = 2.872"] ;
18 -> 30 ;
31 [label="camber <= -0.65\nmse = 0.008\nsamples = 4\nvalue = 2.957"] ;
30 -> 31 ;
32 [label="hoogte <= 21.5\nmse = 0.005\nsamples = 3\nvalue = 2.92"] ;
31 -> 32 ;
33 [label="mse = 0.0\nsamples = 1\nvalue = 3.02"] ;
32 -> 33 ;
34 [label="camber <= -0.75\nmse = 0.0\nsamples = 2\nvalue = 2.87"] ;
32 -> 34 ;
35 [label="mse = 0.0\nsamples = 1\nvalue = 2.88"] ;
34 -> 35 ;
36 [label="mse = -0.0\nsamples = 1\nvalue = 2.86"] ;
34 -> 36 ;
37 [label="mse = 0.0\nsamples = 1\nvalue = 3.07"] ;
31 -> 37 ;
38 [label="mse = -0.0\nsamples = 1\nvalue = 2.53"] ;
30 -> 38 ;
39 [label="camber <= -0.15\nmse = 0.018\nsamples = 17\nvalue = 2.569"] ;
3 -> 39 ;
40 [label="hoogte <= 21.5\nmse = 0.015\nsamples = 13\nvalue = 2.528"] ;
39 -> 40 ;
41 [label="bandendruk <= 0.65\nmse = 0.01\nsamples = 5\nvalue = 2.588"] ;
40 -> 41 ;
42 [label="mse = 0.0\nsamples = 1\nvalue = 2.73"] ;
41 -> 42 ;
43 [label="toespoor <= 996.0\nmse = 0.006\nsamples = 4\nvalue = 2.552"] ;
41 -> 43 ;
44 [label="mse = 0.0\nsamples = 1\nvalue = 2.68"] ;
43 -> 44 ;
45 [label="bandendruk <= 0.75\nmse = 0.001\nsamples = 3\nvalue = 2.51"] ;
43 -> 45 ;
46 [label="mse = 0.0\nsamples = 1\nvalue = 2.46"] ;
45 -> 46 ;
47 [label="toespoor <= 1000.5\nmse = 0.0\nsamples = 2\nvalue = 2.535"] ;
45 -> 47 ;
48 [label="mse = 0.0\nsamples = 1\nvalue = 2.53"] ;
47 -> 48 ;
49 [label="mse = -0.0\nsamples = 1\nvalue = 2.54"] ;
47 -> 49 ;
50 [label="toespoor <= 1000.5\nmse = 0.015\nsamples = 8\nvalue = 2.491"] ;
40 -> 50 ;
51 [label="bandendruk <= 0.75\nmse = 0.009\nsamples = 3\nvalue = 2.593"] ;
50 -> 51 ;
52 [label="bandendruk <= 0.65\nmse = 0.002\nsamples = 2\nvalue = 2.53"] ;
51 -> 52 ;
53 [label="mse = 0.0\nsamples = 1\nvalue = 2.49"] ;
52 -> 53 ;
54 [label="mse = -0.0\nsamples = 1\nvalue = 2.57"] ;
52 -> 54 ;
55 [label="mse = -0.0\nsamples = 1\nvalue = 2.72"] ;
51 -> 55 ;
56 [label="camber <= -0.3\nmse = 0.009\nsamples = 5\nvalue = 2.43"] ;
50 -> 56 ;
57 [label="hoogte <= 22.5\nmse = 0.008\nsamples = 3\nvalue = 2.39"] ;
56 -> 57 ;
58 [label="mse = 0.001\nsamples = 2\nvalue = 2.45"] ;
57 -> 58 ;
59 [label="mse = 0.0\nsamples = 1\nvalue = 2.27"] ;
57 -> 59 ;
60 [label="hoogte <= 22.5\nmse = 0.004\nsamples = 2\nvalue = 2.49"] ;
56 -> 60 ;
61 [label="mse = 0.0\nsamples = 1\nvalue = 2.43"] ;
60 -> 61 ;
62 [label="mse = -0.0\nsamples = 1\nvalue = 2.55"] ;
60 -> 62 ;
63 [label="toespoor <= 1002.0\nmse = 0.004\nsamples = 4\nvalue = 2.702"] ;
39 -> 63 ;
64 [label="hoogte <= 22.5\nmse = 0.0\nsamples = 2\nvalue = 2.645"] ;
63 -> 64 ;
65 [label="mse = 0.0\nsamples = 1\nvalue = 2.65"] ;
64 -> 65 ;
66 [label="mse = 0.0\nsamples = 1\nvalue = 2.64"] ;
64 -> 66 ;
67 [label="toespoor <= 1004.5\nmse = 0.001\nsamples = 2\nvalue = 2.76"] ;
63 -> 67 ;
68 [label="mse = 0.0\nsamples = 1\nvalue = 2.79"] ;
67 -> 68 ;
69 [label="mse = 0.0\nsamples = 1\nvalue = 2.73"] ;
67 -> 69 ;
70 [label="camber <= -0.55\nmse = 0.039\nsamples = 133\nvalue = 2.795"] ;
2 -> 70 ;
71 [label="toespoor <= 1000.5\nmse = 0.035\nsamples = 52\nvalue = 2.862"] ;
70 -> 71 ;
72 [label="toespoor <= 996.5\nmse = 0.03\nsamples = 28\nvalue = 2.804"] ;
71 -> 72 ;
73 [label="hoogte <= 29.0\nmse = 0.027\nsamples = 8\nvalue = 2.945"] ;
72 -> 73 ;
74 [label="toespoor <= 995.5\nmse = 0.002\nsamples = 2\nvalue = 3.115"] ;
73 -> 74 ;
75 [label="mse = 0.0\nsamples = 1\nvalue = 3.07"] ;
74 -> 75 ;
76 [label="mse = -0.0\nsamples = 1\nvalue = 3.16"] ;
74 -> 76 ;
77 [label="camber <= -0.85\nmse = 0.023\nsamples = 6\nvalue = 2.888"] ;
73 -> 77 ;
78 [label="toespoor <= 995.5\nmse = 0.0\nsamples = 2\nvalue = 3.08"] ;
77 -> 78 ;
79 [label="mse = 0.0\nsamples = 1\nvalue = 3.09"] ;
78 -> 79 ;
80 [label="mse = -0.0\nsamples = 1\nvalue = 3.07"] ;
78 -> 80 ;
81 [label="bandendruk <= 0.7\nmse = 0.006\nsamples = 4\nvalue = 2.792"] ;
77 -> 81 ;
82 [label="toespoor <= 995.5\nmse = 0.004\nsamples = 2\nvalue = 2.86"] ;
81 -> 82 ;
83 [label="mse = 0.0\nsamples = 1\nvalue = 2.92"] ;
82 -> 83 ;
84 [label="mse = 0.0\nsamples = 1\nvalue = 2.8"] ;
82 -> 84 ;
85 [label="hoogte <= 36.0\nmse = 0.0\nsamples = 2\nvalue = 2.725"] ;
81 -> 85 ;
86 [label="mse = 0.0\nsamples = 1\nvalue = 2.73"] ;
85 -> 86 ;
87 [label="mse = 0.0\nsamples = 1\nvalue = 2.72"] ;
85 -> 87 ;
88 [label="hoogte <= 34.5\nmse = 0.02\nsamples = 20\nvalue = 2.748"] ;
72 -> 88 ;
89 [label="hoogte <= 26.0\nmse = 0.023\nsamples = 13\nvalue = 2.778"] ;
88 -> 89 ;
90 [label="mse = 0.0\nsamples = 1\nvalue = 2.92"] ;
89 -> 90 ;
91 [label="hoogte <= 28.5\nmse = 0.023\nsamples = 12\nvalue = 2.766"] ;
89 -> 91 ;
92 [label="mse = 0.0\nsamples = 1\nvalue = 2.54"] ;
91 -> 92 ;
93 [label="camber <= -0.95\nmse = 0.02\nsamples = 11\nvalue = 2.786"] ;
91 -> 93 ;
94 [label="mse = 0.0\nsamples = 1\nvalue = 2.65"] ;
93 -> 94 ;
95 [label="toespoor <= 999.5\nmse = 0.02\nsamples = 10\nvalue = 2.8"] ;
93 -> 95 ;
96 [label="camber <= -0.85\nmse = 0.018\nsamples = 9\nvalue = 2.778"] ;
95 -> 96 ;
97 [label="mse = 0.0\nsamples = 1\nvalue = 2.86"] ;
96 -> 97 ;
98 [label="hoogte <= 33.0\nmse = 0.019\nsamples = 8\nvalue = 2.767"] ;
96 -> 98 ;
99 [label="bandendruk <= 0.75\nmse = 0.022\nsamples = 5\nvalue = 2.748"] ;
98 -> 99 ;
100 [label="bandendruk <= 0.65\nmse = 0.012\nsamples = 3\nvalue = 2.823"] ;
99 -> 100 ;
101 [label="camber <= -0.65\nmse = 0.004\nsamples = 2\nvalue = 2.755"] ;
100 -> 101 ;
102 [label="mse = 0.0\nsamples = 1\nvalue = 2.82"] ;
101 -> 102 ;
103 [label="mse = -0.0\nsamples = 1\nvalue = 2.69"] ;
101 -> 103 ;
104 [label="mse = 0.0\nsamples = 1\nvalue = 2.96"] ;
100 -> 104 ;
105 [label="camber <= -0.7\nmse = 0.016\nsamples = 2\nvalue = 2.635"] ;
99 -> 105 ;
106 [label="mse = 0.0\nsamples = 1\nvalue = 2.51"] ;
105 -> 106 ;
107 [label="mse = -0.0\nsamples = 1\nvalue = 2.76"] ;
105 -> 107 ;
108 [label="bandendruk <= 0.75\nmse = 0.012\nsamples = 3\nvalue = 2.8"] ;
98 -> 108 ;
109 [label="bandendruk <= 0.65\nmse = 0.004\nsamples = 2\nvalue = 2.73"] ;
108 -> 109 ;
110 [label="mse = 0.0\nsamples = 1\nvalue = 2.79"] ;
109 -> 110 ;
111 [label="mse = 0.0\nsamples = 1\nvalue = 2.67"] ;
109 -> 111 ;
112 [label="mse = 0.0\nsamples = 1\nvalue = 2.94"] ;
108 -> 112 ;
113 [label="mse = -0.0\nsamples = 1\nvalue = 3.0"] ;
95 -> 113 ;
114 [label="bandendruk <= 0.65\nmse = 0.008\nsamples = 7\nvalue = 2.693"] ;
88 -> 114 ;
115 [label="mse = 0.0\nsamples = 1\nvalue = 2.81"] ;
114 -> 115 ;
116 [label="toespoor <= 998.5\nmse = 0.007\nsamples = 6\nvalue = 2.673"] ;
114 -> 116 ;
117 [label="bandendruk <= 0.75\nmse = 0.012\nsamples = 2\nvalue = 2.6"] ;
116 -> 117 ;
118 [label="mse = 0.0\nsamples = 1\nvalue = 2.49"] ;
117 -> 118 ;
119 [label="mse = -0.0\nsamples = 1\nvalue = 2.71"] ;
117 -> 119 ;
120 [label="hoogte <= 39.0\nmse = 0.0\nsamples = 4\nvalue = 2.71"] ;
116 -> 120 ;
121 [label="camber <= -0.95\nmse = 0.0\nsamples = 3\nvalue = 2.72"] ;
120 -> 121 ;
122 [label="mse = 0.0\nsamples = 1\nvalue = 2.71"] ;
121 -> 122 ;
123 [label="hoogte <= 36.0\nmse = 0.0\nsamples = 2\nvalue = 2.725"] ;
121 -> 123 ;
124 [label="mse = 0.0\nsamples = 1\nvalue = 2.72"] ;
123 -> 124 ;
125 [label="mse = 0.0\nsamples = 1\nvalue = 2.73"] ;
123 -> 125 ;
126 [label="mse = 0.0\nsamples = 1\nvalue = 2.68"] ;
120 -> 126 ;
127 [label="hoogte <= 39.5\nmse = 0.033\nsamples = 24\nvalue = 2.928"] ;
71 -> 127 ;
128 [label="camber <= -0.65\nmse = 0.031\nsamples = 23\nvalue = 2.94"] ;
127 -> 128 ;
129 [label="camber <= -0.85\nmse = 0.032\nsamples = 21\nvalue = 2.927"] ;
128 -> 129 ;
130 [label="hoogte <= 27.5\nmse = 0.032\nsamples = 11\nvalue = 2.975"] ;
129 -> 130 ;
131 [label="bandendruk <= 0.7\nmse = 0.042\nsamples = 2\nvalue = 2.845"] ;
130 -> 131 ;
132 [label="mse = 0.0\nsamples = 1\nvalue = 2.64"] ;
131 -> 132 ;
133 [label="mse = 0.0\nsamples = 1\nvalue = 3.05"] ;
131 -> 133 ;
134 [label="hoogte <= 34.0\nmse = 0.025\nsamples = 9\nvalue = 3.004"] ;
130 -> 134 ;
135 [label="toespoor <= 1004.5\nmse = 0.001\nsamples = 4\nvalue = 3.112"] ;
134 -> 135 ;
136 [label="toespoor <= 1003.0\nmse = 0.0\nsamples = 3\nvalue = 3.13"] ;
135 -> 136 ;
137 [label="mse = -0.0\nsamples = 2\nvalue = 3.14"] ;
136 -> 137 ;
138 [label="mse = 0.0\nsamples = 1\nvalue = 3.11"] ;
136 -> 138 ;
139 [label="mse = -0.0\nsamples = 1\nvalue = 3.06"] ;
135 -> 139 ;
140 [label="hoogte <= 38.5\nmse = 0.028\nsamples = 5\nvalue = 2.918"] ;
134 -> 140 ;
141 [label="hoogte <= 37.0\nmse = 0.027\nsamples = 3\nvalue = 2.963"] ;
140 -> 141 ;
142 [label="hoogte <= 35.5\nmse = 0.011\nsamples = 2\nvalue = 2.865"] ;
141 -> 142 ;
143 [label="mse = 0.0\nsamples = 1\nvalue = 2.97"] ;
142 -> 143 ;
144 [label="mse = -0.0\nsamples = 1\nvalue = 2.76"] ;
142 -> 144 ;
145 [label="mse = 0.0\nsamples = 1\nvalue = 3.16"] ;
141 -> 145 ;
146 [label="camber <= -0.95\nmse = 0.022\nsamples = 2\nvalue = 2.85"] ;
140 -> 146 ;
147 [label="mse = 0.0\nsamples = 1\nvalue = 3.0"] ;
146 -> 147 ;
148 [label="mse = -0.0\nsamples = 1\nvalue = 2.7"] ;
146 -> 148 ;
149 [label="hoogte <= 34.5\nmse = 0.026\nsamples = 10\nvalue = 2.874"] ;
129 -> 149 ;
150 [label="bandendruk <= 0.75\nmse = 0.016\nsamples = 7\nvalue = 2.799"] ;
149 -> 150 ;
151 [label="hoogte <= 33.5\nmse = 0.014\nsamples = 4\nvalue = 2.868"] ;
150 -> 151 ;
152 [label="bandendruk <= 0.65\nmse = 0.007\nsamples = 3\nvalue = 2.923"] ;
151 -> 152 ;
153 [label="mse = 0.0\nsamples = 1\nvalue = 2.86"] ;
152 -> 153 ;
154 [label="toespoor <= 1002.0\nmse = 0.007\nsamples = 2\nvalue = 2.955"] ;
152 -> 154 ;
155 [label="mse = 0.0\nsamples = 1\nvalue = 2.87"] ;
154 -> 155 ;
156 [label="mse = 0.0\nsamples = 1\nvalue = 3.04"] ;
154 -> 156 ;
157 [label="mse = 0.0\nsamples = 1\nvalue = 2.7"] ;
151 -> 157 ;
158 [label="hoogte <= 31.5\nmse = 0.003\nsamples = 3\nvalue = 2.707"] ;
150 -> 158 ;
159 [label="mse = 0.0\nsamples = 1\nvalue = 2.63"] ;
158 -> 159 ;
160 [label="hoogte <= 32.5\nmse = 0.0\nsamples = 2\nvalue = 2.745"] ;
158 -> 160 ;
161 [label="mse = 0.0\nsamples = 1\nvalue = 2.74"] ;
160 -> 161 ;
162 [label="mse = -0.0\nsamples = 1\nvalue = 2.75"] ;
160 -> 162 ;
163 [label="hoogte <= 36.5\nmse = 0.004\nsamples = 3\nvalue = 3.05"] ;
149 -> 163 ;
164 [label="mse = 0.0\nsamples = 1\nvalue = 2.96"] ;
163 -> 164 ;
165 [label="bandendruk <= 0.7\nmse = 0.0\nsamples = 2\nvalue = 3.095"] ;
163 -> 165 ;
166 [label="mse = 0.0\nsamples = 1\nvalue = 3.11"] ;
165 -> 166 ;
167 [label="mse = 0.0\nsamples = 1\nvalue = 3.08"] ;
165 -> 167 ;
168 [label="bandendruk <= 0.65\nmse = 0.001\nsamples = 2\nvalue = 3.08"] ;
128 -> 168 ;
169 [label="mse = 0.0\nsamples = 1\nvalue = 3.11"] ;
168 -> 169 ;
170 [label="mse = -0.0\nsamples = 1\nvalue = 3.05"] ;
168 -> 170 ;
171 [label="mse = -0.0\nsamples = 1\nvalue = 2.65"] ;
127 -> 171 ;
172 [label="bandendruk <= 0.65\nmse = 0.037\nsamples = 81\nvalue = 2.753"] ;
70 -> 172 ;
173 [label="hoogte <= 30.5\nmse = 0.04\nsamples = 24\nvalue = 2.822"] ;
172 -> 173 ;
174 [label="toespoor <= 1001.0\nmse = 0.029\nsamples = 10\nvalue = 2.709"] ;
173 -> 174 ;
175 [label="camber <= -0.4\nmse = 0.016\nsamples = 3\nvalue = 2.597"] ;
174 -> 175 ;
176 [label="mse = 0.0\nsamples = 1\nvalue = 2.43"] ;
175 -> 176 ;
177 [label="hoogte <= 28.0\nmse = 0.003\nsamples = 2\nvalue = 2.68"] ;
175 -> 177 ;
178 [label="mse = 0.0\nsamples = 1\nvalue = 2.73"] ;
177 -> 178 ;
179 [label="mse = 0.0\nsamples = 1\nvalue = 2.63"] ;
177 -> 179 ;
180 [label="toespoor <= 1002.5\nmse = 0.028\nsamples = 7\nvalue = 2.757"] ;
174 -> 180 ;
181 [label="mse = 0.0\nsamples = 1\nvalue = 2.89"] ;
180 -> 181 ;
182 [label="camber <= -0.45\nmse = 0.029\nsamples = 6\nvalue = 2.735"] ;
180 -> 182 ;
183 [label="mse = 0.0\nsamples = 1\nvalue = 2.57"] ;
182 -> 183 ;
184 [label="hoogte <= 27.5\nmse = 0.028\nsamples = 5\nvalue = 2.768"] ;
182 -> 184 ;
185 [label="hoogte <= 26.5\nmse = 0.028\nsamples = 3\nvalue = 2.837"] ;
184 -> 185 ;
186 [label="hoogte <= 25.5\nmse = 0.004\nsamples = 2\nvalue = 2.725"] ;
185 -> 186 ;
187 [label="mse = 0.0\nsamples = 1\nvalue = 2.79"] ;
186 -> 187 ;
188 [label="mse = -0.0\nsamples = 1\nvalue = 2.66"] ;
186 -> 188 ;
189 [label="mse = -0.0\nsamples = 1\nvalue = 3.06"] ;
185 -> 189 ;
190 [label="toespoor <= 1003.5\nmse = 0.011\nsamples = 2\nvalue = 2.665"] ;
184 -> 190 ;
191 [label="mse = 0.0\nsamples = 1\nvalue = 2.56"] ;
190 -> 191 ;
192 [label="mse = 0.0\nsamples = 1\nvalue = 2.77"] ;
190 -> 192 ;
193 [label="toespoor <= 995.5\nmse = 0.033\nsamples = 14\nvalue = 2.902"] ;
173 -> 193 ;
194 [label="mse = 0.0\nsamples = 1\nvalue = 3.39"] ;
193 -> 194 ;
195 [label="hoogte <= 32.0\nmse = 0.015\nsamples = 13\nvalue = 2.865"] ;
193 -> 195 ;
196 [label="toespoor <= 998.5\nmse = 0.0\nsamples = 2\nvalue = 3.02"] ;
195 -> 196 ;
197 [label="mse = 0.0\nsamples = 1\nvalue = 3.04"] ;
196 -> 197 ;
198 [label="mse = -0.0\nsamples = 1\nvalue = 3.0"] ;
196 -> 198 ;
199 [label="camber <= -0.15\nmse = 0.013\nsamples = 11\nvalue = 2.836"] ;
195 -> 199 ;
200 [label="camber <= -0.45\nmse = 0.009\nsamples = 10\nvalue = 2.815"] ;
199 -> 200 ;
201 [label="hoogte <= 38.0\nmse = 0.001\nsamples = 2\nvalue = 2.755"] ;
200 -> 201 ;
202 [label="mse = 0.0\nsamples = 1\nvalue = 2.78"] ;
201 -> 202 ;
203 [label="mse = 0.0\nsamples = 1\nvalue = 2.73"] ;
201 -> 203 ;
204 [label="toespoor <= 1000.0\nmse = 0.01\nsamples = 8\nvalue = 2.83"] ;
200 -> 204 ;
205 [label="camber <= -0.35\nmse = 0.003\nsamples = 4\nvalue = 2.86"] ;
204 -> 205 ;
206 [label="toespoor <= 997.5\nmse = 0.0\nsamples = 2\nvalue = 2.805"] ;
205 -> 206 ;
207 [label="mse = 0.0\nsamples = 1\nvalue = 2.8"] ;
206 -> 207 ;
208 [label="mse = 0.0\nsamples = 1\nvalue = 2.81"] ;
206 -> 208 ;
209 [label="camber <= -0.25\nmse = 0.0\nsamples = 2\nvalue = 2.915"] ;
205 -> 209 ;
210 [label="mse = 0.0\nsamples = 1\nvalue = 2.9"] ;
209 -> 210 ;
211 [label="mse = 0.0\nsamples = 1\nvalue = 2.93"] ;
209 -> 211 ;
212 [label="hoogte <= 33.5\nmse = 0.016\nsamples = 4\nvalue = 2.8"] ;
204 -> 212 ;
213 [label="mse = 0.0\nsamples = 1\nvalue = 2.66"] ;
212 -> 213 ;
214 [label="hoogte <= 36.0\nmse = 0.012\nsamples = 3\nvalue = 2.847"] ;
212 -> 214 ;
215 [label="mse = 0.0\nsamples = 1\nvalue = 3.0"] ;
214 -> 215 ;
216 [label="camber <= -0.25\nmse = 0.001\nsamples = 2\nvalue = 2.77"] ;
214 -> 216 ;
217 [label="mse = 0.0\nsamples = 1\nvalue = 2.74"] ;
216 -> 217 ;
218 [label="mse = 0.0\nsamples = 1\nvalue = 2.8"] ;
216 -> 218 ;
219 [label="mse = -0.0\nsamples = 1\nvalue = 3.05"] ;
199 -> 219 ;
220 [label="toespoor <= 1003.5\nmse = 0.033\nsamples = 57\nvalue = 2.724"] ;
172 -> 220 ;
221 [label="camber <= -0.25\nmse = 0.026\nsamples = 40\nvalue = 2.677"] ;
220 -> 221 ;
222 [label="toespoor <= 998.5\nmse = 0.024\nsamples = 23\nvalue = 2.635"] ;
221 -> 222 ;
223 [label="hoogte <= 32.5\nmse = 0.017\nsamples = 12\nvalue = 2.559"] ;
222 -> 223 ;
224 [label="camber <= -0.35\nmse = 0.006\nsamples = 5\nvalue = 2.47"] ;
223 -> 224 ;
225 [label="hoogte <= 31.0\nmse = 0.001\nsamples = 3\nvalue = 2.417"] ;
224 -> 225 ;
226 [label="bandendruk <= 0.75\nmse = 0.0\nsamples = 2\nvalue = 2.395"] ;
225 -> 226 ;
227 [label="mse = 0.0\nsamples = 1\nvalue = 2.41"] ;
226 -> 227 ;
228 [label="mse = 0.0\nsamples = 1\nvalue = 2.38"] ;
226 -> 228 ;
229 [label="mse = 0.0\nsamples = 1\nvalue = 2.46"] ;
225 -> 229 ;
230 [label="bandendruk <= 0.75\nmse = 0.002\nsamples = 2\nvalue = 2.55"] ;
224 -> 230 ;
231 [label="mse = 0.0\nsamples = 1\nvalue = 2.51"] ;
230 -> 231 ;
232 [label="mse = 0.0\nsamples = 1\nvalue = 2.59"] ;
230 -> 232 ;
233 [label="camber <= -0.45\nmse = 0.015\nsamples = 7\nvalue = 2.623"] ;
223 -> 233 ;
234 [label="mse = 0.0\nsamples = 1\nvalue = 2.81"] ;
233 -> 234 ;
235 [label="bandendruk <= 0.75\nmse = 0.01\nsamples = 6\nvalue = 2.592"] ;
233 -> 235 ;
236 [label="hoogte <= 38.0\nmse = 0.008\nsamples = 5\nvalue = 2.566"] ;
235 -> 236 ;
237 [label="hoogte <= 34.5\nmse = 0.006\nsamples = 4\nvalue = 2.535"] ;
236 -> 237 ;
238 [label="toespoor <= 997.0\nmse = 0.0\nsamples = 2\nvalue = 2.595"] ;
237 -> 238 ;
239 [label="mse = 0.0\nsamples = 1\nvalue = 2.6"] ;
238 -> 239 ;
240 [label="mse = 0.0\nsamples = 1\nvalue = 2.59"] ;
238 -> 240 ;
241 [label="toespoor <= 997.0\nmse = 0.004\nsamples = 2\nvalue = 2.475"] ;
237 -> 241 ;
242 [label="mse = 0.0\nsamples = 1\nvalue = 2.54"] ;
241 -> 242 ;
243 [label="mse = 0.0\nsamples = 1\nvalue = 2.41"] ;
241 -> 243 ;
244 [label="mse = 0.0\nsamples = 1\nvalue = 2.69"] ;
236 -> 244 ;
245 [label="mse = -0.0\nsamples = 1\nvalue = 2.72"] ;
235 -> 245 ;
246 [label="hoogte <= 38.5\nmse = 0.02\nsamples = 11\nvalue = 2.718"] ;
222 -> 246 ;
247 [label="hoogte <= 36.0\nmse = 0.012\nsamples = 9\nvalue = 2.756"] ;
246 -> 247 ;
248 [label="hoogte <= 27.0\nmse = 0.01\nsamples = 7\nvalue = 2.721"] ;
247 -> 248 ;
249 [label="hoogte <= 24.5\nmse = 0.02\nsamples = 2\nvalue = 2.8"] ;
248 -> 249 ;
250 [label="mse = 0.0\nsamples = 1\nvalue = 2.66"] ;
249 -> 250 ;
251 [label="mse = 0.0\nsamples = 1\nvalue = 2.94"] ;
249 -> 251 ;
252 [label="toespoor <= 1002.5\nmse = 0.003\nsamples = 5\nvalue = 2.69"] ;
248 -> 252 ;
253 [label="toespoor <= 1000.5\nmse = 0.001\nsamples = 4\nvalue = 2.712"] ;
252 -> 253 ;
254 [label="bandendruk <= 0.75\nmse = 0.0\nsamples = 2\nvalue = 2.675"] ;
253 -> 254 ;
255 [label="mse = 0.0\nsamples = 1\nvalue = 2.67"] ;
254 -> 255 ;
256 [label="mse = 0.0\nsamples = 1\nvalue = 2.68"] ;
254 -> 256 ;
257 [label="bandendruk <= 0.75\nmse = 0.0\nsamples = 2\nvalue = 2.75"] ;
253 -> 257 ;
258 [label="mse = 0.0\nsamples = 1\nvalue = 2.74"] ;
257 -> 258 ;
259 [label="mse = 0.0\nsamples = 1\nvalue = 2.76"] ;
257 -> 259 ;
260 [label="mse = 0.0\nsamples = 1\nvalue = 2.6"] ;
252 -> 260 ;
261 [label="toespoor <= 1002.0\nmse = 0.001\nsamples = 2\nvalue = 2.875"] ;
247 -> 261 ;
262 [label="mse = 0.0\nsamples = 1\nvalue = 2.84"] ;
261 -> 262 ;
263 [label="mse = 0.0\nsamples = 1\nvalue = 2.91"] ;
261 -> 263 ;
264 [label="toespoor <= 1002.0\nmse = 0.017\nsamples = 2\nvalue = 2.55"] ;
246 -> 264 ;
265 [label="mse = 0.0\nsamples = 1\nvalue = 2.42"] ;
264 -> 265 ;
266 [label="mse = 0.0\nsamples = 1\nvalue = 2.68"] ;
264 -> 266 ;
267 [label="toespoor <= 997.5\nmse = 0.022\nsamples = 17\nvalue = 2.734"] ;
221 -> 267 ;
268 [label="hoogte <= 35.5\nmse = 0.011\nsamples = 5\nvalue = 2.88"] ;
267 -> 268 ;
269 [label="hoogte <= 31.0\nmse = 0.005\nsamples = 4\nvalue = 2.84"] ;
268 -> 269 ;
270 [label="hoogte <= 27.0\nmse = 0.005\nsamples = 2\nvalue = 2.79"] ;
269 -> 270 ;
271 [label="mse = 0.0\nsamples = 1\nvalue = 2.86"] ;
270 -> 271 ;
272 [label="mse = -0.0\nsamples = 1\nvalue = 2.72"] ;
270 -> 272 ;
273 [label="toespoor <= 996.5\nmse = 0.0\nsamples = 2\nvalue = 2.89"] ;
269 -> 273 ;
274 [label="mse = 0.0\nsamples = 1\nvalue = 2.91"] ;
273 -> 274 ;
275 [label="mse = 0.0\nsamples = 1\nvalue = 2.87"] ;
273 -> 275 ;
276 [label="mse = -0.0\nsamples = 1\nvalue = 3.04"] ;
268 -> 276 ;
277 [label="toespoor <= 998.5\nmse = 0.014\nsamples = 12\nvalue = 2.672"] ;
267 -> 277 ;
278 [label="camber <= -0.1\nmse = 0.004\nsamples = 4\nvalue = 2.598"] ;
277 -> 278 ;
279 [label="mse = 0.0\nsamples = 1\nvalue = 2.51"] ;
278 -> 279 ;
280 [label="bandendruk <= 0.75\nmse = 0.002\nsamples = 3\nvalue = 2.627"] ;
278 -> 280 ;
281 [label="hoogte <= 36.5\nmse = 0.001\nsamples = 2\nvalue = 2.65"] ;
280 -> 281 ;
282 [label="mse = 0.0\nsamples = 1\nvalue = 2.68"] ;
281 -> 282 ;
283 [label="mse = -0.0\nsamples = 1\nvalue = 2.62"] ;
281 -> 283 ;
284 [label="mse = 0.0\nsamples = 1\nvalue = 2.58"] ;
280 -> 284 ;
285 [label="camber <= -0.15\nmse = 0.015\nsamples = 8\nvalue = 2.71"] ;
277 -> 285 ;
286 [label="hoogte <= 37.0\nmse = 0.009\nsamples = 3\nvalue = 2.63"] ;
285 -> 286 ;
287 [label="bandendruk <= 0.75\nmse = 0.001\nsamples = 2\nvalue = 2.565"] ;
286 -> 287 ;
288 [label="mse = 0.0\nsamples = 1\nvalue = 2.6"] ;
287 -> 288 ;
289 [label="mse = 0.0\nsamples = 1\nvalue = 2.53"] ;
287 -> 289 ;
290 [label="mse = -0.0\nsamples = 1\nvalue = 2.76"] ;
286 -> 290 ;
291 [label="hoogte <= 34.5\nmse = 0.012\nsamples = 5\nvalue = 2.758"] ;
285 -> 291 ;
292 [label="toespoor <= 1001.5\nmse = 0.0\nsamples = 3\nvalue = 2.82"] ;
291 -> 292 ;
293 [label="hoogte <= 33.5\nmse = 0.0\nsamples = 2\nvalue = 2.815"] ;
292 -> 293 ;
294 [label="mse = 0.0\nsamples = 1\nvalue = 2.81"] ;
293 -> 294 ;
295 [label="mse = 0.0\nsamples = 1\nvalue = 2.82"] ;
293 -> 295 ;
296 [label="mse = -0.0\nsamples = 1\nvalue = 2.83"] ;
292 -> 296 ;
297 [label="toespoor <= 1000.5\nmse = 0.016\nsamples = 2\nvalue = 2.665"] ;
291 -> 297 ;
298 [label="mse = 0.0\nsamples = 1\nvalue = 2.79"] ;
297 -> 298 ;
299 [label="mse = 0.0\nsamples = 1\nvalue = 2.54"] ;
297 -> 299 ;
300 [label="hoogte <= 38.5\nmse = 0.034\nsamples = 17\nvalue = 2.835"] ;
220 -> 300 ;
301 [label="hoogte <= 24.5\nmse = 0.024\nsamples = 14\nvalue = 2.889"] ;
300 -> 301 ;
302 [label="mse = 0.0\nsamples = 1\nvalue = 2.69"] ;
301 -> 302 ;
303 [label="hoogte <= 32.5\nmse = 0.022\nsamples = 13\nvalue = 2.905"] ;
301 -> 303 ;
304 [label="camber <= -0.45\nmse = 0.012\nsamples = 8\nvalue = 2.952"] ;
303 -> 304 ;
305 [label="mse = 0.0\nsamples = 1\nvalue = 3.2"] ;
304 -> 305 ;
306 [label="hoogte <= 28.5\nmse = 0.004\nsamples = 7\nvalue = 2.917"] ;
304 -> 306 ;
307 [label="camber <= -0.15\nmse = 0.002\nsamples = 3\nvalue = 2.863"] ;
306 -> 307 ;
308 [label="mse = 0.0\nsamples = 1\nvalue = 2.8"] ;
307 -> 308 ;
309 [label="hoogte <= 26.5\nmse = 0.0\nsamples = 2\nvalue = 2.895"] ;
307 -> 309 ;
310 [label="mse = 0.0\nsamples = 1\nvalue = 2.91"] ;
309 -> 310 ;
311 [label="mse = 0.0\nsamples = 1\nvalue = 2.88"] ;
309 -> 311 ;
312 [label="bandendruk <= 0.75\nmse = 0.001\nsamples = 4\nvalue = 2.958"] ;
306 -> 312 ;
313 [label="mse = 0.0\nsamples = 1\nvalue = 2.91"] ;
312 -> 313 ;
314 [label="hoogte <= 30.5\nmse = 0.001\nsamples = 3\nvalue = 2.973"] ;
312 -> 314 ;
315 [label="mse = 0.0\nsamples = 1\nvalue = 3.0"] ;
314 -> 315 ;
316 [label="mse = 0.001\nsamples = 2\nvalue = 2.96"] ;
314 -> 316 ;
317 [label="bandendruk <= 0.75\nmse = 0.028\nsamples = 5\nvalue = 2.828"] ;
303 -> 317 ;
318 [label="camber <= -0.3\nmse = 0.019\nsamples = 3\nvalue = 2.933"] ;
317 -> 318 ;
319 [label="camber <= -0.45\nmse = 0.006\nsamples = 2\nvalue = 2.845"] ;
318 -> 319 ;
320 [label="mse = 0.0\nsamples = 1\nvalue = 2.92"] ;
319 -> 320 ;
321 [label="mse = 0.0\nsamples = 1\nvalue = 2.77"] ;
319 -> 321 ;
322 [label="mse = -0.0\nsamples = 1\nvalue = 3.11"] ;
318 -> 322 ;
323 [label="toespoor <= 1004.5\nmse = 0.0\nsamples = 2\nvalue = 2.67"] ;
317 -> 323 ;
324 [label="mse = 0.0\nsamples = 1\nvalue = 2.69"] ;
323 -> 324 ;
325 [label="mse = 0.0\nsamples = 1\nvalue = 2.65"] ;
323 -> 325 ;
326 [label="hoogte <= 39.5\nmse = 0.004\nsamples = 3\nvalue = 2.583"] ;
300 -> 326 ;
327 [label="camber <= -0.3\nmse = 0.0\nsamples = 2\nvalue = 2.54"] ;
326 -> 327 ;
328 [label="mse = 0.0\nsamples = 1\nvalue = 2.56"] ;
327 -> 328 ;
329 [label="mse = -0.0\nsamples = 1\nvalue = 2.52"] ;
327 -> 329 ;
330 [label="mse = 0.0\nsamples = 1\nvalue = 2.67"] ;
326 -> 330 ;
331 [label="camber <= -0.45\nmse = 0.034\nsamples = 169\nvalue = 3.286"] ;
1 -> 331 ;
332 [label="hoogte <= 28.5\nmse = 0.036\nsamples = 80\nvalue = 3.339"] ;
331 -> 332 ;
333 [label="bandendruk <= 0.65\nmse = 0.033\nsamples = 31\nvalue = 3.428"] ;
332 -> 333 ;
334 [label="hoogte <= 27.5\nmse = 0.029\nsamples = 8\nvalue = 3.531"] ;
333 -> 334 ;
335 [label="hoogte <= 21.5\nmse = 0.022\nsamples = 6\nvalue = 3.467"] ;
334 -> 335 ;
336 [label="mse = 0.0\nsamples = 1\nvalue = 3.28"] ;
335 -> 336 ;
337 [label="toespoor <= 1002.5\nmse = 0.018\nsamples = 5\nvalue = 3.504"] ;
335 -> 337 ;
338 [label="camber <= -0.8\nmse = 0.004\nsamples = 2\nvalue = 3.35"] ;
337 -> 338 ;
339 [label="mse = 0.0\nsamples = 1\nvalue = 3.29"] ;
338 -> 339 ;
340 [label="mse = 0.0\nsamples = 1\nvalue = 3.41"] ;
338 -> 340 ;
341 [label="camber <= -0.6\nmse = 0.002\nsamples = 3\nvalue = 3.607"] ;
337 -> 341 ;
342 [label="hoogte <= 24.0\nmse = 0.0\nsamples = 2\nvalue = 3.635"] ;
341 -> 342 ;
343 [label="mse = 0.0\nsamples = 1\nvalue = 3.63"] ;
342 -> 343 ;
344 [label="mse = 0.0\nsamples = 1\nvalue = 3.64"] ;
342 -> 344 ;
345 [label="mse = -0.0\nsamples = 1\nvalue = 3.55"] ;
341 -> 345 ;
346 [label="camber <= -0.65\nmse = 0.001\nsamples = 2\nvalue = 3.725"] ;
334 -> 346 ;
347 [label="mse = 0.0\nsamples = 1\nvalue = 3.76"] ;
346 -> 347 ;
348 [label="mse = 0.0\nsamples = 1\nvalue = 3.69"] ;
346 -> 348 ;
349 [label="toespoor <= 997.5\nmse = 0.029\nsamples = 23\nvalue = 3.392"] ;
333 -> 349 ;
350 [label="hoogte <= 22.0\nmse = 0.03\nsamples = 8\nvalue = 3.492"] ;
349 -> 350 ;
351 [label="mse = 0.0\nsamples = 1\nvalue = 3.26"] ;
350 -> 351 ;
352 [label="hoogte <= 25.5\nmse = 0.026\nsamples = 7\nvalue = 3.526"] ;
350 -> 352 ;
353 [label="camber <= -0.95\nmse = 0.028\nsamples = 3\nvalue = 3.647"] ;
352 -> 353 ;
354 [label="mse = 0.0\nsamples = 1\nvalue = 3.43"] ;
353 -> 354 ;
355 [label="camber <= -0.8\nmse = 0.007\nsamples = 2\nvalue = 3.755"] ;
353 -> 355 ;
356 [label="mse = 0.0\nsamples = 1\nvalue = 3.84"] ;
355 -> 356 ;
357 [label="mse = 0.0\nsamples = 1\nvalue = 3.67"] ;
355 -> 357 ;
358 [label="camber <= -0.7\nmse = 0.005\nsamples = 4\nvalue = 3.435"] ;
352 -> 358 ;
359 [label="camber <= -0.9\nmse = 0.0\nsamples = 2\nvalue = 3.37"] ;
358 -> 359 ;
360 [label="mse = 0.0\nsamples = 1\nvalue = 3.36"] ;
359 -> 360 ;
361 [label="mse = -0.0\nsamples = 1\nvalue = 3.38"] ;
359 -> 361 ;
362 [label="bandendruk <= 0.75\nmse = 0.001\nsamples = 2\nvalue = 3.5"] ;
358 -> 362 ;
363 [label="mse = 0.0\nsamples = 1\nvalue = 3.53"] ;
362 -> 363 ;
364 [label="mse = 0.0\nsamples = 1\nvalue = 3.47"] ;
362 -> 364 ;
365 [label="toespoor <= 1003.5\nmse = 0.02\nsamples = 15\nvalue = 3.339"] ;
349 -> 365 ;
366 [label="camber <= -0.65\nmse = 0.014\nsamples = 11\nvalue = 3.307"] ;
365 -> 366 ;
367 [label="camber <= -0.85\nmse = 0.009\nsamples = 6\nvalue = 3.225"] ;
366 -> 367 ;
368 [label="bandendruk <= 0.75\nmse = 0.004\nsamples = 3\nvalue = 3.307"] ;
367 -> 368 ;
369 [label="toespoor <= 1000.5\nmse = 0.001\nsamples = 2\nvalue = 3.265"] ;
368 -> 369 ;
370 [label="mse = 0.0\nsamples = 1\nvalue = 3.29"] ;
369 -> 370 ;
371 [label="mse = -0.0\nsamples = 1\nvalue = 3.24"] ;
369 -> 371 ;
372 [label="mse = -0.0\nsamples = 1\nvalue = 3.39"] ;
368 -> 372 ;
373 [label="bandendruk <= 0.75\nmse = 0.001\nsamples = 3\nvalue = 3.143"] ;
367 -> 373 ;
374 [label="toespoor <= 1001.0\nmse = 0.0\nsamples = 2\nvalue = 3.17"] ;
373 -> 374 ;
375 [label="mse = 0.0\nsamples = 1\nvalue = 3.18"] ;
374 -> 375 ;
376 [label="mse = 0.0\nsamples = 1\nvalue = 3.16"] ;
374 -> 376 ;
377 [label="mse = 0.0\nsamples = 1\nvalue = 3.09"] ;
373 -> 377 ;
378 [label="camber <= -0.55\nmse = 0.002\nsamples = 5\nvalue = 3.406"] ;
366 -> 378 ;
379 [label="toespoor <= 1002.0\nmse = 0.001\nsamples = 3\nvalue = 3.373"] ;
378 -> 379 ;
380 [label="toespoor <= 999.5\nmse = 0.0\nsamples = 2\nvalue = 3.355"] ;
379 -> 380 ;
381 [label="mse = 0.0\nsamples = 1\nvalue = 3.34"] ;
380 -> 381 ;
382 [label="mse = 0.0\nsamples = 1\nvalue = 3.37"] ;
380 -> 382 ;
383 [label="mse = 0.0\nsamples = 1\nvalue = 3.41"] ;
379 -> 383 ;
384 [label="hoogte <= 25.0\nmse = 0.0\nsamples = 2\nvalue = 3.455"] ;
378 -> 384 ;
385 [label="mse = 0.0\nsamples = 1\nvalue = 3.46"] ;
384 -> 385 ;
386 [label="mse = 0.0\nsamples = 1\nvalue = 3.45"] ;
384 -> 386 ;
387 [label="toespoor <= 1004.5\nmse = 0.024\nsamples = 4\nvalue = 3.425"] ;
365 -> 387 ;
388 [label="hoogte <= 24.0\nmse = 0.022\nsamples = 2\nvalue = 3.54"] ;
387 -> 388 ;
389 [label="mse = 0.0\nsamples = 1\nvalue = 3.69"] ;
388 -> 389 ;
390 [label="mse = 0.0\nsamples = 1\nvalue = 3.39"] ;
388 -> 390 ;
391 [label="mse = -0.0\nsamples = 2\nvalue = 3.31"] ;
387 -> 391 ;
392 [label="camber <= -0.85\nmse = 0.03\nsamples = 49\nvalue = 3.283"] ;
332 -> 392 ;
393 [label="hoogte <= 31.5\nmse = 0.027\nsamples = 18\nvalue = 3.183"] ;
392 -> 393 ;
394 [label="bandendruk <= 0.75\nmse = 0.002\nsamples = 2\nvalue = 3.0"] ;
393 -> 394 ;
395 [label="mse = 0.0\nsamples = 1\nvalue = 2.95"] ;
394 -> 395 ;
396 [label="mse = 0.0\nsamples = 1\nvalue = 3.05"] ;
394 -> 396 ;
397 [label="hoogte <= 36.5\nmse = 0.025\nsamples = 16\nvalue = 3.206"] ;
393 -> 397 ;
398 [label="bandendruk <= 0.65\nmse = 0.019\nsamples = 11\nvalue = 3.24"] ;
397 -> 398 ;
399 [label="toespoor <= 995.5\nmse = 0.011\nsamples = 3\nvalue = 3.333"] ;
398 -> 399 ;
400 [label="mse = 0.0\nsamples = 1\nvalue = 3.19"] ;
399 -> 400 ;
401 [label="hoogte <= 34.5\nmse = 0.001\nsamples = 2\nvalue = 3.405"] ;
399 -> 401 ;
402 [label="mse = 0.0\nsamples = 1\nvalue = 3.38"] ;
401 -> 402 ;
403 [label="mse = -0.0\nsamples = 1\nvalue = 3.43"] ;
401 -> 403 ;
404 [label="toespoor <= 1003.0\nmse = 0.017\nsamples = 8\nvalue = 3.205"] ;
398 -> 404 ;
405 [label="toespoor <= 999.5\nmse = 0.02\nsamples = 5\nvalue = 3.152"] ;
404 -> 405 ;
406 [label="toespoor <= 997.0\nmse = 0.016\nsamples = 3\nvalue = 3.233"] ;
405 -> 406 ;
407 [label="hoogte <= 34.0\nmse = 0.008\nsamples = 2\nvalue = 3.16"] ;
406 -> 407 ;
408 [label="mse = 0.0\nsamples = 1\nvalue = 3.25"] ;
407 -> 408 ;
409 [label="mse = 0.0\nsamples = 1\nvalue = 3.07"] ;
407 -> 409 ;
410 [label="mse = 0.0\nsamples = 1\nvalue = 3.38"] ;
406 -> 410 ;
411 [label="bandendruk <= 0.75\nmse = 0.0\nsamples = 2\nvalue = 3.03"] ;
405 -> 411 ;
412 [label="mse = 0.0\nsamples = 1\nvalue = 3.02"] ;
411 -> 412 ;
413 [label="mse = -0.0\nsamples = 1\nvalue = 3.04"] ;
411 -> 413 ;
414 [label="bandendruk <= 0.75\nmse = 0.001\nsamples = 3\nvalue = 3.293"] ;
404 -> 414 ;
415 [label="mse = 0.0\nsamples = 2\nvalue = 3.27"] ;
414 -> 415 ;
416 [label="mse = 0.0\nsamples = 1\nvalue = 3.34"] ;
414 -> 416 ;
417 [label="toespoor <= 1000.0\nmse = 0.03\nsamples = 5\nvalue = 3.132"] ;
397 -> 417 ;
418 [label="mse = 0.0\nsamples = 1\nvalue = 2.83"] ;
417 -> 418 ;
419 [label="bandendruk <= 0.7\nmse = 0.009\nsamples = 4\nvalue = 3.208"] ;
417 -> 419 ;
420 [label="mse = 0.0\nsamples = 1\nvalue = 3.15"] ;
419 -> 420 ;
421 [label="hoogte <= 39.0\nmse = 0.01\nsamples = 3\nvalue = 3.227"] ;
419 -> 421 ;
422 [label="mse = 0.016\nsamples = 2\nvalue = 3.225"] ;
421 -> 422 ;
423 [label="mse = -0.0\nsamples = 1\nvalue = 3.23"] ;
421 -> 423 ;
424 [label="bandendruk <= 0.75\nmse = 0.024\nsamples = 31\nvalue = 3.341"] ;
392 -> 424 ;
425 [label="toespoor <= 1004.5\nmse = 0.014\nsamples = 23\nvalue = 3.384"] ;
424 -> 425 ;
426 [label="hoogte <= 37.0\nmse = 0.011\nsamples = 22\nvalue = 3.398"] ;
425 -> 426 ;
427 [label="toespoor <= 995.5\nmse = 0.01\nsamples = 13\nvalue = 3.422"] ;
426 -> 427 ;
428 [label="mse = 0.0\nsamples = 1\nvalue = 3.17"] ;
427 -> 428 ;
429 [label="camber <= -0.55\nmse = 0.005\nsamples = 12\nvalue = 3.443"] ;
427 -> 429 ;
430 [label="camber <= -0.75\nmse = 0.004\nsamples = 8\nvalue = 3.414"] ;
429 -> 430 ;
431 [label="toespoor <= 1002.5\nmse = 0.0\nsamples = 3\nvalue = 3.49"] ;
430 -> 431 ;
432 [label="hoogte <= 31.5\nmse = 0.0\nsamples = 2\nvalue = 3.48"] ;
431 -> 432 ;
433 [label="mse = 0.0\nsamples = 1\nvalue = 3.49"] ;
432 -> 433 ;
434 [label="mse = -0.0\nsamples = 1\nvalue = 3.47"] ;
432 -> 434 ;
435 [label="mse = -0.0\nsamples = 1\nvalue = 3.51"] ;
431 -> 435 ;
436 [label="bandendruk <= 0.65\nmse = 0.001\nsamples = 5\nvalue = 3.368"] ;
430 -> 436 ;
437 [label="mse = 0.0\nsamples = 1\nvalue = 3.31"] ;
436 -> 437 ;
438 [label="hoogte <= 32.5\nmse = 0.0\nsamples = 4\nvalue = 3.383"] ;
436 -> 438 ;
439 [label="mse = -0.0\nsamples = 3\nvalue = 3.37"] ;
438 -> 439 ;
440 [label="mse = 0.0\nsamples = 1\nvalue = 3.42"] ;
438 -> 440 ;
441 [label="toespoor <= 1000.5\nmse = 0.001\nsamples = 4\nvalue = 3.5"] ;
429 -> 441 ;
442 [label="hoogte <= 33.5\nmse = 0.0\nsamples = 3\nvalue = 3.513"] ;
441 -> 442 ;
443 [label="mse = 0.0\nsamples = 2\nvalue = 3.515"] ;
442 -> 443 ;
444 [label="mse = 0.0\nsamples = 1\nvalue = 3.51"] ;
442 -> 444 ;
445 [label="mse = 0.0\nsamples = 1\nvalue = 3.46"] ;
441 -> 445 ;
446 [label="bandendruk <= 0.65\nmse = 0.01\nsamples = 9\nvalue = 3.364"] ;
426 -> 446 ;
447 [label="hoogte <= 38.5\nmse = 0.004\nsamples = 5\nvalue = 3.43"] ;
446 -> 447 ;
448 [label="mse = 0.0\nsamples = 1\nvalue = 3.54"] ;
447 -> 448 ;
449 [label="toespoor <= 999.5\nmse = 0.002\nsamples = 4\nvalue = 3.402"] ;
447 -> 449 ;
450 [label="camber <= -0.75\nmse = 0.001\nsamples = 3\nvalue = 3.423"] ;
449 -> 450 ;
451 [label="mse = 0.0\nsamples = 1\nvalue = 3.39"] ;
450 -> 451 ;
452 [label="camber <= -0.6\nmse = 0.0\nsamples = 2\nvalue = 3.44"] ;
450 -> 452 ;
453 [label="mse = 0.0\nsamples = 1\nvalue = 3.43"] ;
452 -> 453 ;
454 [label="mse = -0.0\nsamples = 1\nvalue = 3.45"] ;
452 -> 454 ;
455 [label="mse = 0.0\nsamples = 1\nvalue = 3.34"] ;
449 -> 455 ;
456 [label="hoogte <= 39.0\nmse = 0.005\nsamples = 4\nvalue = 3.282"] ;
446 -> 456 ;
457 [label="camber <= -0.65\nmse = 0.001\nsamples = 2\nvalue = 3.22"] ;
456 -> 457 ;
458 [label="mse = 0.0\nsamples = 1\nvalue = 3.25"] ;
457 -> 458 ;
459 [label="mse = 0.0\nsamples = 1\nvalue = 3.19"] ;
457 -> 459 ;
460 [label="toespoor <= 998.5\nmse = 0.002\nsamples = 2\nvalue = 3.345"] ;
456 -> 460 ;
461 [label="mse = 0.0\nsamples = 1\nvalue = 3.3"] ;
460 -> 461 ;
462 [label="mse = 0.0\nsamples = 1\nvalue = 3.39"] ;
460 -> 462 ;
463 [label="mse = 0.0\nsamples = 1\nvalue = 3.08"] ;
425 -> 463 ;
464 [label="toespoor <= 998.5\nmse = 0.029\nsamples = 8\nvalue = 3.216"] ;
424 -> 464 ;
465 [label="camber <= -0.6\nmse = 0.012\nsamples = 4\nvalue = 3.085"] ;
464 -> 465 ;
466 [label="hoogte <= 34.0\nmse = 0.0\nsamples = 2\nvalue = 3.18"] ;
465 -> 466 ;
467 [label="mse = 0.0\nsamples = 1\nvalue = 3.2"] ;
466 -> 467 ;
468 [label="mse = 0.0\nsamples = 1\nvalue = 3.16"] ;
466 -> 468 ;
469 [label="hoogte <= 36.0\nmse = 0.006\nsamples = 2\nvalue = 2.99"] ;
465 -> 469 ;
470 [label="mse = 0.0\nsamples = 1\nvalue = 3.07"] ;
469 -> 470 ;
471 [label="mse = -0.0\nsamples = 1\nvalue = 2.91"] ;
469 -> 471 ;
472 [label="camber <= -0.65\nmse = 0.01\nsamples = 4\nvalue = 3.348"] ;
464 -> 472 ;
473 [label="hoogte <= 32.0\nmse = 0.004\nsamples = 2\nvalue = 3.44"] ;
472 -> 473 ;
474 [label="mse = 0.0\nsamples = 1\nvalue = 3.5"] ;
473 -> 474 ;
475 [label="mse = 0.0\nsamples = 1\nvalue = 3.38"] ;
473 -> 475 ;
476 [label="camber <= -0.55\nmse = 0.0\nsamples = 2\nvalue = 3.255"] ;
472 -> 476 ;
477 [label="mse = 0.0\nsamples = 1\nvalue = 3.24"] ;
476 -> 477 ;
478 [label="mse = 0.0\nsamples = 1\nvalue = 3.27"] ;
476 -> 478 ;
479 [label="bandendruk <= 0.65\nmse = 0.026\nsamples = 89\nvalue = 3.238"] ;
331 -> 479 ;
480 [label="toespoor <= 1002.5\nmse = 0.014\nsamples = 19\nvalue = 3.295"] ;
479 -> 480 ;
481 [label="hoogte <= 35.0\nmse = 0.01\nsamples = 16\nvalue = 3.276"] ;
480 -> 481 ;
482 [label="toespoor <= 1001.0\nmse = 0.01\nsamples = 10\nvalue = 3.232"] ;
481 -> 482 ;
483 [label="toespoor <= 997.5\nmse = 0.007\nsamples = 9\nvalue = 3.253"] ;
482 -> 483 ;
484 [label="toespoor <= 995.5\nmse = 0.002\nsamples = 4\nvalue = 3.198"] ;
483 -> 484 ;
485 [label="mse = 0.0\nsamples = 1\nvalue = 3.13"] ;
484 -> 485 ;
486 [label="hoogte <= 22.5\nmse = 0.0\nsamples = 3\nvalue = 3.22"] ;
484 -> 486 ;
487 [label="mse = 0.0\nsamples = 1\nvalue = 3.24"] ;
486 -> 487 ;
488 [label="mse = 0.0\nsamples = 2\nvalue = 3.21"] ;
486 -> 488 ;
489 [label="hoogte <= 25.0\nmse = 0.007\nsamples = 5\nvalue = 3.298"] ;
483 -> 489 ;
490 [label="mse = 0.0\nsamples = 1\nvalue = 3.19"] ;
489 -> 490 ;
491 [label="toespoor <= 998.5\nmse = 0.005\nsamples = 4\nvalue = 3.325"] ;
489 -> 491 ;
492 [label="mse = 0.0\nsamples = 1\nvalue = 3.41"] ;
491 -> 492 ;
493 [label="camber <= -0.2\nmse = 0.003\nsamples = 3\nvalue = 3.297"] ;
491 -> 493 ;
494 [label="mse = 0.0\nsamples = 1\nvalue = 3.23"] ;
493 -> 494 ;
495 [label="hoogte <= 31.5\nmse = 0.002\nsamples = 2\nvalue = 3.33"] ;
493 -> 495 ;
496 [label="mse = 0.0\nsamples = 1\nvalue = 3.29"] ;
495 -> 496 ;
497 [label="mse = 0.0\nsamples = 1\nvalue = 3.37"] ;
495 -> 497 ;
498 [label="mse = -0.0\nsamples = 1\nvalue = 3.04"] ;
482 -> 498 ;
499 [label="hoogte <= 39.5\nmse = 0.002\nsamples = 6\nvalue = 3.348"] ;
481 -> 499 ;
500 [label="toespoor <= 1001.5\nmse = 0.001\nsamples = 5\nvalue = 3.334"] ;
499 -> 500 ;
501 [label="hoogte <= 38.5\nmse = 0.001\nsamples = 4\nvalue = 3.343"] ;
500 -> 501 ;
502 [label="hoogte <= 37.0\nmse = 0.0\nsamples = 3\nvalue = 3.327"] ;
501 -> 502 ;
503 [label="toespoor <= 1000.0\nmse = 0.0\nsamples = 2\nvalue = 3.32"] ;
502 -> 503 ;
504 [label="mse = 0.0\nsamples = 1\nvalue = 3.3"] ;
503 -> 504 ;
505 [label="mse = 0.0\nsamples = 1\nvalue = 3.34"] ;
503 -> 505 ;
506 [label="mse = 0.0\nsamples = 1\nvalue = 3.34"] ;
502 -> 506 ;
507 [label="mse = -0.0\nsamples = 1\nvalue = 3.39"] ;
501 -> 507 ;
508 [label="mse = -0.0\nsamples = 1\nvalue = 3.3"] ;
500 -> 508 ;
509 [label="mse = 0.0\nsamples = 1\nvalue = 3.42"] ;
499 -> 509 ;
510 [label="hoogte <= 30.5\nmse = 0.021\nsamples = 3\nvalue = 3.397"] ;
480 -> 510 ;
511 [label="mse = 0.0\nsamples = 1\nvalue = 3.6"] ;
510 -> 511 ;
512 [label="hoogte <= 39.5\nmse = 0.001\nsamples = 2\nvalue = 3.295"] ;
510 -> 512 ;
513 [label="mse = 0.0\nsamples = 1\nvalue = 3.26"] ;
512 -> 513 ;
514 [label="mse = 0.0\nsamples = 1\nvalue = 3.33"] ;
512 -> 514 ;
515 [label="hoogte <= 30.5\nmse = 0.028\nsamples = 70\nvalue = 3.223"] ;
479 -> 515 ;
516 [label="hoogte <= 25.5\nmse = 0.03\nsamples = 31\nvalue = 3.262"] ;
515 -> 516 ;
517 [label="hoogte <= 20.5\nmse = 0.026\nsamples = 18\nvalue = 3.196"] ;
516 -> 517 ;
518 [label="camber <= -0.1\nmse = 0.011\nsamples = 2\nvalue = 3.395"] ;
517 -> 518 ;
519 [label="mse = 0.0\nsamples = 1\nvalue = 3.5"] ;
518 -> 519 ;
520 [label="mse = 0.0\nsamples = 1\nvalue = 3.29"] ;
518 -> 520 ;
521 [label="camber <= -0.15\nmse = 0.023\nsamples = 16\nvalue = 3.171"] ;
517 -> 521 ;
522 [label="camber <= -0.25\nmse = 0.021\nsamples = 11\nvalue = 3.136"] ;
521 -> 522 ;
523 [label="hoogte <= 24.5\nmse = 0.011\nsamples = 9\nvalue = 3.188"] ;
522 -> 523 ;
524 [label="camber <= -0.35\nmse = 0.008\nsamples = 7\nvalue = 3.214"] ;
523 -> 524 ;
525 [label="toespoor <= 1000.5\nmse = 0.004\nsamples = 4\nvalue = 3.168"] ;
524 -> 525 ;
526 [label="hoogte <= 22.5\nmse = 0.003\nsamples = 2\nvalue = 3.215"] ;
525 -> 526 ;
527 [label="mse = 0.0\nsamples = 1\nvalue = 3.27"] ;
526 -> 527 ;
528 [label="mse = 0.0\nsamples = 1\nvalue = 3.16"] ;
526 -> 528 ;
529 [label="toespoor <= 1003.5\nmse = 0.0\nsamples = 2\nvalue = 3.12"] ;
525 -> 529 ;
530 [label="mse = 0.0\nsamples = 1\nvalue = 3.11"] ;
529 -> 530 ;
531 [label="mse = -0.0\nsamples = 1\nvalue = 3.13"] ;
529 -> 531 ;
532 [label="hoogte <= 23.5\nmse = 0.007\nsamples = 3\nvalue = 3.277"] ;
524 -> 532 ;
533 [label="bandendruk <= 0.75\nmse = 0.002\nsamples = 2\nvalue = 3.225"] ;
532 -> 533 ;
534 [label="mse = 0.0\nsamples = 1\nvalue = 3.27"] ;
533 -> 534 ;
535 [label="mse = 0.0\nsamples = 1\nvalue = 3.18"] ;
533 -> 535 ;
536 [label="mse = 0.0\nsamples = 1\nvalue = 3.38"] ;
532 -> 536 ;
537 [label="toespoor <= 998.0\nmse = 0.011\nsamples = 2\nvalue = 3.095"] ;
523 -> 537 ;
538 [label="mse = 0.0\nsamples = 1\nvalue = 3.2"] ;
537 -> 538 ;
539 [label="mse = 0.0\nsamples = 1\nvalue = 2.99"] ;
537 -> 539 ;
540 [label="toespoor <= 997.5\nmse = 0.002\nsamples = 2\nvalue = 2.905"] ;
522 -> 540 ;
541 [label="mse = 0.0\nsamples = 1\nvalue = 2.95"] ;
540 -> 541 ;
542 [label="mse = -0.0\nsamples = 1\nvalue = 2.86"] ;
540 -> 542 ;
543 [label="toespoor <= 997.5\nmse = 0.017\nsamples = 5\nvalue = 3.246"] ;
521 -> 543 ;
544 [label="mse = 0.0\nsamples = 1\nvalue = 3.44"] ;
543 -> 544 ;
545 [label="hoogte <= 24.5\nmse = 0.009\nsamples = 4\nvalue = 3.198"] ;
543 -> 545 ;
546 [label="toespoor <= 1000.5\nmse = 0.001\nsamples = 3\nvalue = 3.25"] ;
545 -> 546 ;
547 [label="camber <= -0.05\nmse = 0.0\nsamples = 2\nvalue = 3.275"] ;
546 -> 547 ;
548 [label="mse = 0.0\nsamples = 1\nvalue = 3.28"] ;
547 -> 548 ;
549 [label="mse = -0.0\nsamples = 1\nvalue = 3.27"] ;
547 -> 549 ;
550 [label="mse = 0.0\nsamples = 1\nvalue = 3.2"] ;
546 -> 550 ;
551 [label="mse = -0.0\nsamples = 1\nvalue = 3.04"] ;
545 -> 551 ;
552 [label="bandendruk <= 0.75\nmse = 0.021\nsamples = 13\nvalue = 3.353"] ;
516 -> 552 ;
553 [label="camber <= -0.1\nmse = 0.017\nsamples = 7\nvalue = 3.284"] ;
552 -> 553 ;
554 [label="camber <= -0.25\nmse = 0.003\nsamples = 6\nvalue = 3.235"] ;
553 -> 554 ;
555 [label="toespoor <= 1001.5\nmse = 0.003\nsamples = 4\nvalue = 3.252"] ;
554 -> 555 ;
556 [label="hoogte <= 29.0\nmse = 0.001\nsamples = 2\nvalue = 3.285"] ;
555 -> 556 ;
557 [label="mse = 0.0\nsamples = 1\nvalue = 3.32"] ;
556 -> 557 ;
558 [label="mse = -0.0\nsamples = 1\nvalue = 3.25"] ;
556 -> 558 ;
559 [label="toespoor <= 1003.5\nmse = 0.004\nsamples = 2\nvalue = 3.22"] ;
555 -> 559 ;
560 [label="mse = 0.0\nsamples = 1\nvalue = 3.16"] ;
559 -> 560 ;
561 [label="mse = 0.0\nsamples = 1\nvalue = 3.28"] ;
559 -> 561 ;
562 [label="hoogte <= 29.0\nmse = 0.0\nsamples = 2\nvalue = 3.2"] ;
554 -> 562 ;
563 [label="mse = 0.0\nsamples = 1\nvalue = 3.19"] ;
562 -> 563 ;
564 [label="mse = -0.0\nsamples = 1\nvalue = 3.21"] ;
562 -> 564 ;
565 [label="mse = 0.0\nsamples = 1\nvalue = 3.58"] ;
553 -> 565 ;
566 [label="hoogte <= 29.0\nmse = 0.014\nsamples = 6\nvalue = 3.433"] ;
552 -> 566 ;
567 [label="toespoor <= 1002.0\nmse = 0.014\nsamples = 3\nvalue = 3.35"] ;
566 -> 567 ;
568 [label="mse = 0.0\nsamples = 1\nvalue = 3.19"] ;
567 -> 568 ;
569 [label="hoogte <= 27.0\nmse = 0.002\nsamples = 2\nvalue = 3.43"] ;
567 -> 569 ;
570 [label="mse = 0.0\nsamples = 1\nvalue = 3.47"] ;
569 -> 570 ;
571 [label="mse = 0.0\nsamples = 1\nvalue = 3.39"] ;
569 -> 571 ;
572 [label="camber <= -0.25\nmse = 0.001\nsamples = 3\nvalue = 3.517"] ;
566 -> 572 ;
573 [label="toespoor <= 1000.0\nmse = 0.0\nsamples = 2\nvalue = 3.535"] ;
572 -> 573 ;
574 [label="mse = 0.0\nsamples = 1\nvalue = 3.55"] ;
573 -> 574 ;
575 [label="mse = -0.0\nsamples = 1\nvalue = 3.52"] ;
573 -> 575 ;
576 [label="mse = -0.0\nsamples = 1\nvalue = 3.48"] ;
572 -> 576 ;
577 [label="toespoor <= 997.5\nmse = 0.025\nsamples = 39\nvalue = 3.192"] ;
515 -> 577 ;
578 [label="bandendruk <= 0.75\nmse = 0.021\nsamples = 13\nvalue = 3.25"] ;
577 -> 578 ;
579 [label="toespoor <= 995.5\nmse = 0.009\nsamples = 8\nvalue = 3.341"] ;
578 -> 579 ;
580 [label="hoogte <= 35.5\nmse = 0.009\nsamples = 3\nvalue = 3.413"] ;
579 -> 580 ;
581 [label="mse = 0.0\nsamples = 1\nvalue = 3.53"] ;
580 -> 581 ;
582 [label="camber <= -0.2\nmse = 0.003\nsamples = 2\nvalue = 3.355"] ;
580 -> 582 ;
583 [label="mse = 0.0\nsamples = 1\nvalue = 3.3"] ;
582 -> 583 ;
584 [label="mse = 0.0\nsamples = 1\nvalue = 3.41"] ;
582 -> 584 ;
585 [label="camber <= -0.2\nmse = 0.005\nsamples = 5\nvalue = 3.298"] ;
579 -> 585 ;
586 [label="hoogte <= 32.5\nmse = 0.001\nsamples = 3\nvalue = 3.25"] ;
585 -> 586 ;
587 [label="mse = 0.002\nsamples = 2\nvalue = 3.245"] ;
586 -> 587 ;
588 [label="mse = 0.0\nsamples = 1\nvalue = 3.26"] ;
586 -> 588 ;
589 [label="hoogte <= 35.5\nmse = 0.001\nsamples = 2\nvalue = 3.37"] ;
585 -> 589 ;
590 [label="mse = 0.0\nsamples = 1\nvalue = 3.4"] ;
589 -> 590 ;
591 [label="mse = -0.0\nsamples = 1\nvalue = 3.34"] ;
589 -> 591 ;
592 [label="camber <= -0.15\nmse = 0.006\nsamples = 5\nvalue = 3.104"] ;
578 -> 592 ;
593 [label="hoogte <= 37.5\nmse = 0.001\nsamples = 4\nvalue = 3.07"] ;
592 -> 593 ;
594 [label="hoogte <= 34.0\nmse = 0.0\nsamples = 3\nvalue = 3.09"] ;
593 -> 594 ;
595 [label="mse = 0.0\nsamples = 2\nvalue = 3.1"] ;
594 -> 595 ;
596 [label="mse = -0.0\nsamples = 1\nvalue = 3.07"] ;
594 -> 596 ;
597 [label="mse = 0.0\nsamples = 1\nvalue = 3.01"] ;
593 -> 597 ;
598 [label="mse = 0.0\nsamples = 1\nvalue = 3.24"] ;
592 -> 598 ;
599 [label="hoogte <= 39.5\nmse = 0.024\nsamples = 26\nvalue = 3.163"] ;
577 -> 599 ;
600 [label="camber <= -0.05\nmse = 0.023\nsamples = 22\nvalue = 3.187"] ;
599 -> 600 ;
601 [label="camber <= -0.25\nmse = 0.02\nsamples = 19\nvalue = 3.214"] ;
600 -> 601 ;
602 [label="hoogte <= 35.5\nmse = 0.009\nsamples = 9\nvalue = 3.136"] ;
601 -> 602 ;
603 [label="bandendruk <= 0.75\nmse = 0.002\nsamples = 4\nvalue = 3.048"] ;
602 -> 603 ;
604 [label="mse = 0.0\nsamples = 1\nvalue = 3.12"] ;
603 -> 604 ;
605 [label="hoogte <= 32.5\nmse = 0.0\nsamples = 3\nvalue = 3.023"] ;
603 -> 605 ;
606 [label="mse = 0.0\nsamples = 1\nvalue = 3.03"] ;
605 -> 606 ;
607 [label="toespoor <= 998.5\nmse = 0.0\nsamples = 2\nvalue = 3.02"] ;
605 -> 607 ;
608 [label="mse = 0.0\nsamples = 1\nvalue = 3.03"] ;
607 -> 608 ;
609 [label="mse = 0.0\nsamples = 1\nvalue = 3.01"] ;
607 -> 609 ;
610 [label="bandendruk <= 0.75\nmse = 0.003\nsamples = 5\nvalue = 3.206"] ;
602 -> 610 ;
611 [label="toespoor <= 1003.0\nmse = 0.001\nsamples = 2\nvalue = 3.145"] ;
610 -> 611 ;
612 [label="mse = 0.0\nsamples = 1\nvalue = 3.18"] ;
611 -> 612 ;
613 [label="mse = 0.0\nsamples = 1\nvalue = 3.11"] ;
611 -> 613 ;
614 [label="hoogte <= 38.5\nmse = 0.001\nsamples = 3\nvalue = 3.247"] ;
610 -> 614 ;
615 [label="hoogte <= 37.0\nmse = 0.0\nsamples = 2\nvalue = 3.265"] ;
614 -> 615 ;
616 [label="mse = 0.0\nsamples = 1\nvalue = 3.25"] ;
615 -> 616 ;
617 [label="mse = 0.0\nsamples = 1\nvalue = 3.28"] ;
615 -> 617 ;
618 [label="mse = 0.0\nsamples = 1\nvalue = 3.21"] ;
614 -> 618 ;
619 [label="toespoor <= 1000.0\nmse = 0.02\nsamples = 10\nvalue = 3.285"] ;
601 -> 619 ;
620 [label="toespoor <= 998.5\nmse = 0.002\nsamples = 2\nvalue = 3.405"] ;
619 -> 620 ;
621 [label="mse = 0.0\nsamples = 1\nvalue = 3.36"] ;
620 -> 621 ;
622 [label="mse = -0.0\nsamples = 1\nvalue = 3.45"] ;
620 -> 622 ;
623 [label="toespoor <= 1001.5\nmse = 0.02\nsamples = 8\nvalue = 3.255"] ;
619 -> 623 ;
624 [label="mse = 0.0\nsamples = 1\nvalue = 2.9"] ;
623 -> 624 ;
625 [label="toespoor <= 1004.0\nmse = 0.002\nsamples = 7\nvalue = 3.306"] ;
623 -> 625 ;
626 [label="toespoor <= 1002.5\nmse = 0.0\nsamples = 4\nvalue = 3.272"] ;
625 -> 626 ;
627 [label="mse = 0.0\nsamples = 1\nvalue = 3.26"] ;
626 -> 627 ;
628 [label="hoogte <= 38.5\nmse = 0.0\nsamples = 3\nvalue = 3.277"] ;
626 -> 628 ;
629 [label="camber <= -0.15\nmse = 0.0\nsamples = 2\nvalue = 3.285"] ;
628 -> 629 ;
630 [label="mse = 0.0\nsamples = 1\nvalue = 3.28"] ;
629 -> 630 ;
631 [label="mse = -0.0\nsamples = 1\nvalue = 3.29"] ;
629 -> 631 ;
632 [label="mse = 0.0\nsamples = 1\nvalue = 3.26"] ;
628 -> 632 ;
633 [label="camber <= -0.15\nmse = 0.002\nsamples = 3\nvalue = 3.35"] ;
625 -> 633 ;
634 [label="mse = 0.0\nsamples = 1\nvalue = 3.41"] ;
633 -> 634 ;
635 [label="hoogte <= 33.5\nmse = 0.0\nsamples = 2\nvalue = 3.32"] ;
633 -> 635 ;
636 [label="mse = 0.0\nsamples = 1\nvalue = 3.31"] ;
635 -> 636 ;
637 [label="mse = -0.0\nsamples = 1\nvalue = 3.33"] ;
635 -> 637 ;
638 [label="hoogte <= 32.0\nmse = 0.006\nsamples = 3\nvalue = 3.013"] ;
600 -> 638 ;
639 [label="bandendruk <= 0.75\nmse = 0.002\nsamples = 2\nvalue = 2.965"] ;
638 -> 639 ;
640 [label="mse = 0.0\nsamples = 1\nvalue = 3.01"] ;
639 -> 640 ;
641 [label="mse = 0.0\nsamples = 1\nvalue = 2.92"] ;
639 -> 641 ;
642 [label="mse = 0.0\nsamples = 1\nvalue = 3.11"] ;
638 -> 642 ;
643 [label="camber <= -0.05\nmse = 0.009\nsamples = 4\nvalue = 3.03"] ;
599 -> 643 ;
644 [label="toespoor <= 1001.5\nmse = 0.003\nsamples = 3\nvalue = 2.983"] ;
643 -> 644 ;
645 [label="mse = 0.0\nsamples = 1\nvalue = 2.93"] ;
644 -> 645 ;
646 [label="camber <= -0.2\nmse = 0.002\nsamples = 2\nvalue = 3.01"] ;
644 -> 646 ;
647 [label="mse = 0.0\nsamples = 1\nvalue = 2.96"] ;
646 -> 647 ;
648 [label="mse = 0.0\nsamples = 1\nvalue = 3.06"] ;
646 -> 648 ;
649 [label="mse = 0.0\nsamples = 1\nvalue = 3.17"] ;
643 -> 649 ;
650 [label="main <= 1.5\nmse = 0.129\nsamples = 363\nvalue = 6.274"] ;
0 -> 650 [labeldistance=2.5, labelangle=-45, headlabel="False"] ;
651 [label="toespoor <= 997.5\nmse = 0.059\nsamples = 179\nvalue = 6.01"] ;
650 -> 651 ;
652 [label="hoogte <= 27.5\nmse = 0.038\nsamples = 49\nvalue = 5.882"] ;
651 -> 652 ;
653 [label="hoogte <= 20.5\nmse = 0.018\nsamples = 17\nvalue = 5.781"] ;
652 -> 653 ;
654 [label="mse = 0.0\nsamples = 1\nvalue = 5.41"] ;
653 -> 654 ;
655 [label="camber <= -0.85\nmse = 0.01\nsamples = 16\nvalue = 5.804"] ;
653 -> 655 ;
656 [label="toespoor <= 996.0\nmse = 0.008\nsamples = 3\nvalue = 5.887"] ;
655 -> 656 ;
657 [label="camber <= -0.95\nmse = 0.001\nsamples = 2\nvalue = 5.825"] ;
656 -> 657 ;
658 [label="mse = 0.0\nsamples = 1\nvalue = 5.86"] ;
657 -> 658 ;
659 [label="mse = -0.0\nsamples = 1\nvalue = 5.79"] ;
657 -> 659 ;
660 [label="mse = 0.0\nsamples = 1\nvalue = 6.01"] ;
656 -> 660 ;
661 [label="bandendruk <= 0.75\nmse = 0.009\nsamples = 13\nvalue = 5.785"] ;
655 -> 661 ;
662 [label="camber <= -0.65\nmse = 0.007\nsamples = 9\nvalue = 5.822"] ;
661 -> 662 ;
663 [label="hoogte <= 23.5\nmse = 0.002\nsamples = 2\nvalue = 5.725"] ;
662 -> 663 ;
664 [label="mse = 0.0\nsamples = 1\nvalue = 5.77"] ;
663 -> 664 ;
665 [label="mse = -0.0\nsamples = 1\nvalue = 5.68"] ;
663 -> 665 ;
666 [label="toespoor <= 995.5\nmse = 0.005\nsamples = 7\nvalue = 5.85"] ;
662 -> 666 ;
667 [label="bandendruk <= 0.65\nmse = 0.0\nsamples = 2\nvalue = 5.9"] ;
666 -> 667 ;
668 [label="mse = 0.0\nsamples = 1\nvalue = 5.89"] ;
667 -> 668 ;
669 [label="mse = -0.0\nsamples = 1\nvalue = 5.91"] ;
667 -> 669 ;
670 [label="hoogte <= 26.0\nmse = 0.006\nsamples = 5\nvalue = 5.83"] ;
666 -> 670 ;
671 [label="camber <= -0.45\nmse = 0.005\nsamples = 4\nvalue = 5.808"] ;
670 -> 671 ;
672 [label="mse = 0.0\nsamples = 1\nvalue = 5.69"] ;
671 -> 672 ;
673 [label="hoogte <= 23.0\nmse = 0.001\nsamples = 3\nvalue = 5.847"] ;
671 -> 673 ;
674 [label="mse = 0.0\nsamples = 2\nvalue = 5.83"] ;
673 -> 674 ;
675 [label="mse = 0.0\nsamples = 1\nvalue = 5.88"] ;
673 -> 675 ;
676 [label="mse = -0.0\nsamples = 1\nvalue = 5.92"] ;
670 -> 676 ;
677 [label="toespoor <= 996.0\nmse = 0.002\nsamples = 4\nvalue = 5.702"] ;
661 -> 677 ;
678 [label="camber <= -0.3\nmse = 0.001\nsamples = 2\nvalue = 5.67"] ;
677 -> 678 ;
679 [label="mse = 0.0\nsamples = 1\nvalue = 5.64"] ;
678 -> 679 ;
680 [label="mse = 0.0\nsamples = 1\nvalue = 5.7"] ;
678 -> 680 ;
681 [label="hoogte <= 24.0\nmse = 0.0\nsamples = 2\nvalue = 5.735"] ;
677 -> 681 ;
682 [label="mse = 0.0\nsamples = 1\nvalue = 5.75"] ;
681 -> 682 ;
683 [label="mse = 0.0\nsamples = 1\nvalue = 5.72"] ;
681 -> 683 ;
684 [label="toespoor <= 996.5\nmse = 0.041\nsamples = 32\nvalue = 5.936"] ;
652 -> 684 ;
685 [label="camber <= -0.65\nmse = 0.035\nsamples = 20\nvalue = 5.994"] ;
684 -> 685 ;
686 [label="camber <= -0.95\nmse = 0.02\nsamples = 6\nvalue = 5.848"] ;
685 -> 686 ;
687 [label="hoogte <= 29.5\nmse = 0.004\nsamples = 2\nvalue = 6.02"] ;
686 -> 687 ;
688 [label="mse = 0.0\nsamples = 1\nvalue = 6.08"] ;
687 -> 688 ;
689 [label="mse = 0.0\nsamples = 1\nvalue = 5.96"] ;
687 -> 689 ;
690 [label="hoogte <= 37.0\nmse = 0.007\nsamples = 4\nvalue = 5.762"] ;
686 -> 690 ;
691 [label="bandendruk <= 0.75\nmse = 0.003\nsamples = 3\nvalue = 5.723"] ;
690 -> 691 ;
692 [label="toespoor <= 995.5\nmse = 0.0\nsamples = 2\nvalue = 5.76"] ;
691 -> 692 ;
693 [label="mse = 0.0\nsamples = 1\nvalue = 5.77"] ;
692 -> 693 ;
694 [label="mse = 0.0\nsamples = 1\nvalue = 5.75"] ;
692 -> 694 ;
695 [label="mse = -0.0\nsamples = 1\nvalue = 5.65"] ;
691 -> 695 ;
696 [label="mse = 0.0\nsamples = 1\nvalue = 5.88"] ;
690 -> 696 ;
697 [label="camber <= -0.35\nmse = 0.029\nsamples = 14\nvalue = 6.057"] ;
685 -> 697 ;
698 [label="bandendruk <= 0.65\nmse = 0.027\nsamples = 5\nvalue = 6.152"] ;
697 -> 698 ;
699 [label="mse = 0.0\nsamples = 1\nvalue = 5.92"] ;
698 -> 699 ;
700 [label="hoogte <= 32.5\nmse = 0.017\nsamples = 4\nvalue = 6.21"] ;
698 -> 700 ;
701 [label="bandendruk <= 0.75\nmse = 0.0\nsamples = 2\nvalue = 6.12"] ;
700 -> 701 ;
702 [label="mse = 0.0\nsamples = 1\nvalue = 6.13"] ;
701 -> 702 ;
703 [label="mse = 0.0\nsamples = 1\nvalue = 6.11"] ;
701 -> 703 ;
704 [label="toespoor <= 995.5\nmse = 0.017\nsamples = 2\nvalue = 6.3"] ;
700 -> 704 ;
705 [label="mse = 0.0\nsamples = 1\nvalue = 6.43"] ;
704 -> 705 ;
706 [label="mse = 0.0\nsamples = 1\nvalue = 6.17"] ;
704 -> 706 ;
707 [label="camber <= -0.25\nmse = 0.022\nsamples = 9\nvalue = 6.004"] ;
697 -> 707 ;
708 [label="hoogte <= 34.5\nmse = 0.002\nsamples = 2\nvalue = 5.81"] ;
707 -> 708 ;
709 [label="mse = 0.0\nsamples = 1\nvalue = 5.86"] ;
708 -> 709 ;
710 [label="mse = -0.0\nsamples = 1\nvalue = 5.76"] ;
708 -> 710 ;
711 [label="hoogte <= 28.5\nmse = 0.013\nsamples = 7\nvalue = 6.06"] ;
707 -> 711 ;
712 [label="mse = 0.0\nsamples = 1\nvalue = 6.2"] ;
711 -> 712 ;
713 [label="hoogte <= 30.5\nmse = 0.012\nsamples = 6\nvalue = 6.037"] ;
711 -> 713 ;
714 [label="mse = 0.0\nsamples = 1\nvalue = 5.88"] ;
713 -> 714 ;
715 [label="hoogte <= 34.0\nmse = 0.008\nsamples = 5\nvalue = 6.068"] ;
713 -> 715 ;
716 [label="bandendruk <= 0.65\nmse = 0.003\nsamples = 3\nvalue = 6.12"] ;
715 -> 716 ;
717 [label="mse = 0.0\nsamples = 1\nvalue = 6.05"] ;
716 -> 717 ;
718 [label="hoogte <= 32.5\nmse = 0.0\nsamples = 2\nvalue = 6.155"] ;
716 -> 718 ;
719 [label="mse = 0.0\nsamples = 1\nvalue = 6.17"] ;
718 -> 719 ;
720 [label="mse = 0.0\nsamples = 1\nvalue = 6.14"] ;
718 -> 720 ;
721 [label="toespoor <= 995.5\nmse = 0.006\nsamples = 2\nvalue = 5.99"] ;
715 -> 721 ;
722 [label="mse = 0.0\nsamples = 1\nvalue = 6.07"] ;
721 -> 722 ;
723 [label="mse = -0.0\nsamples = 1\nvalue = 5.91"] ;
721 -> 723 ;
724 [label="hoogte <= 34.5\nmse = 0.034\nsamples = 12\nvalue = 5.838"] ;
684 -> 724 ;
725 [label="hoogte <= 33.5\nmse = 0.02\nsamples = 8\nvalue = 5.769"] ;
724 -> 725 ;
726 [label="camber <= -0.3\nmse = 0.017\nsamples = 7\nvalue = 5.797"] ;
725 -> 726 ;
727 [label="hoogte <= 30.5\nmse = 0.01\nsamples = 5\nvalue = 5.85"] ;
726 -> 727 ;
728 [label="camber <= -0.85\nmse = 0.005\nsamples = 2\nvalue = 5.75"] ;
727 -> 728 ;
729 [label="mse = 0.0\nsamples = 1\nvalue = 5.82"] ;
728 -> 729 ;
730 [label="mse = 0.0\nsamples = 1\nvalue = 5.68"] ;
728 -> 730 ;
731 [label="hoogte <= 32.5\nmse = 0.002\nsamples = 3\nvalue = 5.917"] ;
727 -> 731 ;
732 [label="mse = 0.0\nsamples = 1\nvalue = 5.98"] ;
731 -> 732 ;
733 [label="camber <= -0.65\nmse = 0.001\nsamples = 2\nvalue = 5.885"] ;
731 -> 733 ;
734 [label="mse = 0.0\nsamples = 1\nvalue = 5.86"] ;
733 -> 734 ;
735 [label="mse = 0.0\nsamples = 1\nvalue = 5.91"] ;
733 -> 735 ;
736 [label="hoogte <= 32.5\nmse = 0.009\nsamples = 2\nvalue = 5.665"] ;
726 -> 736 ;
737 [label="mse = 0.0\nsamples = 1\nvalue = 5.76"] ;
736 -> 737 ;
738 [label="mse = 0.0\nsamples = 1\nvalue = 5.57"] ;
736 -> 738 ;
739 [label="mse = 0.0\nsamples = 1\nvalue = 5.57"] ;
725 -> 739 ;
740 [label="camber <= -0.4\nmse = 0.034\nsamples = 4\nvalue = 5.977"] ;
724 -> 740 ;
741 [label="camber <= -0.8\nmse = 0.044\nsamples = 2\nvalue = 5.87"] ;
740 -> 741 ;
742 [label="mse = 0.0\nsamples = 1\nvalue = 6.08"] ;
741 -> 742 ;
743 [label="mse = 0.0\nsamples = 1\nvalue = 5.66"] ;
741 -> 743 ;
744 [label="hoogte <= 38.0\nmse = 0.0\nsamples = 2\nvalue = 6.085"] ;
740 -> 744 ;
745 [label="mse = 0.0\nsamples = 1\nvalue = 6.07"] ;
744 -> 745 ;
746 [label="mse = 0.0\nsamples = 1\nvalue = 6.1"] ;
744 -> 746 ;
747 [label="hoogte <= 32.5\nmse = 0.059\nsamples = 130\nvalue = 6.058"] ;
651 -> 747 ;
748 [label="bandendruk <= 0.65\nmse = 0.057\nsamples = 91\nvalue = 6.019"] ;
747 -> 748 ;
749 [label="camber <= -0.35\nmse = 0.054\nsamples = 28\nvalue = 5.938"] ;
748 -> 749 ;
750 [label="hoogte <= 21.5\nmse = 0.047\nsamples = 23\nvalue = 5.896"] ;
749 -> 750 ;
751 [label="toespoor <= 1001.5\nmse = 0.055\nsamples = 2\nvalue = 6.165"] ;
750 -> 751 ;
752 [label="mse = 0.0\nsamples = 1\nvalue = 6.4"] ;
751 -> 752 ;
753 [label="mse = -0.0\nsamples = 1\nvalue = 5.93"] ;
751 -> 753 ;
754 [label="camber <= -0.75\nmse = 0.038\nsamples = 21\nvalue = 5.87"] ;
750 -> 754 ;
755 [label="hoogte <= 25.0\nmse = 0.073\nsamples = 6\nvalue = 5.997"] ;
754 -> 755 ;
756 [label="hoogte <= 22.5\nmse = 0.058\nsamples = 4\nvalue = 6.125"] ;
755 -> 756 ;
757 [label="mse = 0.0\nsamples = 1\nvalue = 5.72"] ;
756 -> 757 ;
758 [label="camber <= -0.85\nmse = 0.004\nsamples = 3\nvalue = 6.26"] ;
756 -> 758 ;
759 [label="toespoor <= 1003.0\nmse = 0.0\nsamples = 2\nvalue = 6.215"] ;
758 -> 759 ;
760 [label="mse = 0.0\nsamples = 1\nvalue = 6.22"] ;
759 -> 760 ;
761 [label="mse = 0.0\nsamples = 1\nvalue = 6.21"] ;
759 -> 761 ;
762 [label="mse = -0.0\nsamples = 1\nvalue = 6.35"] ;
758 -> 762 ;
763 [label="toespoor <= 1001.5\nmse = 0.004\nsamples = 2\nvalue = 5.74"] ;
755 -> 763 ;
764 [label="mse = 0.0\nsamples = 1\nvalue = 5.8"] ;
763 -> 764 ;
765 [label="mse = -0.0\nsamples = 1\nvalue = 5.68"] ;
763 -> 765 ;
766 [label="hoogte <= 31.5\nmse = 0.016\nsamples = 15\nvalue = 5.819"] ;
754 -> 766 ;
767 [label="camber <= -0.55\nmse = 0.011\nsamples = 14\nvalue = 5.8"] ;
766 -> 767 ;
768 [label="toespoor <= 1001.5\nmse = 0.006\nsamples = 7\nvalue = 5.747"] ;
767 -> 768 ;
769 [label="hoogte <= 24.0\nmse = 0.0\nsamples = 4\nvalue = 5.81"] ;
768 -> 769 ;
770 [label="mse = 0.0\nsamples = 1\nvalue = 5.78"] ;
769 -> 770 ;
771 [label="hoogte <= 25.5\nmse = 0.0\nsamples = 3\nvalue = 5.82"] ;
769 -> 771 ;
772 [label="mse = 0.0\nsamples = 1\nvalue = 5.83"] ;
771 -> 772 ;
773 [label="hoogte <= 28.5\nmse = 0.0\nsamples = 2\nvalue = 5.815"] ;
771 -> 773 ;
774 [label="mse = 0.0\nsamples = 1\nvalue = 5.81"] ;
773 -> 774 ;
775 [label="mse = 0.0\nsamples = 1\nvalue = 5.82"] ;
773 -> 775 ;
776 [label="camber <= -0.65\nmse = 0.002\nsamples = 3\nvalue = 5.663"] ;
768 -> 776 ;
777 [label="toespoor <= 1003.5\nmse = 0.0\nsamples = 2\nvalue = 5.69"] ;
776 -> 777 ;
778 [label="mse = 0.0\nsamples = 1\nvalue = 5.67"] ;
777 -> 778 ;
779 [label="mse = 0.0\nsamples = 1\nvalue = 5.71"] ;
777 -> 779 ;
780 [label="mse = 0.0\nsamples = 1\nvalue = 5.61"] ;
776 -> 780 ;
781 [label="toespoor <= 1003.5\nmse = 0.011\nsamples = 7\nvalue = 5.853"] ;
767 -> 781 ;
782 [label="camber <= -0.45\nmse = 0.011\nsamples = 5\nvalue = 5.874"] ;
781 -> 782 ;
783 [label="hoogte <= 25.0\nmse = 0.012\nsamples = 3\nvalue = 5.92"] ;
782 -> 783 ;
784 [label="mse = 0.0\nsamples = 1\nvalue = 5.77"] ;
783 -> 784 ;
785 [label="hoogte <= 28.0\nmse = 0.001\nsamples = 2\nvalue = 5.995"] ;
783 -> 785 ;
786 [label="mse = 0.0\nsamples = 1\nvalue = 6.03"] ;
785 -> 786 ;
787 [label="mse = -0.0\nsamples = 1\nvalue = 5.96"] ;
785 -> 787 ;
788 [label="hoogte <= 26.0\nmse = 0.002\nsamples = 2\nvalue = 5.805"] ;
782 -> 788 ;
789 [label="mse = 0.0\nsamples = 1\nvalue = 5.85"] ;
788 -> 789 ;
790 [label="mse = 0.0\nsamples = 1\nvalue = 5.76"] ;
788 -> 790 ;
791 [label="hoogte <= 26.0\nmse = 0.006\nsamples = 2\nvalue = 5.8"] ;
781 -> 791 ;
792 [label="mse = 0.0\nsamples = 1\nvalue = 5.88"] ;
791 -> 792 ;
793 [label="mse = 0.0\nsamples = 1\nvalue = 5.72"] ;
791 -> 793 ;
794 [label="mse = 0.0\nsamples = 1\nvalue = 6.09"] ;
766 -> 794 ;
795 [label="camber <= -0.15\nmse = 0.042\nsamples = 5\nvalue = 6.13"] ;
749 -> 795 ;
796 [label="toespoor <= 1002.0\nmse = 0.023\nsamples = 4\nvalue = 6.208"] ;
795 -> 796 ;
797 [label="toespoor <= 998.5\nmse = 0.015\nsamples = 3\nvalue = 6.147"] ;
796 -> 797 ;
798 [label="mse = 0.0\nsamples = 1\nvalue = 6.32"] ;
797 -> 798 ;
799 [label="hoogte <= 26.0\nmse = 0.0\nsamples = 2\nvalue = 6.06"] ;
797 -> 799 ;
800 [label="mse = 0.0\nsamples = 1\nvalue = 6.04"] ;
799 -> 800 ;
801 [label="mse = -0.0\nsamples = 1\nvalue = 6.08"] ;
799 -> 801 ;
802 [label="mse = 0.0\nsamples = 1\nvalue = 6.39"] ;
796 -> 802 ;
803 [label="mse = -0.0\nsamples = 1\nvalue = 5.82"] ;
795 -> 803 ;
804 [label="camber <= -0.75\nmse = 0.054\nsamples = 63\nvalue = 6.055"] ;
748 -> 804 ;
805 [label="camber <= -0.85\nmse = 0.058\nsamples = 18\nvalue = 5.949"] ;
804 -> 805 ;
806 [label="bandendruk <= 0.75\nmse = 0.041\nsamples = 8\nvalue = 6.119"] ;
805 -> 806 ;
807 [label="toespoor <= 999.5\nmse = 0.019\nsamples = 5\nvalue = 6.006"] ;
806 -> 807 ;
808 [label="mse = 0.0\nsamples = 1\nvalue = 5.86"] ;
807 -> 808 ;
809 [label="hoogte <= 27.0\nmse = 0.018\nsamples = 4\nvalue = 6.042"] ;
807 -> 809 ;
810 [label="hoogte <= 24.0\nmse = 0.005\nsamples = 2\nvalue = 6.15"] ;
809 -> 810 ;
811 [label="mse = 0.0\nsamples = 1\nvalue = 6.08"] ;
810 -> 811 ;
812 [label="mse = -0.0\nsamples = 1\nvalue = 6.22"] ;
810 -> 812 ;
813 [label="hoogte <= 29.0\nmse = 0.007\nsamples = 2\nvalue = 5.935"] ;
809 -> 813 ;
814 [label="mse = 0.0\nsamples = 1\nvalue = 5.85"] ;
813 -> 814 ;
815 [label="mse = 0.0\nsamples = 1\nvalue = 6.02"] ;
813 -> 815 ;
816 [label="camber <= -0.95\nmse = 0.021\nsamples = 3\nvalue = 6.307"] ;
806 -> 816 ;
817 [label="hoogte <= 26.0\nmse = 0.0\nsamples = 2\nvalue = 6.205"] ;
816 -> 817 ;
818 [label="mse = 0.0\nsamples = 1\nvalue = 6.2"] ;
817 -> 818 ;
819 [label="mse = -0.0\nsamples = 1\nvalue = 6.21"] ;
817 -> 819 ;
820 [label="mse = 0.0\nsamples = 1\nvalue = 6.51"] ;
816 -> 820 ;
821 [label="toespoor <= 999.5\nmse = 0.029\nsamples = 10\nvalue = 5.813"] ;
805 -> 821 ;
822 [label="hoogte <= 25.5\nmse = 0.001\nsamples = 2\nvalue = 5.615"] ;
821 -> 822 ;
823 [label="mse = 0.0\nsamples = 1\nvalue = 5.65"] ;
822 -> 823 ;
824 [label="mse = 0.0\nsamples = 1\nvalue = 5.58"] ;
822 -> 824 ;
825 [label="bandendruk <= 0.75\nmse = 0.024\nsamples = 8\nvalue = 5.862"] ;
821 -> 825 ;
826 [label="toespoor <= 1003.5\nmse = 0.007\nsamples = 6\nvalue = 5.815"] ;
825 -> 826 ;
827 [label="toespoor <= 1002.5\nmse = 0.002\nsamples = 3\nvalue = 5.873"] ;
826 -> 827 ;
828 [label="toespoor <= 1001.0\nmse = 0.0\nsamples = 2\nvalue = 5.845"] ;
827 -> 828 ;
829 [label="mse = 0.0\nsamples = 1\nvalue = 5.85"] ;
828 -> 829 ;
830 [label="mse = 0.0\nsamples = 1\nvalue = 5.84"] ;
828 -> 830 ;
831 [label="mse = -0.0\nsamples = 1\nvalue = 5.93"] ;
827 -> 831 ;
832 [label="hoogte <= 22.0\nmse = 0.006\nsamples = 3\nvalue = 5.757"] ;
826 -> 832 ;
833 [label="mse = 0.0\nsamples = 1\nvalue = 5.69"] ;
832 -> 833 ;
834 [label="hoogte <= 26.0\nmse = 0.006\nsamples = 2\nvalue = 5.79"] ;
832 -> 834 ;
835 [label="mse = 0.0\nsamples = 1\nvalue = 5.87"] ;
834 -> 835 ;
836 [label="mse = 0.0\nsamples = 1\nvalue = 5.71"] ;
834 -> 836 ;
837 [label="hoogte <= 23.5\nmse = 0.046\nsamples = 2\nvalue = 6.005"] ;
825 -> 837 ;
838 [label="mse = 0.0\nsamples = 1\nvalue = 6.22"] ;
837 -> 838 ;
839 [label="mse = 0.0\nsamples = 1\nvalue = 5.79"] ;
837 -> 839 ;
840 [label="camber <= -0.55\nmse = 0.046\nsamples = 45\nvalue = 6.098"] ;
804 -> 840 ;
841 [label="toespoor <= 1002.5\nmse = 0.065\nsamples = 10\nvalue = 6.196"] ;
840 -> 841 ;
842 [label="camber <= -0.65\nmse = 0.092\nsamples = 6\nvalue = 6.122"] ;
841 -> 842 ;
843 [label="hoogte <= 29.5\nmse = 0.1\nsamples = 4\nvalue = 6.235"] ;
842 -> 843 ;
844 [label="toespoor <= 998.5\nmse = 0.001\nsamples = 2\nvalue = 6.405"] ;
843 -> 844 ;
845 [label="mse = 0.0\nsamples = 1\nvalue = 6.43"] ;
844 -> 845 ;
846 [label="mse = 0.0\nsamples = 1\nvalue = 6.38"] ;
844 -> 846 ;
847 [label="bandendruk <= 0.75\nmse = 0.141\nsamples = 2\nvalue = 6.065"] ;
843 -> 847 ;
848 [label="mse = 0.0\nsamples = 1\nvalue = 5.69"] ;
847 -> 848 ;
849 [label="mse = 0.0\nsamples = 1\nvalue = 6.44"] ;
847 -> 849 ;
850 [label="hoogte <= 28.0\nmse = 0.001\nsamples = 2\nvalue = 5.895"] ;
842 -> 850 ;
851 [label="mse = 0.0\nsamples = 1\nvalue = 5.86"] ;
850 -> 851 ;
852 [label="mse = 0.0\nsamples = 1\nvalue = 5.93"] ;
850 -> 852 ;
853 [label="toespoor <= 1003.5\nmse = 0.002\nsamples = 4\nvalue = 6.308"] ;
841 -> 853 ;
854 [label="mse = 0.0\nsamples = 1\nvalue = 6.38"] ;
853 -> 854 ;
855 [label="hoogte <= 30.5\nmse = 0.0\nsamples = 3\nvalue = 6.283"] ;
853 -> 855 ;
856 [label="camber <= -0.65\nmse = 0.0\nsamples = 2\nvalue = 6.27"] ;
855 -> 856 ;
857 [label="mse = 0.0\nsamples = 1\nvalue = 6.26"] ;
856 -> 857 ;
858 [label="mse = 0.0\nsamples = 1\nvalue = 6.28"] ;
856 -> 858 ;
859 [label="mse = -0.0\nsamples = 1\nvalue = 6.31"] ;
855 -> 859 ;
860 [label="toespoor <= 998.5\nmse = 0.037\nsamples = 35\nvalue = 6.069"] ;
840 -> 860 ;
861 [label="hoogte <= 24.0\nmse = 0.03\nsamples = 3\nvalue = 6.223"] ;
860 -> 861 ;
862 [label="mse = 0.0\nsamples = 1\nvalue = 5.99"] ;
861 -> 862 ;
863 [label="hoogte <= 26.5\nmse = 0.005\nsamples = 2\nvalue = 6.34"] ;
861 -> 863 ;
864 [label="mse = 0.0\nsamples = 1\nvalue = 6.27"] ;
863 -> 864 ;
865 [label="mse = 0.0\nsamples = 1\nvalue = 6.41"] ;
863 -> 865 ;
866 [label="toespoor <= 1000.5\nmse = 0.036\nsamples = 32\nvalue = 6.055"] ;
860 -> 866 ;
867 [label="hoogte <= 26.5\nmse = 0.039\nsamples = 11\nvalue = 5.958"] ;
866 -> 867 ;
868 [label="hoogte <= 25.5\nmse = 0.032\nsamples = 5\nvalue = 5.872"] ;
867 -> 868 ;
869 [label="hoogte <= 21.5\nmse = 0.024\nsamples = 4\nvalue = 5.93"] ;
868 -> 869 ;
870 [label="mse = 0.0\nsamples = 1\nvalue = 5.79"] ;
869 -> 870 ;
871 [label="camber <= -0.4\nmse = 0.023\nsamples = 3\nvalue = 5.977"] ;
869 -> 871 ;
872 [label="mse = 0.0\nsamples = 1\nvalue = 5.79"] ;
871 -> 872 ;
873 [label="toespoor <= 999.5\nmse = 0.008\nsamples = 2\nvalue = 6.07"] ;
871 -> 873 ;
874 [label="mse = 0.0\nsamples = 1\nvalue = 5.98"] ;
873 -> 874 ;
875 [label="mse = 0.0\nsamples = 1\nvalue = 6.16"] ;
873 -> 875 ;
876 [label="mse = -0.0\nsamples = 1\nvalue = 5.64"] ;
868 -> 876 ;
877 [label="hoogte <= 28.5\nmse = 0.033\nsamples = 6\nvalue = 6.03"] ;
867 -> 877 ;
878 [label="hoogte <= 27.5\nmse = 0.005\nsamples = 3\nvalue = 6.177"] ;
877 -> 878 ;
879 [label="mse = 0.0\nsamples = 1\nvalue = 6.27"] ;
878 -> 879 ;
880 [label="camber <= -0.4\nmse = 0.0\nsamples = 2\nvalue = 6.13"] ;
878 -> 880 ;
881 [label="mse = 0.0\nsamples = 1\nvalue = 6.15"] ;
880 -> 881 ;
882 [label="mse = -0.0\nsamples = 1\nvalue = 6.11"] ;
880 -> 882 ;
883 [label="toespoor <= 999.5\nmse = 0.019\nsamples = 3\nvalue = 5.883"] ;
877 -> 883 ;
884 [label="camber <= -0.25\nmse = 0.003\nsamples = 2\nvalue = 5.975"] ;
883 -> 884 ;
885 [label="mse = 0.0\nsamples = 1\nvalue = 5.92"] ;
884 -> 885 ;
886 [label="mse = 0.0\nsamples = 1\nvalue = 6.03"] ;
884 -> 886 ;
887 [label="mse = 0.0\nsamples = 1\nvalue = 5.7"] ;
883 -> 887 ;
888 [label="hoogte <= 23.5\nmse = 0.026\nsamples = 21\nvalue = 6.106"] ;
866 -> 888 ;
889 [label="hoogte <= 22.5\nmse = 0.015\nsamples = 8\nvalue = 6.041"] ;
888 -> 889 ;
890 [label="camber <= -0.25\nmse = 0.012\nsamples = 6\nvalue = 6.087"] ;
889 -> 890 ;
891 [label="toespoor <= 1002.5\nmse = 0.003\nsamples = 5\nvalue = 6.044"] ;
890 -> 891 ;
892 [label="camber <= -0.45\nmse = 0.001\nsamples = 2\nvalue = 6.105"] ;
891 -> 892 ;
893 [label="mse = 0.0\nsamples = 1\nvalue = 6.14"] ;
892 -> 893 ;
894 [label="mse = -0.0\nsamples = 1\nvalue = 6.07"] ;
892 -> 894 ;
895 [label="hoogte <= 21.0\nmse = 0.001\nsamples = 3\nvalue = 6.003"] ;
891 -> 895 ;
896 [label="mse = 0.0\nsamples = 1\nvalue = 6.04"] ;
895 -> 896 ;
897 [label="toespoor <= 1004.0\nmse = 0.0\nsamples = 2\nvalue = 5.985"] ;
895 -> 897 ;
898 [label="mse = 0.0\nsamples = 1\nvalue = 6.0"] ;
897 -> 898 ;
899 [label="mse = 0.0\nsamples = 1\nvalue = 5.97"] ;
897 -> 899 ;
900 [label="mse = -0.0\nsamples = 1\nvalue = 6.3"] ;
890 -> 900 ;
901 [label="bandendruk <= 0.75\nmse = 0.001\nsamples = 2\nvalue = 5.905"] ;
889 -> 901 ;
902 [label="mse = 0.0\nsamples = 1\nvalue = 5.94"] ;
901 -> 902 ;
903 [label="mse = 0.0\nsamples = 1\nvalue = 5.87"] ;
901 -> 903 ;
904 [label="hoogte <= 26.5\nmse = 0.029\nsamples = 13\nvalue = 6.145"] ;
888 -> 904 ;
905 [label="toespoor <= 1003.5\nmse = 0.013\nsamples = 7\nvalue = 6.217"] ;
904 -> 905 ;
906 [label="hoogte <= 24.5\nmse = 0.009\nsamples = 6\nvalue = 6.188"] ;
905 -> 906 ;
907 [label="camber <= -0.15\nmse = 0.0\nsamples = 3\nvalue = 6.127"] ;
906 -> 907 ;
908 [label="toespoor <= 1002.0\nmse = 0.0\nsamples = 2\nvalue = 6.115"] ;
907 -> 908 ;
909 [label="mse = 0.0\nsamples = 1\nvalue = 6.12"] ;
908 -> 909 ;
910 [label="mse = 0.0\nsamples = 1\nvalue = 6.11"] ;
908 -> 910 ;
911 [label="mse = 0.0\nsamples = 1\nvalue = 6.15"] ;
907 -> 911 ;
912 [label="bandendruk <= 0.75\nmse = 0.011\nsamples = 3\nvalue = 6.25"] ;
906 -> 912 ;
913 [label="hoogte <= 25.5\nmse = 0.002\nsamples = 2\nvalue = 6.18"] ;
912 -> 913 ;
914 [label="mse = 0.0\nsamples = 1\nvalue = 6.22"] ;
913 -> 914 ;
915 [label="mse = 0.0\nsamples = 1\nvalue = 6.14"] ;
913 -> 915 ;
916 [label="mse = 0.0\nsamples = 1\nvalue = 6.39"] ;
912 -> 916 ;
917 [label="mse = -0.0\nsamples = 1\nvalue = 6.39"] ;
905 -> 917 ;
918 [label="toespoor <= 1002.5\nmse = 0.035\nsamples = 6\nvalue = 6.062"] ;
904 -> 918 ;
919 [label="hoogte <= 29.5\nmse = 0.012\nsamples = 3\nvalue = 6.21"] ;
918 -> 919 ;
920 [label="mse = 0.0\nsamples = 1\nvalue = 6.1"] ;
919 -> 920 ;
921 [label="camber <= -0.2\nmse = 0.009\nsamples = 2\nvalue = 6.265"] ;
919 -> 921 ;
922 [label="mse = 0.0\nsamples = 1\nvalue = 6.36"] ;
921 -> 922 ;
923 [label="mse = -0.0\nsamples = 1\nvalue = 6.17"] ;
921 -> 923 ;
924 [label="toespoor <= 1003.5\nmse = 0.013\nsamples = 3\nvalue = 5.913"] ;
918 -> 924 ;
925 [label="mse = 0.0\nsamples = 1\nvalue = 5.75"] ;
924 -> 925 ;
926 [label="bandendruk <= 0.75\nmse = 0.0\nsamples = 2\nvalue = 5.995"] ;
924 -> 926 ;
927 [label="mse = 0.0\nsamples = 1\nvalue = 6.0"] ;
926 -> 927 ;
928 [label="mse = -0.0\nsamples = 1\nvalue = 5.99"] ;
926 -> 928 ;
929 [label="toespoor <= 999.5\nmse = 0.051\nsamples = 39\nvalue = 6.148"] ;
747 -> 929 ;
930 [label="hoogte <= 38.5\nmse = 0.07\nsamples = 5\nvalue = 6.336"] ;
929 -> 930 ;
931 [label="camber <= -0.15\nmse = 0.028\nsamples = 4\nvalue = 6.228"] ;
930 -> 931 ;
932 [label="camber <= -0.3\nmse = 0.003\nsamples = 3\nvalue = 6.32"] ;
931 -> 932 ;
933 [label="mse = 0.0\nsamples = 1\nvalue = 6.25"] ;
932 -> 933 ;
934 [label="bandendruk <= 0.65\nmse = 0.001\nsamples = 2\nvalue = 6.355"] ;
932 -> 934 ;
935 [label="mse = 0.0\nsamples = 1\nvalue = 6.39"] ;
934 -> 935 ;
936 [label="mse = -0.0\nsamples = 1\nvalue = 6.32"] ;
934 -> 936 ;
937 [label="mse = 0.0\nsamples = 1\nvalue = 5.95"] ;
931 -> 937 ;
938 [label="mse = 0.0\nsamples = 1\nvalue = 6.77"] ;
930 -> 938 ;
939 [label="hoogte <= 39.5\nmse = 0.043\nsamples = 34\nvalue = 6.12"] ;
929 -> 939 ;
940 [label="toespoor <= 1004.5\nmse = 0.039\nsamples = 29\nvalue = 6.155"] ;
939 -> 940 ;
941 [label="toespoor <= 1000.5\nmse = 0.04\nsamples = 25\nvalue = 6.182"] ;
940 -> 941 ;
942 [label="hoogte <= 36.5\nmse = 0.037\nsamples = 7\nvalue = 6.047"] ;
941 -> 942 ;
943 [label="camber <= -0.2\nmse = 0.013\nsamples = 5\nvalue = 5.944"] ;
942 -> 943 ;
944 [label="camber <= -0.5\nmse = 0.01\nsamples = 4\nvalue = 5.908"] ;
943 -> 944 ;
945 [label="hoogte <= 35.0\nmse = 0.002\nsamples = 2\nvalue = 6.0"] ;
944 -> 945 ;
946 [label="mse = 0.0\nsamples = 1\nvalue = 6.04"] ;
945 -> 946 ;
947 [label="mse = -0.0\nsamples = 1\nvalue = 5.96"] ;
945 -> 947 ;
948 [label="camber <= -0.35\nmse = 0.001\nsamples = 2\nvalue = 5.815"] ;
944 -> 948 ;
949 [label="mse = 0.0\nsamples = 1\nvalue = 5.85"] ;
948 -> 949 ;
950 [label="mse = 0.0\nsamples = 1\nvalue = 5.78"] ;
948 -> 950 ;
951 [label="mse = 0.0\nsamples = 1\nvalue = 6.09"] ;
943 -> 951 ;
952 [label="camber <= -0.65\nmse = 0.004\nsamples = 2\nvalue = 6.305"] ;
942 -> 952 ;
953 [label="mse = 0.0\nsamples = 1\nvalue = 6.37"] ;
952 -> 953 ;
954 [label="mse = 0.0\nsamples = 1\nvalue = 6.24"] ;
952 -> 954 ;
955 [label="camber <= -0.45\nmse = 0.031\nsamples = 18\nvalue = 6.234"] ;
941 -> 955 ;
956 [label="toespoor <= 1001.5\nmse = 0.021\nsamples = 11\nvalue = 6.171"] ;
955 -> 956 ;
957 [label="bandendruk <= 0.65\nmse = 0.022\nsamples = 4\nvalue = 6.255"] ;
956 -> 957 ;
958 [label="mse = 0.0\nsamples = 1\nvalue = 6.01"] ;
957 -> 958 ;
959 [label="hoogte <= 35.5\nmse = 0.003\nsamples = 3\nvalue = 6.337"] ;
957 -> 959 ;
960 [label="mse = 0.0\nsamples = 1\nvalue = 6.26"] ;
959 -> 960 ;
961 [label="camber <= -0.95\nmse = 0.0\nsamples = 2\nvalue = 6.375"] ;
959 -> 961 ;
962 [label="mse = 0.0\nsamples = 1\nvalue = 6.37"] ;
961 -> 962 ;
963 [label="mse = 0.0\nsamples = 1\nvalue = 6.38"] ;
961 -> 963 ;
964 [label="hoogte <= 38.5\nmse = 0.014\nsamples = 7\nvalue = 6.123"] ;
956 -> 964 ;
965 [label="camber <= -0.85\nmse = 0.002\nsamples = 5\nvalue = 6.184"] ;
964 -> 965 ;
966 [label="mse = 0.0\nsamples = 1\nvalue = 6.11"] ;
965 -> 966 ;
967 [label="hoogte <= 37.5\nmse = 0.001\nsamples = 4\nvalue = 6.203"] ;
965 -> 967 ;
968 [label="hoogte <= 35.5\nmse = 0.0\nsamples = 2\nvalue = 6.18"] ;
967 -> 968 ;
969 [label="mse = 0.0\nsamples = 1\nvalue = 6.17"] ;
968 -> 969 ;
970 [label="mse = 0.0\nsamples = 1\nvalue = 6.19"] ;
968 -> 970 ;
971 [label="toespoor <= 1003.0\nmse = 0.0\nsamples = 2\nvalue = 6.225"] ;
967 -> 971 ;
972 [label="mse = 0.0\nsamples = 1\nvalue = 6.24"] ;
971 -> 972 ;
973 [label="mse = 0.0\nsamples = 1\nvalue = 6.21"] ;
971 -> 973 ;
974 [label="bandendruk <= 0.65\nmse = 0.012\nsamples = 2\nvalue = 5.97"] ;
964 -> 974 ;
975 [label="mse = 0.0\nsamples = 1\nvalue = 6.08"] ;
974 -> 975 ;
976 [label="mse = 0.0\nsamples = 1\nvalue = 5.86"] ;
974 -> 976 ;
977 [label="camber <= -0.25\nmse = 0.03\nsamples = 7\nvalue = 6.333"] ;
955 -> 977 ;
978 [label="hoogte <= 34.0\nmse = 0.006\nsamples = 2\nvalue = 6.535"] ;
977 -> 978 ;
979 [label="mse = 0.0\nsamples = 1\nvalue = 6.61"] ;
978 -> 979 ;
980 [label="mse = -0.0\nsamples = 1\nvalue = 6.46"] ;
978 -> 980 ;
981 [label="toespoor <= 1003.5\nmse = 0.017\nsamples = 5\nvalue = 6.252"] ;
977 -> 981 ;
982 [label="hoogte <= 35.0\nmse = 0.008\nsamples = 4\nvalue = 6.302"] ;
981 -> 982 ;
983 [label="mse = 0.0\nsamples = 1\nvalue = 6.46"] ;
982 -> 983 ;
984 [label="hoogte <= 38.0\nmse = 0.0\nsamples = 3\nvalue = 6.25"] ;
982 -> 984 ;
985 [label="mse = 0.0\nsamples = 2\nvalue = 6.26"] ;
984 -> 985 ;
986 [label="mse = -0.0\nsamples = 1\nvalue = 6.23"] ;
984 -> 986 ;
987 [label="mse = -0.0\nsamples = 1\nvalue = 6.05"] ;
981 -> 987 ;
988 [label="hoogte <= 34.0\nmse = 0.003\nsamples = 4\nvalue = 5.99"] ;
940 -> 988 ;
989 [label="mse = 0.0\nsamples = 1\nvalue = 5.92"] ;
988 -> 989 ;
990 [label="camber <= -0.2\nmse = 0.002\nsamples = 3\nvalue = 6.013"] ;
988 -> 990 ;
991 [label="camber <= -0.6\nmse = 0.0\nsamples = 2\nvalue = 6.04"] ;
990 -> 991 ;
992 [label="mse = 0.0\nsamples = 1\nvalue = 6.06"] ;
991 -> 992 ;
993 [label="mse = 0.0\nsamples = 1\nvalue = 6.02"] ;
991 -> 993 ;
994 [label="mse = -0.0\nsamples = 1\nvalue = 5.96"] ;
990 -> 994 ;
995 [label="toespoor <= 1004.5\nmse = 0.017\nsamples = 5\nvalue = 5.918"] ;
939 -> 995 ;
996 [label="bandendruk <= 0.75\nmse = 0.003\nsamples = 4\nvalue = 5.858"] ;
995 -> 996 ;
997 [label="toespoor <= 1003.5\nmse = 0.001\nsamples = 3\nvalue = 5.833"] ;
996 -> 997 ;
998 [label="mse = 0.0\nsamples = 2\nvalue = 5.86"] ;
997 -> 998 ;
999 [label="mse = -0.0\nsamples = 1\nvalue = 5.78"] ;
997 -> 999 ;
1000 [label="mse = -0.0\nsamples = 1\nvalue = 5.93"] ;
996 -> 1000 ;
1001 [label="mse = 0.0\nsamples = 1\nvalue = 6.16"] ;
995 -> 1001 ;
1002 [label="toespoor <= 997.5\nmse = 0.063\nsamples = 184\nvalue = 6.531"] ;
650 -> 1002 ;
1003 [label="bandendruk <= 0.75\nmse = 0.059\nsamples = 50\nvalue = 6.434"] ;
1002 -> 1003 ;
1004 [label="toespoor <= 996.5\nmse = 0.06\nsamples = 31\nvalue = 6.382"] ;
1003 -> 1004 ;
1005 [label="bandendruk <= 0.65\nmse = 0.054\nsamples = 24\nvalue = 6.427"] ;
1004 -> 1005 ;
1006 [label="hoogte <= 25.0\nmse = 0.067\nsamples = 9\nvalue = 6.308"] ;
1005 -> 1006 ;
1007 [label="hoogte <= 20.5\nmse = 0.07\nsamples = 4\nvalue = 6.51"] ;
1006 -> 1007 ;
1008 [label="mse = 0.0\nsamples = 1\nvalue = 6.18"] ;
1007 -> 1008 ;
1009 [label="hoogte <= 22.0\nmse = 0.045\nsamples = 3\nvalue = 6.62"] ;
1007 -> 1009 ;
1010 [label="mse = 0.0\nsamples = 1\nvalue = 6.91"] ;
1009 -> 1010 ;
1011 [label="camber <= -0.55\nmse = 0.004\nsamples = 2\nvalue = 6.475"] ;
1009 -> 1011 ;
1012 [label="mse = 0.0\nsamples = 1\nvalue = 6.41"] ;
1011 -> 1012 ;
1013 [label="mse = 0.0\nsamples = 1\nvalue = 6.54"] ;
1011 -> 1013 ;
1014 [label="toespoor <= 995.5\nmse = 0.006\nsamples = 5\nvalue = 6.146"] ;
1006 -> 1014 ;
1015 [label="hoogte <= 31.5\nmse = 0.0\nsamples = 2\nvalue = 6.23"] ;
1014 -> 1015 ;
1016 [label="mse = 0.0\nsamples = 1\nvalue = 6.25"] ;
1015 -> 1016 ;
1017 [label="mse = -0.0\nsamples = 1\nvalue = 6.21"] ;
1015 -> 1017 ;
1018 [label="camber <= -0.8\nmse = 0.002\nsamples = 3\nvalue = 6.09"] ;
1014 -> 1018 ;
1019 [label="mse = 0.0\nsamples = 1\nvalue = 6.15"] ;
1018 -> 1019 ;
1020 [label="hoogte <= 32.0\nmse = 0.0\nsamples = 2\nvalue = 6.06"] ;
1018 -> 1020 ;
1021 [label="mse = 0.0\nsamples = 1\nvalue = 6.07"] ;
1020 -> 1021 ;
1022 [label="mse = -0.0\nsamples = 1\nvalue = 6.05"] ;
1020 -> 1022 ;
1023 [label="hoogte <= 39.5\nmse = 0.033\nsamples = 15\nvalue = 6.499"] ;
1005 -> 1023 ;
1024 [label="hoogte <= 35.0\nmse = 0.03\nsamples = 14\nvalue = 6.518"] ;
1023 -> 1024 ;
1025 [label="hoogte <= 32.5\nmse = 0.029\nsamples = 12\nvalue = 6.489"] ;
1024 -> 1025 ;
1026 [label="toespoor <= 995.5\nmse = 0.016\nsamples = 11\nvalue = 6.525"] ;
1025 -> 1026 ;
1027 [label="mse = 0.0\nsamples = 1\nvalue = 6.39"] ;
1026 -> 1027 ;
1028 [label="hoogte <= 26.0\nmse = 0.015\nsamples = 10\nvalue = 6.539"] ;
1026 -> 1028 ;
1029 [label="hoogte <= 21.0\nmse = 0.014\nsamples = 6\nvalue = 6.497"] ;
1028 -> 1029 ;
1030 [label="mse = 0.0\nsamples = 1\nvalue = 6.43"] ;
1029 -> 1030 ;
1031 [label="hoogte <= 23.5\nmse = 0.016\nsamples = 5\nvalue = 6.51"] ;
1029 -> 1031 ;
1032 [label="camber <= -0.5\nmse = 0.016\nsamples = 3\nvalue = 6.54"] ;
1031 -> 1032 ;
1033 [label="mse = 0.0\nsamples = 1\nvalue = 6.37"] ;
1032 -> 1033 ;
1034 [label="mse = 0.002\nsamples = 2\nvalue = 6.625"] ;
1032 -> 1034 ;
1035 [label="camber <= -0.5\nmse = 0.013\nsamples = 2\nvalue = 6.465"] ;
1031 -> 1035 ;
1036 [label="mse = 0.0\nsamples = 1\nvalue = 6.58"] ;
1035 -> 1036 ;
1037 [label="mse = 0.0\nsamples = 1\nvalue = 6.35"] ;
1035 -> 1037 ;
1038 [label="hoogte <= 31.0\nmse = 0.011\nsamples = 4\nvalue = 6.602"] ;
1028 -> 1038 ;
1039 [label="camber <= -0.85\nmse = 0.009\nsamples = 3\nvalue = 6.637"] ;
1038 -> 1039 ;
1040 [label="mse = 0.0\nsamples = 1\nvalue = 6.5"] ;
1039 -> 1040 ;
1041 [label="hoogte <= 28.5\nmse = 0.0\nsamples = 2\nvalue = 6.705"] ;
1039 -> 1041 ;
1042 [label="mse = 0.0\nsamples = 1\nvalue = 6.7"] ;
1041 -> 1042 ;
1043 [label="mse = -0.0\nsamples = 1\nvalue = 6.71"] ;
1041 -> 1043 ;
1044 [label="mse = 0.0\nsamples = 1\nvalue = 6.5"] ;
1038 -> 1044 ;
1045 [label="mse = 0.0\nsamples = 1\nvalue = 6.09"] ;
1025 -> 1045 ;
1046 [label="mse = -0.0\nsamples = 2\nvalue = 6.69"] ;
1024 -> 1046 ;
1047 [label="mse = 0.0\nsamples = 1\nvalue = 6.23"] ;
1023 -> 1047 ;
1048 [label="bandendruk <= 0.65\nmse = 0.049\nsamples = 7\nvalue = 6.229"] ;
1004 -> 1048 ;
1049 [label="camber <= -0.45\nmse = 0.021\nsamples = 2\nvalue = 6.465"] ;
1048 -> 1049 ;
1050 [label="mse = 0.0\nsamples = 1\nvalue = 6.32"] ;
1049 -> 1050 ;
1051 [label="mse = 0.0\nsamples = 1\nvalue = 6.61"] ;
1049 -> 1051 ;
1052 [label="hoogte <= 29.5\nmse = 0.029\nsamples = 5\nvalue = 6.134"] ;
1048 -> 1052 ;
1053 [label="camber <= -0.55\nmse = 0.029\nsamples = 3\nvalue = 6.05"] ;
1052 -> 1053 ;
1054 [label="mse = 0.0\nsamples = 1\nvalue = 5.84"] ;
1053 -> 1054 ;
1055 [label="camber <= -0.3\nmse = 0.011\nsamples = 2\nvalue = 6.155"] ;
1053 -> 1055 ;
1056 [label="mse = 0.0\nsamples = 1\nvalue = 6.05"] ;
1055 -> 1056 ;
1057 [label="mse = 0.0\nsamples = 1\nvalue = 6.26"] ;
1055 -> 1057 ;
1058 [label="camber <= -0.4\nmse = 0.002\nsamples = 2\nvalue = 6.26"] ;
1052 -> 1058 ;
1059 [label="mse = 0.0\nsamples = 1\nvalue = 6.3"] ;
1058 -> 1059 ;
1060 [label="mse = 0.0\nsamples = 1\nvalue = 6.22"] ;
1058 -> 1060 ;
1061 [label="toespoor <= 995.5\nmse = 0.047\nsamples = 19\nvalue = 6.517"] ;
1003 -> 1061 ;
1062 [label="camber <= -0.85\nmse = 0.019\nsamples = 5\nvalue = 6.338"] ;
1061 -> 1062 ;
1063 [label="camber <= -0.95\nmse = 0.021\nsamples = 2\nvalue = 6.225"] ;
1062 -> 1063 ;
1064 [label="mse = 0.0\nsamples = 1\nvalue = 6.37"] ;
1063 -> 1064 ;
1065 [label="mse = 0.0\nsamples = 1\nvalue = 6.08"] ;
1063 -> 1065 ;
1066 [label="hoogte <= 28.5\nmse = 0.004\nsamples = 3\nvalue = 6.413"] ;
1062 -> 1066 ;
1067 [label="mse = 0.0\nsamples = 1\nvalue = 6.33"] ;
1066 -> 1067 ;
1068 [label="hoogte <= 30.5\nmse = 0.001\nsamples = 2\nvalue = 6.455"] ;
1066 -> 1068 ;
1069 [label="mse = 0.0\nsamples = 1\nvalue = 6.43"] ;
1068 -> 1069 ;
1070 [label="mse = 0.0\nsamples = 1\nvalue = 6.48"] ;
1068 -> 1070 ;
1071 [label="hoogte <= 30.0\nmse = 0.041\nsamples = 14\nvalue = 6.581"] ;
1061 -> 1071 ;
1072 [label="hoogte <= 22.0\nmse = 0.034\nsamples = 7\nvalue = 6.687"] ;
1071 -> 1072 ;
1073 [label="camber <= -0.7\nmse = 0.006\nsamples = 2\nvalue = 6.47"] ;
1072 -> 1073 ;
1074 [label="mse = 0.0\nsamples = 1\nvalue = 6.39"] ;
1073 -> 1074 ;
1075 [label="mse = 0.0\nsamples = 1\nvalue = 6.55"] ;
1073 -> 1075 ;
1076 [label="camber <= -0.65\nmse = 0.019\nsamples = 5\nvalue = 6.774"] ;
1072 -> 1076 ;
1077 [label="camber <= -0.8\nmse = 0.001\nsamples = 2\nvalue = 6.855"] ;
1076 -> 1077 ;
1078 [label="mse = 0.0\nsamples = 1\nvalue = 6.82"] ;
1077 -> 1078 ;
1079 [label="mse = -0.0\nsamples = 1\nvalue = 6.89"] ;
1077 -> 1079 ;
1080 [label="camber <= -0.3\nmse = 0.024\nsamples = 3\nvalue = 6.72"] ;
1076 -> 1080 ;
1081 [label="mse = 0.0\nsamples = 1\nvalue = 6.51"] ;
1080 -> 1081 ;
1082 [label="toespoor <= 996.5\nmse = 0.003\nsamples = 2\nvalue = 6.825"] ;
1080 -> 1082 ;
1083 [label="mse = 0.0\nsamples = 1\nvalue = 6.77"] ;
1082 -> 1083 ;
1084 [label="mse = 0.0\nsamples = 1\nvalue = 6.88"] ;
1082 -> 1084 ;
1085 [label="camber <= -0.85\nmse = 0.025\nsamples = 7\nvalue = 6.476"] ;
1071 -> 1085 ;
1086 [label="mse = 0.0\nsamples = 1\nvalue = 6.71"] ;
1085 -> 1086 ;
1087 [label="hoogte <= 38.5\nmse = 0.019\nsamples = 6\nvalue = 6.437"] ;
1085 -> 1087 ;
1088 [label="camber <= -0.55\nmse = 0.011\nsamples = 4\nvalue = 6.363"] ;
1087 -> 1088 ;
1089 [label="hoogte <= 32.0\nmse = 0.004\nsamples = 2\nvalue = 6.45"] ;
1088 -> 1089 ;
1090 [label="mse = 0.0\nsamples = 1\nvalue = 6.39"] ;
1089 -> 1090 ;
1091 [label="mse = 0.0\nsamples = 1\nvalue = 6.51"] ;
1089 -> 1091 ;
1092 [label="camber <= -0.45\nmse = 0.003\nsamples = 2\nvalue = 6.275"] ;
1088 -> 1092 ;
1093 [label="mse = 0.0\nsamples = 1\nvalue = 6.33"] ;
1092 -> 1093 ;
1094 [label="mse = -0.0\nsamples = 1\nvalue = 6.22"] ;
1092 -> 1094 ;
1095 [label="toespoor <= 996.5\nmse = 0.001\nsamples = 2\nvalue = 6.585"] ;
1087 -> 1095 ;
1096 [label="mse = 0.0\nsamples = 1\nvalue = 6.61"] ;
1095 -> 1096 ;
1097 [label="mse = -0.0\nsamples = 1\nvalue = 6.56"] ;
1095 -> 1097 ;
1098 [label="hoogte <= 30.5\nmse = 0.059\nsamples = 134\nvalue = 6.568"] ;
1002 -> 1098 ;
1099 [label="camber <= -0.05\nmse = 0.055\nsamples = 67\nvalue = 6.635"] ;
1098 -> 1099 ;
1100 [label="bandendruk <= 0.75\nmse = 0.05\nsamples = 63\nvalue = 6.615"] ;
1099 -> 1100 ;
1101 [label="camber <= -0.55\nmse = 0.049\nsamples = 51\nvalue = 6.589"] ;
1100 -> 1101 ;
1102 [label="hoogte <= 20.5\nmse = 0.049\nsamples = 23\nvalue = 6.517"] ;
1101 -> 1102 ;
1103 [label="camber <= -0.9\nmse = 0.046\nsamples = 2\nvalue = 6.165"] ;
1102 -> 1103 ;
1104 [label="mse = 0.0\nsamples = 1\nvalue = 6.38"] ;
1103 -> 1104 ;
1105 [label="mse = -0.0\nsamples = 1\nvalue = 5.95"] ;
1103 -> 1105 ;
1106 [label="hoogte <= 24.5\nmse = 0.036\nsamples = 21\nvalue = 6.55"] ;
1102 -> 1106 ;
1107 [label="bandendruk <= 0.65\nmse = 0.027\nsamples = 9\nvalue = 6.63"] ;
1106 -> 1107 ;
1108 [label="toespoor <= 1001.5\nmse = 0.001\nsamples = 2\nvalue = 6.845"] ;
1107 -> 1108 ;
1109 [label="mse = 0.0\nsamples = 1\nvalue = 6.87"] ;
1108 -> 1109 ;
1110 [label="mse = 0.0\nsamples = 1\nvalue = 6.82"] ;
1108 -> 1110 ;
1111 [label="toespoor <= 1001.0\nmse = 0.018\nsamples = 7\nvalue = 6.569"] ;
1107 -> 1111 ;
1112 [label="camber <= -0.75\nmse = 0.006\nsamples = 3\nvalue = 6.697"] ;
1111 -> 1112 ;
1113 [label="camber <= -0.95\nmse = 0.002\nsamples = 2\nvalue = 6.745"] ;
1112 -> 1113 ;
1114 [label="mse = 0.0\nsamples = 1\nvalue = 6.79"] ;
1113 -> 1114 ;
1115 [label="mse = 0.0\nsamples = 1\nvalue = 6.7"] ;
1113 -> 1115 ;
1116 [label="mse = 0.0\nsamples = 1\nvalue = 6.6"] ;
1112 -> 1116 ;
1117 [label="camber <= -0.75\nmse = 0.006\nsamples = 4\nvalue = 6.472"] ;
1111 -> 1117 ;
1118 [label="toespoor <= 1004.0\nmse = 0.001\nsamples = 3\nvalue = 6.433"] ;
1117 -> 1118 ;
1119 [label="hoogte <= 22.5\nmse = 0.0\nsamples = 2\nvalue = 6.46"] ;
1118 -> 1119 ;
1120 [label="mse = 0.0\nsamples = 1\nvalue = 6.47"] ;
1119 -> 1120 ;
1121 [label="mse = 0.0\nsamples = 1\nvalue = 6.45"] ;
1119 -> 1121 ;
1122 [label="mse = 0.0\nsamples = 1\nvalue = 6.38"] ;
1118 -> 1122 ;
1123 [label="mse = -0.0\nsamples = 1\nvalue = 6.59"] ;
1117 -> 1123 ;
1124 [label="camber <= -0.75\nmse = 0.034\nsamples = 12\nvalue = 6.49"] ;
1106 -> 1124 ;
1125 [label="hoogte <= 26.5\nmse = 0.006\nsamples = 5\nvalue = 6.398"] ;
1124 -> 1125 ;
1126 [label="toespoor <= 999.5\nmse = 0.002\nsamples = 3\nvalue = 6.453"] ;
1125 -> 1126 ;
1127 [label="mse = 0.0\nsamples = 1\nvalue = 6.51"] ;
1126 -> 1127 ;
1128 [label="camber <= -0.85\nmse = 0.0\nsamples = 2\nvalue = 6.425"] ;
1126 -> 1128 ;
1129 [label="mse = 0.0\nsamples = 1\nvalue = 6.41"] ;
1128 -> 1129 ;
1130 [label="mse = -0.0\nsamples = 1\nvalue = 6.44"] ;
1128 -> 1130 ;
1131 [label="hoogte <= 28.0\nmse = 0.0\nsamples = 2\nvalue = 6.315"] ;
1125 -> 1131 ;
1132 [label="mse = 0.0\nsamples = 1\nvalue = 6.3"] ;
1131 -> 1132 ;
1133 [label="mse = 0.0\nsamples = 1\nvalue = 6.33"] ;
1131 -> 1133 ;
1134 [label="hoogte <= 25.5\nmse = 0.044\nsamples = 7\nvalue = 6.556"] ;
1124 -> 1134 ;
1135 [label="mse = 0.0\nsamples = 1\nvalue = 6.26"] ;
1134 -> 1135 ;
1136 [label="toespoor <= 1000.5\nmse = 0.034\nsamples = 6\nvalue = 6.605"] ;
1134 -> 1136 ;
1137 [label="camber <= -0.65\nmse = 0.021\nsamples = 2\nvalue = 6.415"] ;
1136 -> 1137 ;
1138 [label="mse = 0.0\nsamples = 1\nvalue = 6.27"] ;
1137 -> 1138 ;
1139 [label="mse = 0.0\nsamples = 1\nvalue = 6.56"] ;
1137 -> 1139 ;
1140 [label="hoogte <= 27.5\nmse = 0.014\nsamples = 4\nvalue = 6.7"] ;
1136 -> 1140 ;
1141 [label="mse = 0.0\nsamples = 1\nvalue = 6.8"] ;
1140 -> 1141 ;
1142 [label="toespoor <= 1003.0\nmse = 0.014\nsamples = 3\nvalue = 6.667"] ;
1140 -> 1142 ;
1143 [label="mse = 0.021\nsamples = 2\nvalue = 6.655"] ;
1142 -> 1143 ;
1144 [label="mse = -0.0\nsamples = 1\nvalue = 6.69"] ;
1142 -> 1144 ;
1145 [label="toespoor <= 1003.5\nmse = 0.041\nsamples = 28\nvalue = 6.649"] ;
1101 -> 1145 ;
1146 [label="hoogte <= 20.5\nmse = 0.028\nsamples = 20\nvalue = 6.61"] ;
1145 -> 1146 ;
1147 [label="bandendruk <= 0.65\nmse = 0.003\nsamples = 2\nvalue = 6.845"] ;
1146 -> 1147 ;
1148 [label="mse = 0.0\nsamples = 1\nvalue = 6.9"] ;
1147 -> 1148 ;
1149 [label="mse = -0.0\nsamples = 1\nvalue = 6.79"] ;
1147 -> 1149 ;
1150 [label="hoogte <= 28.0\nmse = 0.024\nsamples = 18\nvalue = 6.583"] ;
1146 -> 1150 ;
1151 [label="toespoor <= 1001.5\nmse = 0.024\nsamples = 9\nvalue = 6.498"] ;
1150 -> 1151 ;
1152 [label="toespoor <= 1000.5\nmse = 0.022\nsamples = 6\nvalue = 6.565"] ;
1151 -> 1152 ;
1153 [label="camber <= -0.35\nmse = 0.011\nsamples = 5\nvalue = 6.514"] ;
1152 -> 1153 ;
1154 [label="mse = 0.0\nsamples = 1\nvalue = 6.38"] ;
1153 -> 1154 ;
1155 [label="hoogte <= 21.5\nmse = 0.008\nsamples = 4\nvalue = 6.548"] ;
1153 -> 1155 ;
1156 [label="mse = 0.0\nsamples = 1\nvalue = 6.41"] ;
1155 -> 1156 ;
1157 [label="toespoor <= 999.0\nmse = 0.002\nsamples = 3\nvalue = 6.593"] ;
1155 -> 1157 ;
1158 [label="bandendruk <= 0.65\nmse = 0.0\nsamples = 2\nvalue = 6.565"] ;
1157 -> 1158 ;
1159 [label="mse = 0.0\nsamples = 1\nvalue = 6.57"] ;
1158 -> 1159 ;
1160 [label="mse = 0.0\nsamples = 1\nvalue = 6.56"] ;
1158 -> 1160 ;
1161 [label="mse = -0.0\nsamples = 1\nvalue = 6.65"] ;
1157 -> 1161 ;
1162 [label="mse = 0.0\nsamples = 1\nvalue = 6.82"] ;
1152 -> 1162 ;
1163 [label="camber <= -0.4\nmse = 0.001\nsamples = 3\nvalue = 6.363"] ;
1151 -> 1163 ;
1164 [label="mse = 0.0\nsamples = 1\nvalue = 6.41"] ;
1163 -> 1164 ;
1165 [label="mse = 0.0\nsamples = 2\nvalue = 6.34"] ;
1163 -> 1165 ;
1166 [label="camber <= -0.4\nmse = 0.01\nsamples = 9\nvalue = 6.669"] ;
1150 -> 1166 ;
1167 [label="mse = 0.0\nsamples = 1\nvalue = 6.84"] ;
1166 -> 1167 ;
1168 [label="toespoor <= 1000.0\nmse = 0.007\nsamples = 8\nvalue = 6.648"] ;
1166 -> 1168 ;
1169 [label="mse = 0.0\nsamples = 1\nvalue = 6.5"] ;
1168 -> 1169 ;
1170 [label="toespoor <= 1002.5\nmse = 0.004\nsamples = 7\nvalue = 6.669"] ;
1168 -> 1170 ;
1171 [label="bandendruk <= 0.65\nmse = 0.002\nsamples = 6\nvalue = 6.69"] ;
1170 -> 1171 ;
1172 [label="hoogte <= 29.5\nmse = 0.0\nsamples = 2\nvalue = 6.645"] ;
1171 -> 1172 ;
1173 [label="mse = 0.0\nsamples = 1\nvalue = 6.65"] ;
1172 -> 1173 ;
1174 [label="mse = 0.0\nsamples = 1\nvalue = 6.64"] ;
1172 -> 1174 ;
1175 [label="camber <= -0.25\nmse = 0.001\nsamples = 4\nvalue = 6.712"] ;
1171 -> 1175 ;
1176 [label="toespoor <= 1001.5\nmse = 0.0\nsamples = 2\nvalue = 6.68"] ;
1175 -> 1176 ;
1177 [label="mse = 0.0\nsamples = 1\nvalue = 6.7"] ;
1176 -> 1177 ;
1178 [label="mse = 0.0\nsamples = 1\nvalue = 6.66"] ;
1176 -> 1178 ;
1179 [label="hoogte <= 29.5\nmse = 0.0\nsamples = 2\nvalue = 6.745"] ;
1175 -> 1179 ;
1180 [label="mse = 0.0\nsamples = 1\nvalue = 6.75"] ;
1179 -> 1180 ;
1181 [label="mse = 0.0\nsamples = 1\nvalue = 6.74"] ;
1179 -> 1181 ;
1182 [label="mse = 0.0\nsamples = 1\nvalue = 6.54"] ;
1170 -> 1182 ;
1183 [label="toespoor <= 1004.5\nmse = 0.059\nsamples = 8\nvalue = 6.746"] ;
1145 -> 1183 ;
1184 [label="hoogte <= 27.5\nmse = 0.0\nsamples = 2\nvalue = 7.05"] ;
1183 -> 1184 ;
1185 [label="mse = 0.0\nsamples = 1\nvalue = 7.06"] ;
1184 -> 1185 ;
1186 [label="mse = 0.0\nsamples = 1\nvalue = 7.04"] ;
1184 -> 1186 ;
1187 [label="hoogte <= 26.5\nmse = 0.038\nsamples = 6\nvalue = 6.645"] ;
1183 -> 1187 ;
1188 [label="camber <= -0.4\nmse = 0.004\nsamples = 3\nvalue = 6.783"] ;
1187 -> 1188 ;
1189 [label="mse = 0.0\nsamples = 1\nvalue = 6.84"] ;
1188 -> 1189 ;
1190 [label="hoogte <= 23.5\nmse = 0.004\nsamples = 2\nvalue = 6.755"] ;
1188 -> 1190 ;
1191 [label="mse = 0.0\nsamples = 1\nvalue = 6.82"] ;
1190 -> 1191 ;
1192 [label="mse = -0.0\nsamples = 1\nvalue = 6.69"] ;
1190 -> 1192 ;
1193 [label="camber <= -0.2\nmse = 0.034\nsamples = 3\nvalue = 6.507"] ;
1187 -> 1193 ;
1194 [label="mse = 0.0\nsamples = 1\nvalue = 6.28"] ;
1193 -> 1194 ;
1195 [label="bandendruk <= 0.65\nmse = 0.012\nsamples = 2\nvalue = 6.62"] ;
1193 -> 1195 ;
1196 [label="mse = 0.0\nsamples = 1\nvalue = 6.73"] ;
1195 -> 1196 ;
1197 [label="mse = 0.0\nsamples = 1\nvalue = 6.51"] ;
1195 -> 1197 ;
1198 [label="hoogte <= 28.5\nmse = 0.039\nsamples = 12\nvalue = 6.728"] ;
1100 -> 1198 ;
1199 [label="camber <= -0.35\nmse = 0.026\nsamples = 9\nvalue = 6.804"] ;
1198 -> 1199 ;
1200 [label="hoogte <= 23.5\nmse = 0.009\nsamples = 8\nvalue = 6.851"] ;
1199 -> 1200 ;
1201 [label="camber <= -0.55\nmse = 0.003\nsamples = 3\nvalue = 6.78"] ;
1200 -> 1201 ;
1202 [label="hoogte <= 21.0\nmse = 0.0\nsamples = 2\nvalue = 6.82"] ;
1201 -> 1202 ;
1203 [label="mse = 0.0\nsamples = 1\nvalue = 6.84"] ;
1202 -> 1203 ;
1204 [label="mse = -0.0\nsamples = 1\nvalue = 6.8"] ;
1202 -> 1204 ;
1205 [label="mse = -0.0\nsamples = 1\nvalue = 6.7"] ;
1201 -> 1205 ;
1206 [label="camber <= -0.45\nmse = 0.008\nsamples = 5\nvalue = 6.894"] ;
1200 -> 1206 ;
1207 [label="camber <= -0.7\nmse = 0.002\nsamples = 4\nvalue = 6.855"] ;
1206 -> 1207 ;
1208 [label="toespoor <= 999.5\nmse = 0.001\nsamples = 2\nvalue = 6.815"] ;
1207 -> 1208 ;
1209 [label="mse = 0.0\nsamples = 1\nvalue = 6.79"] ;
1208 -> 1209 ;
1210 [label="mse = 0.0\nsamples = 1\nvalue = 6.84"] ;
1208 -> 1210 ;
1211 [label="camber <= -0.55\nmse = 0.001\nsamples = 2\nvalue = 6.895"] ;
1207 -> 1211 ;
1212 [label="mse = 0.0\nsamples = 1\nvalue = 6.92"] ;
1211 -> 1212 ;
1213 [label="mse = 0.0\nsamples = 1\nvalue = 6.87"] ;
1211 -> 1213 ;
1214 [label="mse = -0.0\nsamples = 1\nvalue = 7.05"] ;
1206 -> 1214 ;
1215 [label="mse = 0.0\nsamples = 1\nvalue = 6.43"] ;
1199 -> 1215 ;
1216 [label="hoogte <= 29.5\nmse = 0.006\nsamples = 3\nvalue = 6.497"] ;
1198 -> 1216 ;
1217 [label="camber <= -0.75\nmse = 0.005\nsamples = 2\nvalue = 6.46"] ;
1216 -> 1217 ;
1218 [label="mse = 0.0\nsamples = 1\nvalue = 6.53"] ;
1217 -> 1218 ;
1219 [label="mse = 0.0\nsamples = 1\nvalue = 6.39"] ;
1217 -> 1219 ;
1220 [label="mse = 0.0\nsamples = 1\nvalue = 6.57"] ;
1216 -> 1220 ;
1221 [label="bandendruk <= 0.65\nmse = 0.034\nsamples = 4\nvalue = 6.95"] ;
1099 -> 1221 ;
1222 [label="hoogte <= 25.5\nmse = 0.0\nsamples = 2\nvalue = 7.135"] ;
1221 -> 1222 ;
1223 [label="mse = 0.0\nsamples = 1\nvalue = 7.12"] ;
1222 -> 1223 ;
1224 [label="mse = 0.0\nsamples = 1\nvalue = 7.15"] ;
1222 -> 1224 ;
1225 [label="hoogte <= 21.5\nmse = 0.0\nsamples = 2\nvalue = 6.765"] ;
1221 -> 1225 ;
1226 [label="mse = 0.0\nsamples = 1\nvalue = 6.76"] ;
1225 -> 1226 ;
1227 [label="mse = 0.0\nsamples = 1\nvalue = 6.77"] ;
1225 -> 1227 ;
1228 [label="hoogte <= 31.5\nmse = 0.054\nsamples = 67\nvalue = 6.5"] ;
1098 -> 1228 ;
1229 [label="bandendruk <= 0.65\nmse = 0.026\nsamples = 2\nvalue = 6.13"] ;
1228 -> 1229 ;
1230 [label="mse = 0.0\nsamples = 1\nvalue = 5.97"] ;
1229 -> 1230 ;
1231 [label="mse = 0.0\nsamples = 1\nvalue = 6.29"] ;
1229 -> 1231 ;
1232 [label="bandendruk <= 0.75\nmse = 0.051\nsamples = 65\nvalue = 6.511"] ;
1228 -> 1232 ;
1233 [label="toespoor <= 1002.5\nmse = 0.049\nsamples = 51\nvalue = 6.487"] ;
1232 -> 1233 ;
1234 [label="hoogte <= 32.5\nmse = 0.056\nsamples = 34\nvalue = 6.52"] ;
1233 -> 1234 ;
1235 [label="camber <= -0.65\nmse = 0.053\nsamples = 5\nvalue = 6.304"] ;
1234 -> 1235 ;
1236 [label="bandendruk <= 0.65\nmse = 0.004\nsamples = 2\nvalue = 6.07"] ;
1235 -> 1236 ;
1237 [label="mse = 0.0\nsamples = 1\nvalue = 6.01"] ;
1236 -> 1237 ;
1238 [label="mse = -0.0\nsamples = 1\nvalue = 6.13"] ;
1236 -> 1238 ;
1239 [label="camber <= -0.4\nmse = 0.026\nsamples = 3\nvalue = 6.46"] ;
1235 -> 1239 ;
1240 [label="bandendruk <= 0.65\nmse = 0.006\nsamples = 2\nvalue = 6.565"] ;
1239 -> 1240 ;
1241 [label="mse = 0.0\nsamples = 1\nvalue = 6.49"] ;
1240 -> 1241 ;
1242 [label="mse = 0.0\nsamples = 1\nvalue = 6.64"] ;
1240 -> 1242 ;
1243 [label="mse = 0.0\nsamples = 1\nvalue = 6.25"] ;
1239 -> 1243 ;
1244 [label="hoogte <= 35.5\nmse = 0.047\nsamples = 29\nvalue = 6.557"] ;
1234 -> 1244 ;
1245 [label="camber <= -0.4\nmse = 0.042\nsamples = 11\nvalue = 6.698"] ;
1244 -> 1245 ;
1246 [label="camber <= -0.65\nmse = 0.044\nsamples = 7\nvalue = 6.626"] ;
1245 -> 1246 ;
1247 [label="camber <= -0.75\nmse = 0.02\nsamples = 4\nvalue = 6.737"] ;
1246 -> 1247 ;
1248 [label="toespoor <= 1000.0\nmse = 0.022\nsamples = 3\nvalue = 6.7"] ;
1247 -> 1248 ;
1249 [label="mse = 0.032\nsamples = 2\nvalue = 6.7"] ;
1248 -> 1249 ;
1250 [label="mse = 0.0\nsamples = 1\nvalue = 6.7"] ;
1248 -> 1250 ;
1251 [label="mse = -0.0\nsamples = 1\nvalue = 6.85"] ;
1247 -> 1251 ;
1252 [label="camber <= -0.55\nmse = 0.037\nsamples = 3\nvalue = 6.477"] ;
1246 -> 1252 ;
1253 [label="mse = 0.0\nsamples = 1\nvalue = 6.26"] ;
1252 -> 1253 ;
1254 [label="hoogte <= 33.5\nmse = 0.021\nsamples = 2\nvalue = 6.585"] ;
1252 -> 1254 ;
1255 [label="mse = 0.0\nsamples = 1\nvalue = 6.73"] ;
1254 -> 1255 ;
1256 [label="mse = -0.0\nsamples = 1\nvalue = 6.44"] ;
1254 -> 1256 ;
1257 [label="toespoor <= 998.5\nmse = 0.013\nsamples = 4\nvalue = 6.825"] ;
1245 -> 1257 ;
1258 [label="mse = 0.0\nsamples = 1\nvalue = 7.01"] ;
1257 -> 1258 ;
1259 [label="hoogte <= 34.0\nmse = 0.002\nsamples = 3\nvalue = 6.763"] ;
1257 -> 1259 ;
1260 [label="mse = 0.0\nsamples = 1\nvalue = 6.72"] ;
1259 -> 1260 ;
1261 [label="toespoor <= 1000.0\nmse = 0.002\nsamples = 2\nvalue = 6.785"] ;
1259 -> 1261 ;
1262 [label="mse = 0.0\nsamples = 1\nvalue = 6.74"] ;
1261 -> 1262 ;
1263 [label="mse = 0.0\nsamples = 1\nvalue = 6.83"] ;
1261 -> 1263 ;
1264 [label="hoogte <= 38.5\nmse = 0.031\nsamples = 18\nvalue = 6.471"] ;
1244 -> 1264 ;
1265 [label="camber <= -0.75\nmse = 0.025\nsamples = 11\nvalue = 6.518"] ;
1264 -> 1265 ;
1266 [label="camber <= -0.85\nmse = 0.024\nsamples = 3\nvalue = 6.667"] ;
1265 -> 1266 ;
1267 [label="mse = 0.0\nsamples = 1\nvalue = 6.47"] ;
1266 -> 1267 ;
1268 [label="toespoor <= 1000.5\nmse = 0.007\nsamples = 2\nvalue = 6.765"] ;
1266 -> 1268 ;
1269 [label="mse = 0.0\nsamples = 1\nvalue = 6.85"] ;
1268 -> 1269 ;
1270 [label="mse = -0.0\nsamples = 1\nvalue = 6.68"] ;
1268 -> 1270 ;
1271 [label="hoogte <= 36.5\nmse = 0.014\nsamples = 8\nvalue = 6.462"] ;
1265 -> 1271 ;
1272 [label="toespoor <= 1000.0\nmse = 0.001\nsamples = 3\nvalue = 6.54"] ;
1271 -> 1272 ;
1273 [label="mse = 0.0\nsamples = 1\nvalue = 6.57"] ;
1272 -> 1273 ;
1274 [label="mse = 0.001\nsamples = 2\nvalue = 6.525"] ;
1272 -> 1274 ;
1275 [label="hoogte <= 37.5\nmse = 0.017\nsamples = 5\nvalue = 6.416"] ;
1271 -> 1275 ;
1276 [label="camber <= -0.6\nmse = 0.021\nsamples = 2\nvalue = 6.315"] ;
1275 -> 1276 ;
1277 [label="mse = 0.0\nsamples = 1\nvalue = 6.46"] ;
1276 -> 1277 ;
1278 [label="mse = 0.0\nsamples = 1\nvalue = 6.17"] ;
1276 -> 1278 ;
1279 [label="bandendruk <= 0.65\nmse = 0.002\nsamples = 3\nvalue = 6.483"] ;
1275 -> 1279 ;
1280 [label="mse = 0.0\nsamples = 1\nvalue = 6.55"] ;
1279 -> 1280 ;
1281 [label="mse = 0.0\nsamples = 2\nvalue = 6.45"] ;
1279 -> 1281 ;
1282 [label="toespoor <= 999.5\nmse = 0.03\nsamples = 7\nvalue = 6.397"] ;
1264 -> 1282 ;
1283 [label="camber <= -0.4\nmse = 0.004\nsamples = 3\nvalue = 6.303"] ;
1282 -> 1283 ;
1284 [label="camber <= -0.7\nmse = 0.0\nsamples = 2\nvalue = 6.35"] ;
1283 -> 1284 ;
1285 [label="mse = 0.0\nsamples = 1\nvalue = 6.34"] ;
1284 -> 1285 ;
1286 [label="mse = 0.0\nsamples = 1\nvalue = 6.36"] ;
1284 -> 1286 ;
1287 [label="mse = -0.0\nsamples = 1\nvalue = 6.21"] ;
1283 -> 1287 ;
1288 [label="camber <= -0.45\nmse = 0.038\nsamples = 4\nvalue = 6.467"] ;
1282 -> 1288 ;
1289 [label="camber <= -0.7\nmse = 0.058\nsamples = 2\nvalue = 6.56"] ;
1288 -> 1289 ;
1290 [label="mse = 0.0\nsamples = 1\nvalue = 6.32"] ;
1289 -> 1290 ;
1291 [label="mse = -0.0\nsamples = 1\nvalue = 6.8"] ;
1289 -> 1291 ;
1292 [label="bandendruk <= 0.65\nmse = 0.002\nsamples = 2\nvalue = 6.375"] ;
1288 -> 1292 ;
1293 [label="mse = 0.0\nsamples = 1\nvalue = 6.42"] ;
1292 -> 1293 ;
1294 [label="mse = 0.0\nsamples = 1\nvalue = 6.33"] ;
1292 -> 1294 ;
1295 [label="hoogte <= 32.5\nmse = 0.027\nsamples = 17\nvalue = 6.421"] ;
1233 -> 1295 ;
1296 [label="camber <= -0.45\nmse = 0.023\nsamples = 3\nvalue = 6.533"] ;
1295 -> 1296 ;
1297 [label="camber <= -0.75\nmse = 0.0\nsamples = 2\nvalue = 6.425"] ;
1296 -> 1297 ;
1298 [label="mse = 0.0\nsamples = 1\nvalue = 6.43"] ;
1297 -> 1298 ;
1299 [label="mse = -0.0\nsamples = 1\nvalue = 6.42"] ;
1297 -> 1299 ;
1300 [label="mse = 0.0\nsamples = 1\nvalue = 6.75"] ;
1296 -> 1300 ;
1301 [label="bandendruk <= 0.65\nmse = 0.025\nsamples = 14\nvalue = 6.396"] ;
1295 -> 1301 ;
1302 [label="camber <= -0.4\nmse = 0.001\nsamples = 2\nvalue = 6.115"] ;
1301 -> 1302 ;
1303 [label="mse = 0.0\nsamples = 1\nvalue = 6.09"] ;
1302 -> 1303 ;
