digraph Tree {
node [shape=box] ;
0 [label="typeEvent <= 1.5\nmse = 2.733\nsamples = 700\nvalue = 4.76"] ;
1 [label="main <= 1.5\nmse = 0.105\nsamples = 325\nvalue = 3.024"] ;
0 -> 1 [labeldistance=2.5, labelangle=45, headlabel="True"] ;
2 [label="camber <= -0.45\nmse = 0.044\nsamples = 164\nvalue = 2.773"] ;
1 -> 2 ;
3 [label="toespoor <= 997.5\nmse = 0.043\nsamples = 97\nvalue = 2.827"] ;
2 -> 3 ;
4 [label="hoogte <= 30.5\nmse = 0.046\nsamples = 20\nvalue = 2.936"] ;
3 -> 4 ;
5 [label="hoogte <= 24.5\nmse = 0.059\nsamples = 9\nvalue = 2.853"] ;
4 -> 5 ;
6 [label="hoogte <= 23.5\nmse = 0.011\nsamples = 5\nvalue = 3.018"] ;
5 -> 6 ;
7 [label="bandendruk <= 0.65\nmse = 0.004\nsamples = 3\nvalue = 2.943"] ;
6 -> 7 ;
8 [label="mse = 0.0\nsamples = 1\nvalue = 3.03"] ;
7 -> 8 ;
9 [label="hoogte <= 22.0\nmse = 0.0\nsamples = 2\nvalue = 2.9"] ;
7 -> 9 ;
10 [label="mse = 0.0\nsamples = 1\nvalue = 2.91"] ;
9 -> 10 ;
11 [label="mse = -0.0\nsamples = 1\nvalue = 2.89"] ;
9 -> 11 ;
12 [label="camber <= -0.75\nmse = 0.001\nsamples = 2\nvalue = 3.13"] ;
6 -> 12 ;
13 [label="mse = 0.0\nsamples = 1\nvalue = 3.1"] ;
12 -> 13 ;
14 [label="mse = 0.0\nsamples = 1\nvalue = 3.16"] ;
12 -> 14 ;
15 [label="camber <= -0.8\nmse = 0.042\nsamples = 4\nvalue = 2.648"] ;
5 -> 15 ;
16 [label="camber <= -0.95\nmse = 0.014\nsamples = 2\nvalue = 2.83"] ;
15 -> 16 ;
17 [label="mse = 0.0\nsamples = 1\nvalue = 2.71"] ;
16 -> 17 ;
18 [label="mse = 0.0\nsamples = 1\nvalue = 2.95"] ;
16 -> 18 ;
19 [label="toespoor <= 995.5\nmse = 0.003\nsamples = 2\nvalue = 2.465"] ;
15 -> 19 ;
20 [label="mse = 0.0\nsamples = 1\nvalue = 2.52"] ;
19 -> 20 ;
21 [label="mse = 0.0\nsamples = 1\nvalue = 2.41"] ;
19 -> 21 ;
22 [label="hoogte <= 39.5\nmse = 0.026\nsamples = 11\nvalue = 3.004"] ;
4 -> 22 ;
23 [label="toespoor <= 995.5\nmse = 0.018\nsamples = 7\nvalue = 3.069"] ;
22 -> 23 ;
24 [label="hoogte <= 37.5\nmse = 0.005\nsamples = 3\nvalue = 3.18"] ;
23 -> 24 ;
25 [label="mse = 0.0\nsamples = 1\nvalue = 3.26"] ;
24 -> 25 ;
26 [label="bandendruk <= 0.7\nmse = 0.002\nsamples = 2\nvalue = 3.14"] ;
24 -> 26 ;
27 [label="mse = 0.0\nsamples = 1\nvalue = 3.19"] ;
26 -> 27 ;
28 [label="mse = 0.0\nsamples = 1\nvalue = 3.09"] ;
26 -> 28 ;
29 [label="bandendruk <= 0.65\nmse = 0.011\nsamples = 4\nvalue = 2.985"] ;
23 -> 29 ;
30 [label="mse = 0.0\nsamples = 1\nvalue = 3.09"] ;
29 -> 30 ;
31 [label="bandendruk <= 0.75\nmse = 0.01\nsamples = 3\nvalue = 2.95"] ;
29 -> 31 ;
32 [label="mse = 0.0\nsamples = 1\nvalue = 2.83"] ;
31 -> 32 ;
33 [label="camber <= -0.7\nmse = 0.004\nsamples = 2\nvalue = 3.01"] ;
31 -> 33 ;
34 [label="mse = 0.0\nsamples = 1\nvalue = 3.07"] ;
33 -> 34 ;
35 [label="mse = 0.0\nsamples = 1\nvalue = 2.95"] ;
33 -> 35 ;
36 [label="camber <= -0.7\nmse = 0.021\nsamples = 4\nvalue = 2.89"] ;
22 -> 36 ;
37 [label="toespoor <= 996.0\nmse = 0.002\nsamples = 2\nvalue = 2.765"] ;
36 -> 37 ;
38 [label="mse = 0.0\nsamples = 1\nvalue = 2.72"] ;
37 -> 38 ;
39 [label="mse = 0.0\nsamples = 1\nvalue = 2.81"] ;
37 -> 39 ;
40 [label="toespoor <= 995.5\nmse = 0.009\nsamples = 2\nvalue = 3.015"] ;
36 -> 40 ;
41 [label="mse = 0.0\nsamples = 1\nvalue = 2.92"] ;
40 -> 41 ;
42 [label="mse = 0.0\nsamples = 1\nvalue = 3.11"] ;
40 -> 42 ;
43 [label="toespoor <= 1001.5\nmse = 0.038\nsamples = 77\nvalue = 2.798"] ;
3 -> 43 ;
44 [label="camber <= -0.65\nmse = 0.027\nsamples = 31\nvalue = 2.708"] ;
43 -> 44 ;
45 [label="hoogte <= 28.5\nmse = 0.024\nsamples = 22\nvalue = 2.662"] ;
44 -> 45 ;
46 [label="toespoor <= 999.5\nmse = 0.018\nsamples = 7\nvalue = 2.546"] ;
45 -> 46 ;
47 [label="camber <= -0.9\nmse = 0.0\nsamples = 3\nvalue = 2.677"] ;
46 -> 47 ;
48 [label="mse = 0.0\nsamples = 1\nvalue = 2.7"] ;
47 -> 48 ;
49 [label="toespoor <= 998.5\nmse = 0.0\nsamples = 2\nvalue = 2.665"] ;
47 -> 49 ;
50 [label="mse = 0.0\nsamples = 1\nvalue = 2.66"] ;
49 -> 50 ;
51 [label="mse = -0.0\nsamples = 1\nvalue = 2.67"] ;
49 -> 51 ;
52 [label="bandendruk <= 0.75\nmse = 0.008\nsamples = 4\nvalue = 2.448"] ;
46 -> 52 ;
53 [label="hoogte <= 23.5\nmse = 0.001\nsamples = 3\nvalue = 2.497"] ;
52 -> 53 ;
54 [label="bandendruk <= 0.65\nmse = 0.0\nsamples = 2\nvalue = 2.475"] ;
53 -> 54 ;
55 [label="mse = 0.0\nsamples = 1\nvalue = 2.48"] ;
54 -> 55 ;
56 [label="mse = -0.0\nsamples = 1\nvalue = 2.47"] ;
54 -> 56 ;
57 [label="mse = -0.0\nsamples = 1\nvalue = 2.54"] ;
53 -> 57 ;
58 [label="mse = 0.0\nsamples = 1\nvalue = 2.3"] ;
52 -> 58 ;
59 [label="bandendruk <= 0.65\nmse = 0.018\nsamples = 15\nvalue = 2.717"] ;
45 -> 59 ;
60 [label="toespoor <= 999.0\nmse = 0.006\nsamples = 3\nvalue = 2.893"] ;
59 -> 60 ;
61 [label="hoogte <= 31.0\nmse = 0.0\nsamples = 2\nvalue = 2.84"] ;
60 -> 61 ;
62 [label="mse = 0.0\nsamples = 1\nvalue = 2.86"] ;
61 -> 62 ;
63 [label="mse = 0.0\nsamples = 1\nvalue = 2.82"] ;
61 -> 63 ;
64 [label="mse = 0.0\nsamples = 1\nvalue = 3.0"] ;
60 -> 64 ;
65 [label="toespoor <= 998.5\nmse = 0.012\nsamples = 12\nvalue = 2.672"] ;
59 -> 65 ;
66 [label="camber <= -0.85\nmse = 0.01\nsamples = 5\nvalue = 2.618"] ;
65 -> 66 ;
67 [label="mse = 0.0\nsamples = 1\nvalue = 2.49"] ;
66 -> 67 ;
68 [label="hoogte <= 30.5\nmse = 0.008\nsamples = 4\nvalue = 2.65"] ;
66 -> 68 ;
69 [label="mse = 0.0\nsamples = 1\nvalue = 2.74"] ;
68 -> 69 ;
70 [label="hoogte <= 33.5\nmse = 0.007\nsamples = 3\nvalue = 2.62"] ;
68 -> 70 ;
71 [label="mse = 0.0\nsamples = 1\nvalue = 2.51"] ;
70 -> 71 ;
72 [label="hoogte <= 36.5\nmse = 0.001\nsamples = 2\nvalue = 2.675"] ;
70 -> 72 ;
73 [label="mse = 0.0\nsamples = 1\nvalue = 2.64"] ;
72 -> 73 ;
74 [label="mse = 0.0\nsamples = 1\nvalue = 2.71"] ;
72 -> 74 ;
75 [label="hoogte <= 32.0\nmse = 0.009\nsamples = 7\nvalue = 2.711"] ;
65 -> 75 ;
76 [label="camber <= -0.75\nmse = 0.0\nsamples = 2\nvalue = 2.625"] ;
75 -> 76 ;
77 [label="mse = 0.0\nsamples = 1\nvalue = 2.62"] ;
76 -> 77 ;
78 [label="mse = 0.0\nsamples = 1\nvalue = 2.63"] ;
76 -> 78 ;
79 [label="hoogte <= 33.5\nmse = 0.008\nsamples = 5\nvalue = 2.746"] ;
75 -> 79 ;
80 [label="mse = 0.0\nsamples = 1\nvalue = 2.87"] ;
79 -> 80 ;
81 [label="toespoor <= 1000.5\nmse = 0.006\nsamples = 4\nvalue = 2.715"] ;
79 -> 81 ;
82 [label="hoogte <= 38.5\nmse = 0.004\nsamples = 3\nvalue = 2.743"] ;
81 -> 82 ;
83 [label="camber <= -0.8\nmse = 0.001\nsamples = 2\nvalue = 2.7"] ;
82 -> 83 ;
84 [label="mse = 0.0\nsamples = 1\nvalue = 2.73"] ;
83 -> 84 ;
85 [label="mse = -0.0\nsamples = 1\nvalue = 2.67"] ;
83 -> 85 ;
86 [label="mse = -0.0\nsamples = 1\nvalue = 2.83"] ;
82 -> 86 ;
87 [label="mse = 0.0\nsamples = 1\nvalue = 2.63"] ;
81 -> 87 ;
88 [label="hoogte <= 27.0\nmse = 0.017\nsamples = 9\nvalue = 2.82"] ;
44 -> 88 ;
89 [label="hoogte <= 23.5\nmse = 0.004\nsamples = 2\nvalue = 3.01"] ;
88 -> 89 ;
90 [label="mse = 0.0\nsamples = 1\nvalue = 3.07"] ;
89 -> 90 ;
91 [label="mse = 0.0\nsamples = 1\nvalue = 2.95"] ;
89 -> 91 ;
92 [label="hoogte <= 37.5\nmse = 0.007\nsamples = 7\nvalue = 2.766"] ;
88 -> 92 ;
93 [label="toespoor <= 998.5\nmse = 0.008\nsamples = 5\nvalue = 2.79"] ;
92 -> 93 ;
94 [label="bandendruk <= 0.7\nmse = 0.001\nsamples = 2\nvalue = 2.725"] ;
93 -> 94 ;
95 [label="mse = 0.0\nsamples = 1\nvalue = 2.69"] ;
94 -> 95 ;
96 [label="mse = 0.0\nsamples = 1\nvalue = 2.76"] ;
94 -> 96 ;
97 [label="hoogte <= 34.5\nmse = 0.008\nsamples = 3\nvalue = 2.833"] ;
93 -> 97 ;
98 [label="mse = 0.0\nsamples = 1\nvalue = 2.94"] ;
97 -> 98 ;
99 [label="toespoor <= 1000.0\nmse = 0.004\nsamples = 2\nvalue = 2.78"] ;
97 -> 99 ;
100 [label="mse = 0.0\nsamples = 1\nvalue = 2.72"] ;
99 -> 100 ;
101 [label="mse = -0.0\nsamples = 1\nvalue = 2.84"] ;
99 -> 101 ;
102 [label="toespoor <= 999.0\nmse = 0.001\nsamples = 2\nvalue = 2.705"] ;
92 -> 102 ;
103 [label="mse = 0.0\nsamples = 1\nvalue = 2.73"] ;
102 -> 103 ;
104 [label="mse = 0.0\nsamples = 1\nvalue = 2.68"] ;
102 -> 104 ;
105 [label="hoogte <= 26.0\nmse = 0.036\nsamples = 46\nvalue = 2.859"] ;
43 -> 105 ;
106 [label="toespoor <= 1004.5\nmse = 0.033\nsamples = 19\nvalue = 2.77"] ;
105 -> 106 ;
107 [label="hoogte <= 21.5\nmse = 0.028\nsamples = 13\nvalue = 2.704"] ;
106 -> 107 ;
108 [label="camber <= -0.65\nmse = 0.021\nsamples = 6\nvalue = 2.783"] ;
107 -> 108 ;
109 [label="bandendruk <= 0.75\nmse = 0.009\nsamples = 4\nvalue = 2.87"] ;
108 -> 109 ;
110 [label="camber <= -0.85\nmse = 0.006\nsamples = 2\nvalue = 2.94"] ;
109 -> 110 ;
111 [label="mse = 0.0\nsamples = 1\nvalue = 2.86"] ;
110 -> 111 ;
112 [label="mse = -0.0\nsamples = 1\nvalue = 3.02"] ;
110 -> 112 ;
113 [label="camber <= -0.8\nmse = 0.001\nsamples = 2\nvalue = 2.8"] ;
109 -> 113 ;
114 [label="mse = 0.0\nsamples = 1\nvalue = 2.83"] ;
113 -> 114 ;
115 [label="mse = 0.0\nsamples = 1\nvalue = 2.77"] ;
113 -> 115 ;
116 [label="hoogte <= 20.5\nmse = 0.0\nsamples = 2\nvalue = 2.61"] ;
108 -> 116 ;
117 [label="mse = 0.0\nsamples = 1\nvalue = 2.63"] ;
116 -> 117 ;
118 [label="mse = 0.0\nsamples = 1\nvalue = 2.59"] ;
116 -> 118 ;
119 [label="bandendruk <= 0.65\nmse = 0.025\nsamples = 7\nvalue = 2.636"] ;
107 -> 119 ;
120 [label="mse = 0.0\nsamples = 1\nvalue = 2.88"] ;
119 -> 120 ;
121 [label="hoogte <= 23.5\nmse = 0.017\nsamples = 6\nvalue = 2.595"] ;
119 -> 121 ;
122 [label="hoogte <= 22.5\nmse = 0.003\nsamples = 2\nvalue = 2.475"] ;
121 -> 122 ;
123 [label="mse = 0.0\nsamples = 1\nvalue = 2.42"] ;
122 -> 123 ;
124 [label="mse = 0.0\nsamples = 1\nvalue = 2.53"] ;
122 -> 124 ;
125 [label="bandendruk <= 0.75\nmse = 0.013\nsamples = 4\nvalue = 2.655"] ;
121 -> 125 ;
126 [label="hoogte <= 24.5\nmse = 0.004\nsamples = 3\nvalue = 2.713"] ;
125 -> 126 ;
127 [label="toespoor <= 1003.0\nmse = 0.0\nsamples = 2\nvalue = 2.67"] ;
126 -> 127 ;
128 [label="mse = 0.0\nsamples = 1\nvalue = 2.65"] ;
127 -> 128 ;
129 [label="mse = 0.0\nsamples = 1\nvalue = 2.69"] ;
127 -> 129 ;
130 [label="mse = -0.0\nsamples = 1\nvalue = 2.8"] ;
126 -> 130 ;
131 [label="mse = -0.0\nsamples = 1\nvalue = 2.48"] ;
125 -> 131 ;
132 [label="hoogte <= 22.5\nmse = 0.013\nsamples = 6\nvalue = 2.913"] ;
106 -> 132 ;
133 [label="camber <= -0.85\nmse = 0.007\nsamples = 4\nvalue = 2.848"] ;
132 -> 133 ;
134 [label="mse = 0.01\nsamples = 2\nvalue = 2.81"] ;
133 -> 134 ;
135 [label="camber <= -0.75\nmse = 0.001\nsamples = 2\nvalue = 2.885"] ;
133 -> 135 ;
136 [label="mse = 0.0\nsamples = 1\nvalue = 2.91"] ;
135 -> 136 ;
137 [label="mse = 0.0\nsamples = 1\nvalue = 2.86"] ;
135 -> 137 ;
138 [label="bandendruk <= 0.65\nmse = 0.0\nsamples = 2\nvalue = 3.045"] ;
132 -> 138 ;
139 [label="mse = 0.0\nsamples = 1\nvalue = 3.04"] ;
138 -> 139 ;
140 [label="mse = 0.0\nsamples = 1\nvalue = 3.05"] ;
138 -> 140 ;
141 [label="camber <= -0.85\nmse = 0.029\nsamples = 27\nvalue = 2.921"] ;
105 -> 141 ;
142 [label="hoogte <= 33.5\nmse = 0.005\nsamples = 6\nvalue = 3.022"] ;
141 -> 142 ;
143 [label="hoogte <= 30.0\nmse = 0.002\nsamples = 3\nvalue = 3.083"] ;
142 -> 143 ;
144 [label="hoogte <= 27.5\nmse = 0.0\nsamples = 2\nvalue = 3.055"] ;
143 -> 144 ;
145 [label="mse = 0.0\nsamples = 1\nvalue = 3.05"] ;
144 -> 145 ;
146 [label="mse = 0.0\nsamples = 1\nvalue = 3.06"] ;
144 -> 146 ;
147 [label="mse = -0.0\nsamples = 1\nvalue = 3.14"] ;
143 -> 147 ;
148 [label="camber <= -0.95\nmse = 0.001\nsamples = 3\nvalue = 2.96"] ;
142 -> 148 ;
149 [label="hoogte <= 37.0\nmse = 0.0\nsamples = 2\nvalue = 2.985"] ;
148 -> 149 ;
150 [label="mse = 0.0\nsamples = 1\nvalue = 2.97"] ;
149 -> 150 ;
151 [label="mse = -0.0\nsamples = 1\nvalue = 3.0"] ;
149 -> 151 ;
152 [label="mse = -0.0\nsamples = 1\nvalue = 2.91"] ;
148 -> 152 ;
153 [label="hoogte <= 37.5\nmse = 0.032\nsamples = 21\nvalue = 2.893"] ;
141 -> 153 ;
154 [label="hoogte <= 33.5\nmse = 0.031\nsamples = 19\nvalue = 2.872"] ;
153 -> 154 ;
155 [label="toespoor <= 1003.5\nmse = 0.034\nsamples = 10\nvalue = 2.938"] ;
154 -> 155 ;
156 [label="hoogte <= 32.5\nmse = 0.02\nsamples = 4\nvalue = 2.845"] ;
155 -> 156 ;
157 [label="hoogte <= 30.5\nmse = 0.01\nsamples = 3\nvalue = 2.78"] ;
156 -> 157 ;
158 [label="hoogte <= 28.5\nmse = 0.002\nsamples = 2\nvalue = 2.845"] ;
157 -> 158 ;
159 [label="mse = 0.0\nsamples = 1\nvalue = 2.89"] ;
158 -> 159 ;
160 [label="mse = 0.0\nsamples = 1\nvalue = 2.8"] ;
158 -> 160 ;
161 [label="mse = -0.0\nsamples = 1\nvalue = 2.65"] ;
157 -> 161 ;
162 [label="mse = -0.0\nsamples = 1\nvalue = 3.04"] ;
156 -> 162 ;
163 [label="camber <= -0.7\nmse = 0.034\nsamples = 6\nvalue = 3.0"] ;
155 -> 163 ;
164 [label="hoogte <= 32.5\nmse = 0.032\nsamples = 4\nvalue = 2.922"] ;
163 -> 164 ;
165 [label="bandendruk <= 0.65\nmse = 0.032\nsamples = 2\nvalue = 3.04"] ;
164 -> 165 ;
166 [label="mse = 0.0\nsamples = 1\nvalue = 2.86"] ;
165 -> 166 ;
167 [label="mse = 0.0\nsamples = 1\nvalue = 3.22"] ;
165 -> 167 ;
168 [label="toespoor <= 1004.5\nmse = 0.003\nsamples = 2\nvalue = 2.805"] ;
164 -> 168 ;
169 [label="mse = 0.0\nsamples = 1\nvalue = 2.86"] ;
168 -> 169 ;
170 [label="mse = 0.0\nsamples = 1\nvalue = 2.75"] ;
168 -> 170 ;
171 [label="camber <= -0.55\nmse = 0.002\nsamples = 2\nvalue = 3.155"] ;
163 -> 171 ;
172 [label="mse = 0.0\nsamples = 1\nvalue = 3.11"] ;
171 -> 172 ;
173 [label="mse = 0.0\nsamples = 1\nvalue = 3.2"] ;
171 -> 173 ;
174 [label="bandendruk <= 0.65\nmse = 0.017\nsamples = 9\nvalue = 2.798"] ;
154 -> 174 ;
175 [label="hoogte <= 36.0\nmse = 0.009\nsamples = 3\nvalue = 2.913"] ;
174 -> 175 ;
176 [label="camber <= -0.75\nmse = 0.0\nsamples = 2\nvalue = 2.98"] ;
175 -> 176 ;
177 [label="mse = 0.0\nsamples = 1\nvalue = 3.0"] ;
176 -> 177 ;
178 [label="mse = 0.0\nsamples = 1\nvalue = 2.96"] ;
176 -> 178 ;
179 [label="mse = 0.0\nsamples = 1\nvalue = 2.78"] ;
175 -> 179 ;
180 [label="hoogte <= 35.5\nmse = 0.011\nsamples = 6\nvalue = 2.74"] ;
174 -> 180 ;
181 [label="toespoor <= 1003.5\nmse = 0.002\nsamples = 2\nvalue = 2.65"] ;
180 -> 181 ;
182 [label="mse = 0.0\nsamples = 1\nvalue = 2.6"] ;
181 -> 182 ;
183 [label="mse = -0.0\nsamples = 1\nvalue = 2.7"] ;
181 -> 183 ;
184 [label="toespoor <= 1004.5\nmse = 0.009\nsamples = 4\nvalue = 2.785"] ;
180 -> 184 ;
185 [label="camber <= -0.6\nmse = 0.004\nsamples = 3\nvalue = 2.83"] ;
184 -> 185 ;
186 [label="camber <= -0.75\nmse = 0.002\nsamples = 2\nvalue = 2.79"] ;
185 -> 186 ;
187 [label="mse = 0.0\nsamples = 1\nvalue = 2.83"] ;
186 -> 187 ;
188 [label="mse = 0.0\nsamples = 1\nvalue = 2.75"] ;
186 -> 188 ;
189 [label="mse = 0.0\nsamples = 1\nvalue = 2.91"] ;
185 -> 189 ;
190 [label="mse = -0.0\nsamples = 1\nvalue = 2.65"] ;
184 -> 190 ;
191 [label="hoogte <= 38.5\nmse = 0.0\nsamples = 2\nvalue = 3.095"] ;
153 -> 191 ;
192 [label="mse = 0.0\nsamples = 1\nvalue = 3.11"] ;
191 -> 192 ;
193 [label="mse = 0.0\nsamples = 1\nvalue = 3.08"] ;
191 -> 193 ;
194 [label="toespoor <= 1004.5\nmse = 0.035\nsamples = 67\nvalue = 2.696"] ;
2 -> 194 ;
195 [label="hoogte <= 30.5\nmse = 0.032\nsamples = 59\nvalue = 2.672"] ;
194 -> 195 ;
196 [label="bandendruk <= 0.65\nmse = 0.027\nsamples = 28\nvalue = 2.613"] ;
195 -> 196 ;
197 [label="hoogte <= 27.5\nmse = 0.027\nsamples = 6\nvalue = 2.738"] ;
196 -> 197 ;
198 [label="hoogte <= 26.0\nmse = 0.033\nsamples = 3\nvalue = 2.823"] ;
197 -> 198 ;
199 [label="toespoor <= 1000.0\nmse = 0.007\nsamples = 2\nvalue = 2.705"] ;
198 -> 199 ;
200 [label="mse = 0.0\nsamples = 1\nvalue = 2.62"] ;
199 -> 200 ;
201 [label="mse = 0.0\nsamples = 1\nvalue = 2.79"] ;
199 -> 201 ;
202 [label="mse = -0.0\nsamples = 1\nvalue = 3.06"] ;
198 -> 202 ;
203 [label="toespoor <= 1003.5\nmse = 0.008\nsamples = 3\nvalue = 2.653"] ;
197 -> 203 ;
204 [label="hoogte <= 29.0\nmse = 0.001\nsamples = 2\nvalue = 2.595"] ;
203 -> 204 ;
205 [label="mse = 0.0\nsamples = 1\nvalue = 2.56"] ;
204 -> 205 ;
206 [label="mse = 0.0\nsamples = 1\nvalue = 2.63"] ;
204 -> 206 ;
207 [label="mse = -0.0\nsamples = 1\nvalue = 2.77"] ;
203 -> 207 ;
208 [label="camber <= -0.15\nmse = 0.022\nsamples = 22\nvalue = 2.578"] ;
196 -> 208 ;
209 [label="hoogte <= 29.5\nmse = 0.015\nsamples = 17\nvalue = 2.535"] ;
208 -> 209 ;
210 [label="hoogte <= 23.5\nmse = 0.016\nsamples = 14\nvalue = 2.552"] ;
209 -> 210 ;
211 [label="toespoor <= 996.5\nmse = 0.016\nsamples = 9\nvalue = 2.521"] ;
210 -> 211 ;
212 [label="mse = 0.0\nsamples = 1\nvalue = 2.68"] ;
211 -> 212 ;
213 [label="toespoor <= 1002.5\nmse = 0.014\nsamples = 8\nvalue = 2.501"] ;
211 -> 213 ;
214 [label="camber <= -0.35\nmse = 0.01\nsamples = 6\nvalue = 2.46"] ;
213 -> 214 ;
215 [label="hoogte <= 22.5\nmse = 0.009\nsamples = 3\nvalue = 2.403"] ;
214 -> 215 ;
216 [label="toespoor <= 999.5\nmse = 0.0\nsamples = 2\nvalue = 2.47"] ;
215 -> 216 ;
217 [label="mse = 0.0\nsamples = 1\nvalue = 2.46"] ;
216 -> 217 ;
218 [label="mse = 0.0\nsamples = 1\nvalue = 2.48"] ;
216 -> 218 ;
219 [label="mse = 0.0\nsamples = 1\nvalue = 2.27"] ;
215 -> 219 ;
220 [label="hoogte <= 22.5\nmse = 0.004\nsamples = 3\nvalue = 2.517"] ;
214 -> 220 ;
221 [label="mse = 0.0\nsamples = 1\nvalue = 2.43"] ;
220 -> 221 ;
222 [label="bandendruk <= 0.75\nmse = 0.0\nsamples = 2\nvalue = 2.56"] ;
220 -> 222 ;
223 [label="mse = 0.0\nsamples = 1\nvalue = 2.57"] ;
222 -> 223 ;
224 [label="mse = 0.0\nsamples = 1\nvalue = 2.55"] ;
222 -> 224 ;
225 [label="bandendruk <= 0.75\nmse = 0.007\nsamples = 2\nvalue = 2.625"] ;
213 -> 225 ;
226 [label="mse = 0.0\nsamples = 1\nvalue = 2.71"] ;
225 -> 226 ;
227 [label="mse = 0.0\nsamples = 1\nvalue = 2.54"] ;
225 -> 227 ;
228 [label="camber <= -0.25\nmse = 0.011\nsamples = 5\nvalue = 2.608"] ;
210 -> 228 ;
229 [label="toespoor <= 1000.5\nmse = 0.004\nsamples = 2\nvalue = 2.72"] ;
228 -> 229 ;
230 [label="mse = 0.0\nsamples = 1\nvalue = 2.78"] ;
229 -> 230 ;
231 [label="mse = 0.0\nsamples = 1\nvalue = 2.66"] ;
229 -> 231 ;
232 [label="hoogte <= 25.0\nmse = 0.002\nsamples = 3\nvalue = 2.533"] ;
228 -> 232 ;
233 [label="mse = 0.0\nsamples = 1\nvalue = 2.6"] ;
232 -> 233 ;
234 [label="bandendruk <= 0.75\nmse = 0.0\nsamples = 2\nvalue = 2.5"] ;
232 -> 234 ;
235 [label="mse = 0.0\nsamples = 1\nvalue = 2.48"] ;
234 -> 235 ;
236 [label="mse = 0.0\nsamples = 1\nvalue = 2.52"] ;
234 -> 236 ;
237 [label="bandendruk <= 0.75\nmse = 0.003\nsamples = 3\nvalue = 2.453"] ;
209 -> 237 ;
238 [label="toespoor <= 1000.5\nmse = 0.0\nsamples = 2\nvalue = 2.49"] ;
237 -> 238 ;
239 [label="mse = 0.0\nsamples = 1\nvalue = 2.51"] ;
238 -> 239 ;
240 [label="mse = -0.0\nsamples = 1\nvalue = 2.47"] ;
238 -> 240 ;
241 [label="mse = 0.0\nsamples = 1\nvalue = 2.38"] ;
237 -> 241 ;
242 [label="toespoor <= 997.5\nmse = 0.017\nsamples = 5\nvalue = 2.726"] ;
208 -> 242 ;
243 [label="mse = 0.0\nsamples = 1\nvalue = 2.93"] ;
242 -> 243 ;
244 [label="toespoor <= 1001.0\nmse = 0.009\nsamples = 4\nvalue = 2.675"] ;
242 -> 244 ;
245 [label="toespoor <= 999.0\nmse = 0.001\nsamples = 3\nvalue = 2.623"] ;
244 -> 245 ;
246 [label="mse = 0.0\nsamples = 1\nvalue = 2.58"] ;
245 -> 246 ;
247 [label="hoogte <= 22.5\nmse = 0.0\nsamples = 2\nvalue = 2.645"] ;
245 -> 247 ;
248 [label="mse = 0.0\nsamples = 1\nvalue = 2.65"] ;
247 -> 248 ;
249 [label="mse = 0.0\nsamples = 1\nvalue = 2.64"] ;
247 -> 249 ;
250 [label="mse = 0.0\nsamples = 1\nvalue = 2.83"] ;
244 -> 250 ;
251 [label="toespoor <= 998.5\nmse = 0.03\nsamples = 31\nvalue = 2.726"] ;
195 -> 251 ;
252 [label="camber <= -0.15\nmse = 0.04\nsamples = 13\nvalue = 2.659"] ;
251 -> 252 ;
253 [label="toespoor <= 997.5\nmse = 0.03\nsamples = 12\nvalue = 2.628"] ;
252 -> 253 ;
254 [label="camber <= -0.35\nmse = 0.026\nsamples = 8\nvalue = 2.691"] ;
253 -> 254 ;
255 [label="mse = 0.0\nsamples = 1\nvalue = 2.46"] ;
254 -> 255 ;
256 [label="hoogte <= 37.5\nmse = 0.021\nsamples = 7\nvalue = 2.724"] ;
254 -> 256 ;
257 [label="hoogte <= 31.5\nmse = 0.018\nsamples = 6\nvalue = 2.753"] ;
256 -> 257 ;
258 [label="mse = 0.0\nsamples = 1\nvalue = 2.57"] ;
257 -> 258 ;
259 [label="camber <= -0.25\nmse = 0.014\nsamples = 5\nvalue = 2.79"] ;
257 -> 259 ;
260 [label="bandendruk <= 0.65\nmse = 0.012\nsamples = 4\nvalue = 2.758"] ;
259 -> 260 ;
261 [label="mse = 0.0\nsamples = 1\nvalue = 2.9"] ;
260 -> 261 ;
262 [label="toespoor <= 995.5\nmse = 0.007\nsamples = 3\nvalue = 2.71"] ;
260 -> 262 ;
263 [label="mse = 0.0\nsamples = 1\nvalue = 2.81"] ;
262 -> 263 ;
264 [label="toespoor <= 996.5\nmse = 0.004\nsamples = 2\nvalue = 2.66"] ;
262 -> 264 ;
265 [label="mse = 0.0\nsamples = 1\nvalue = 2.6"] ;
264 -> 265 ;
266 [label="mse = 0.0\nsamples = 1\nvalue = 2.72"] ;
264 -> 266 ;
267 [label="mse = 0.0\nsamples = 1\nvalue = 2.92"] ;
259 -> 267 ;
268 [label="mse = -0.0\nsamples = 1\nvalue = 2.55"] ;
256 -> 268 ;
269 [label="hoogte <= 37.5\nmse = 0.014\nsamples = 4\nvalue = 2.5"] ;
253 -> 269 ;
270 [label="hoogte <= 35.5\nmse = 0.003\nsamples = 3\nvalue = 2.437"] ;
269 -> 270 ;
271 [label="camber <= -0.25\nmse = 0.0\nsamples = 2\nvalue = 2.4"] ;
270 -> 271 ;
272 [label="mse = 0.0\nsamples = 1\nvalue = 2.41"] ;
271 -> 272 ;
273 [label="mse = -0.0\nsamples = 1\nvalue = 2.39"] ;
271 -> 273 ;
274 [label="mse = 0.0\nsamples = 1\nvalue = 2.51"] ;
270 -> 274 ;
275 [label="mse = -0.0\nsamples = 1\nvalue = 2.69"] ;
269 -> 275 ;
276 [label="mse = 0.0\nsamples = 1\nvalue = 3.04"] ;
252 -> 276 ;
277 [label="hoogte <= 32.5\nmse = 0.017\nsamples = 18\nvalue = 2.774"] ;
251 -> 277 ;
278 [label="bandendruk <= 0.75\nmse = 0.01\nsamples = 4\nvalue = 2.918"] ;
277 -> 278 ;
279 [label="camber <= -0.35\nmse = 0.002\nsamples = 3\nvalue = 2.97"] ;
278 -> 279 ;
280 [label="mse = 0.0\nsamples = 1\nvalue = 2.91"] ;
279 -> 280 ;
281 [label="mse = 0.0\nsamples = 2\nvalue = 3.0"] ;
279 -> 281 ;
282 [label="mse = 0.0\nsamples = 1\nvalue = 2.76"] ;
278 -> 282 ;
283 [label="toespoor <= 1002.5\nmse = 0.011\nsamples = 14\nvalue = 2.734"] ;
277 -> 283 ;
284 [label="hoogte <= 39.0\nmse = 0.006\nsamples = 9\nvalue = 2.784"] ;
283 -> 284 ;
285 [label="camber <= -0.15\nmse = 0.003\nsamples = 8\nvalue = 2.766"] ;
284 -> 285 ;
286 [label="hoogte <= 36.0\nmse = 0.004\nsamples = 5\nvalue = 2.742"] ;
285 -> 286 ;
287 [label="toespoor <= 1000.0\nmse = 0.0\nsamples = 2\nvalue = 2.67"] ;
286 -> 287 ;
288 [label="mse = 0.0\nsamples = 1\nvalue = 2.68"] ;
287 -> 288 ;
289 [label="mse = 0.0\nsamples = 1\nvalue = 2.66"] ;
287 -> 289 ;
290 [label="bandendruk <= 0.65\nmse = 0.0\nsamples = 3\nvalue = 2.79"] ;
286 -> 290 ;
291 [label="toespoor <= 1000.5\nmse = 0.0\nsamples = 2\nvalue = 2.805"] ;
290 -> 291 ;
292 [label="mse = 0.0\nsamples = 1\nvalue = 2.81"] ;
291 -> 292 ;
293 [label="mse = 0.0\nsamples = 1\nvalue = 2.8"] ;
291 -> 293 ;
294 [label="mse = 0.0\nsamples = 1\nvalue = 2.76"] ;
290 -> 294 ;
295 [label="hoogte <= 35.0\nmse = 0.0\nsamples = 3\nvalue = 2.807"] ;
285 -> 295 ;
296 [label="bandendruk <= 0.75\nmse = 0.0\nsamples = 2\nvalue = 2.815"] ;
295 -> 296 ;
297 [label="mse = 0.0\nsamples = 1\nvalue = 2.82"] ;
296 -> 297 ;
298 [label="mse = 0.0\nsamples = 1\nvalue = 2.81"] ;
296 -> 298 ;
299 [label="mse = 0.0\nsamples = 1\nvalue = 2.79"] ;
295 -> 299 ;
300 [label="mse = 0.0\nsamples = 1\nvalue = 2.93"] ;
284 -> 300 ;
301 [label="camber <= -0.35\nmse = 0.008\nsamples = 5\nvalue = 2.642"] ;
283 -> 301 ;
302 [label="mse = 0.0\nsamples = 1\nvalue = 2.77"] ;
301 -> 302 ;
303 [label="hoogte <= 34.0\nmse = 0.005\nsamples = 4\nvalue = 2.61"] ;
301 -> 303 ;
304 [label="mse = 0.0\nsamples = 1\nvalue = 2.69"] ;
303 -> 304 ;
305 [label="hoogte <= 39.5\nmse = 0.004\nsamples = 3\nvalue = 2.583"] ;
303 -> 305 ;
306 [label="toespoor <= 1003.5\nmse = 0.0\nsamples = 2\nvalue = 2.54"] ;
305 -> 306 ;
307 [label="mse = 0.0\nsamples = 1\nvalue = 2.56"] ;
306 -> 307 ;
308 [label="mse = -0.0\nsamples = 1\nvalue = 2.52"] ;
306 -> 308 ;
309 [label="mse = 0.0\nsamples = 1\nvalue = 2.67"] ;
305 -> 309 ;
310 [label="hoogte <= 27.5\nmse = 0.02\nsamples = 8\nvalue = 2.875"] ;
194 -> 310 ;
311 [label="hoogte <= 24.0\nmse = 0.006\nsamples = 4\nvalue = 2.788"] ;
310 -> 311 ;
312 [label="mse = 0.0\nsamples = 1\nvalue = 2.73"] ;
311 -> 312 ;
313 [label="hoogte <= 25.5\nmse = 0.007\nsamples = 3\nvalue = 2.807"] ;
311 -> 313 ;
314 [label="mse = 0.0\nsamples = 1\nvalue = 2.91"] ;
313 -> 314 ;
315 [label="camber <= -0.1\nmse = 0.002\nsamples = 2\nvalue = 2.755"] ;
313 -> 315 ;
316 [label="mse = 0.0\nsamples = 1\nvalue = 2.8"] ;
315 -> 316 ;
317 [label="mse = 0.0\nsamples = 1\nvalue = 2.71"] ;
315 -> 317 ;
318 [label="hoogte <= 39.0\nmse = 0.019\nsamples = 4\nvalue = 2.962"] ;
310 -> 318 ;
319 [label="hoogte <= 36.0\nmse = 0.003\nsamples = 3\nvalue = 3.037"] ;
318 -> 319 ;
320 [label="mse = 0.0\nsamples = 2\nvalue = 3.0"] ;
319 -> 320 ;
321 [label="mse = 0.0\nsamples = 1\nvalue = 3.11"] ;
319 -> 321 ;
322 [label="mse = -0.0\nsamples = 1\nvalue = 2.74"] ;
318 -> 322 ;
323 [label="hoogte <= 30.5\nmse = 0.038\nsamples = 161\nvalue = 3.28"] ;
1 -> 323 ;
324 [label="camber <= -0.45\nmse = 0.038\nsamples = 82\nvalue = 3.351"] ;
323 -> 324 ;
325 [label="bandendruk <= 0.65\nmse = 0.035\nsamples = 42\nvalue = 3.42"] ;
324 -> 325 ;
326 [label="camber <= -0.85\nmse = 0.032\nsamples = 9\nvalue = 3.52"] ;
325 -> 326 ;
327 [label="hoogte <= 24.0\nmse = 0.005\nsamples = 3\nvalue = 3.313"] ;
326 -> 327 ;
328 [label="toespoor <= 1003.0\nmse = 0.0\nsamples = 2\nvalue = 3.265"] ;
327 -> 328 ;
329 [label="mse = 0.0\nsamples = 1\nvalue = 3.25"] ;
328 -> 329 ;
330 [label="mse = 0.0\nsamples = 1\nvalue = 3.28"] ;
328 -> 330 ;
331 [label="mse = -0.0\nsamples = 1\nvalue = 3.41"] ;
327 -> 331 ;
332 [label="toespoor <= 997.0\nmse = 0.013\nsamples = 6\nvalue = 3.623"] ;
326 -> 332 ;
333 [label="mse = 0.0\nsamples = 1\nvalue = 3.41"] ;
332 -> 333 ;
334 [label="toespoor <= 1003.5\nmse = 0.005\nsamples = 5\nvalue = 3.666"] ;
332 -> 334 ;
335 [label="camber <= -0.65\nmse = 0.001\nsamples = 3\nvalue = 3.713"] ;
334 -> 335 ;
336 [label="mse = 0.0\nsamples = 1\nvalue = 3.76"] ;
335 -> 336 ;
337 [label="mse = 0.0\nsamples = 2\nvalue = 3.69"] ;
335 -> 337 ;
338 [label="hoogte <= 26.0\nmse = 0.002\nsamples = 2\nvalue = 3.595"] ;
334 -> 338 ;
339 [label="mse = 0.0\nsamples = 1\nvalue = 3.64"] ;
338 -> 339 ;
340 [label="mse = 0.0\nsamples = 1\nvalue = 3.55"] ;
338 -> 340 ;
341 [label="hoogte <= 23.5\nmse = 0.032\nsamples = 33\nvalue = 3.393"] ;
325 -> 341 ;
342 [label="hoogte <= 22.5\nmse = 0.043\nsamples = 10\nvalue = 3.454"] ;
341 -> 342 ;
343 [label="toespoor <= 1003.5\nmse = 0.039\nsamples = 5\nvalue = 3.352"] ;
342 -> 343 ;
344 [label="camber <= -0.65\nmse = 0.017\nsamples = 3\nvalue = 3.253"] ;
343 -> 344 ;
345 [label="mse = 0.0\nsamples = 1\nvalue = 3.09"] ;
344 -> 345 ;
346 [label="hoogte <= 21.5\nmse = 0.006\nsamples = 2\nvalue = 3.335"] ;
344 -> 346 ;
347 [label="mse = 0.0\nsamples = 1\nvalue = 3.26"] ;
346 -> 347 ;
348 [label="mse = 0.0\nsamples = 1\nvalue = 3.41"] ;
346 -> 348 ;
349 [label="hoogte <= 21.5\nmse = 0.036\nsamples = 2\nvalue = 3.5"] ;
343 -> 349 ;
350 [label="mse = 0.0\nsamples = 1\nvalue = 3.31"] ;
349 -> 350 ;
351 [label="mse = 0.0\nsamples = 1\nvalue = 3.69"] ;
349 -> 351 ;
352 [label="toespoor <= 996.5\nmse = 0.025\nsamples = 5\nvalue = 3.556"] ;
342 -> 352 ;
353 [label="mse = 0.0\nsamples = 1\nvalue = 3.84"] ;
352 -> 353 ;
354 [label="bandendruk <= 0.75\nmse = 0.006\nsamples = 4\nvalue = 3.485"] ;
352 -> 354 ;
355 [label="mse = 0.0\nsamples = 1\nvalue = 3.59"] ;
354 -> 355 ;
356 [label="camber <= -0.95\nmse = 0.003\nsamples = 3\nvalue = 3.45"] ;
354 -> 356 ;
357 [label="mse = 0.0\nsamples = 1\nvalue = 3.43"] ;
356 -> 357 ;
358 [label="mse = 0.005\nsamples = 2\nvalue = 3.46"] ;
356 -> 358 ;
359 [label="camber <= -0.85\nmse = 0.025\nsamples = 23\nvalue = 3.367"] ;
341 -> 359 ;
360 [label="toespoor <= 997.0\nmse = 0.027\nsamples = 3\nvalue = 3.183"] ;
359 -> 360 ;
361 [label="mse = 0.0\nsamples = 1\nvalue = 2.95"] ;
360 -> 361 ;
362 [label="camber <= -0.95\nmse = 0.0\nsamples = 2\nvalue = 3.3"] ;
360 -> 362 ;
363 [label="mse = 0.0\nsamples = 1\nvalue = 3.29"] ;
362 -> 363 ;
364 [label="mse = 0.0\nsamples = 1\nvalue = 3.31"] ;
362 -> 364 ;
365 [label="hoogte <= 24.5\nmse = 0.019\nsamples = 20\nvalue = 3.394"] ;
359 -> 365 ;
366 [label="toespoor <= 1000.0\nmse = 0.003\nsamples = 2\nvalue = 3.13"] ;
365 -> 366 ;
367 [label="mse = 0.0\nsamples = 1\nvalue = 3.18"] ;
366 -> 367 ;
368 [label="mse = 0.0\nsamples = 1\nvalue = 3.08"] ;
366 -> 368 ;
369 [label="toespoor <= 995.5\nmse = 0.012\nsamples = 18\nvalue = 3.424"] ;
365 -> 369 ;
370 [label="mse = 0.0\nsamples = 1\nvalue = 3.67"] ;
369 -> 370 ;
371 [label="toespoor <= 996.5\nmse = 0.009\nsamples = 17\nvalue = 3.409"] ;
369 -> 371 ;
372 [label="camber <= -0.65\nmse = 0.006\nsamples = 2\nvalue = 3.315"] ;
371 -> 372 ;
373 [label="mse = 0.0\nsamples = 1\nvalue = 3.24"] ;
372 -> 373 ;
374 [label="mse = -0.0\nsamples = 1\nvalue = 3.39"] ;
372 -> 374 ;
375 [label="camber <= -0.65\nmse = 0.008\nsamples = 15\nvalue = 3.422"] ;
371 -> 375 ;
376 [label="hoogte <= 25.5\nmse = 0.005\nsamples = 6\nvalue = 3.475"] ;
375 -> 376 ;
377 [label="mse = 0.0\nsamples = 1\nvalue = 3.58"] ;
376 -> 377 ;
378 [label="hoogte <= 27.5\nmse = 0.003\nsamples = 5\nvalue = 3.454"] ;
376 -> 378 ;
379 [label="toespoor <= 1000.5\nmse = 0.0\nsamples = 2\nvalue = 3.385"] ;
378 -> 379 ;
380 [label="mse = 0.0\nsamples = 1\nvalue = 3.38"] ;
379 -> 380 ;
381 [label="mse = 0.0\nsamples = 1\nvalue = 3.39"] ;
379 -> 381 ;
382 [label="hoogte <= 29.5\nmse = 0.0\nsamples = 3\nvalue = 3.5"] ;
378 -> 382 ;
383 [label="camber <= -0.75\nmse = 0.0\nsamples = 2\nvalue = 3.495"] ;
382 -> 383 ;
384 [label="mse = 0.0\nsamples = 1\nvalue = 3.49"] ;
383 -> 384 ;
385 [label="mse = 0.0\nsamples = 1\nvalue = 3.5"] ;
383 -> 385 ;
386 [label="mse = -0.0\nsamples = 1\nvalue = 3.51"] ;
382 -> 386 ;
387 [label="toespoor <= 997.5\nmse = 0.007\nsamples = 9\nvalue = 3.387"] ;
375 -> 387 ;
388 [label="bandendruk <= 0.75\nmse = 0.001\nsamples = 2\nvalue = 3.5"] ;
387 -> 388 ;
389 [label="mse = 0.0\nsamples = 1\nvalue = 3.53"] ;
388 -> 389 ;
390 [label="mse = 0.0\nsamples = 1\nvalue = 3.47"] ;
388 -> 390 ;
391 [label="bandendruk <= 0.75\nmse = 0.004\nsamples = 7\nvalue = 3.354"] ;
387 -> 391 ;
392 [label="toespoor <= 999.5\nmse = 0.002\nsamples = 6\nvalue = 3.373"] ;
391 -> 392 ;
393 [label="hoogte <= 26.5\nmse = 0.0\nsamples = 2\nvalue = 3.32"] ;
392 -> 393 ;
394 [label="mse = 0.0\nsamples = 1\nvalue = 3.3"] ;
393 -> 394 ;
395 [label="mse = 0.0\nsamples = 1\nvalue = 3.34"] ;
393 -> 395 ;
396 [label="hoogte <= 27.5\nmse = 0.001\nsamples = 4\nvalue = 3.4"] ;
392 -> 396 ;
397 [label="hoogte <= 26.5\nmse = 0.0\nsamples = 2\nvalue = 3.43"] ;
396 -> 397 ;
398 [label="mse = 0.0\nsamples = 1\nvalue = 3.45"] ;
397 -> 398 ;
399 [label="mse = 0.0\nsamples = 1\nvalue = 3.41"] ;
397 -> 399 ;
400 [label="mse = -0.0\nsamples = 2\nvalue = 3.37"] ;
396 -> 400 ;
401 [label="mse = -0.0\nsamples = 1\nvalue = 3.24"] ;
391 -> 401 ;
402 [label="toespoor <= 1002.5\nmse = 0.03\nsamples = 40\nvalue = 3.278"] ;
324 -> 402 ;
403 [label="hoogte <= 29.0\nmse = 0.022\nsamples = 28\nvalue = 3.234"] ;
402 -> 403 ;
404 [label="hoogte <= 21.5\nmse = 0.018\nsamples = 25\nvalue = 3.213"] ;
403 -> 404 ;
405 [label="toespoor <= 999.5\nmse = 0.025\nsamples = 5\nvalue = 3.342"] ;
404 -> 405 ;
406 [label="camber <= -0.2\nmse = 0.0\nsamples = 2\nvalue = 3.28"] ;
405 -> 406 ;
407 [label="mse = 0.0\nsamples = 1\nvalue = 3.27"] ;
406 -> 407 ;
408 [label="mse = -0.0\nsamples = 1\nvalue = 3.29"] ;
406 -> 408 ;
409 [label="toespoor <= 1001.0\nmse = 0.038\nsamples = 3\nvalue = 3.383"] ;
405 -> 409 ;
410 [label="mse = 0.0\nsamples = 1\nvalue = 3.54"] ;
409 -> 410 ;
411 [label="hoogte <= 20.5\nmse = 0.038\nsamples = 2\nvalue = 3.305"] ;
409 -> 411 ;
412 [label="mse = 0.0\nsamples = 1\nvalue = 3.5"] ;
411 -> 412 ;
413 [label="mse = 0.0\nsamples = 1\nvalue = 3.11"] ;
411 -> 413 ;
414 [label="camber <= -0.15\nmse = 0.011\nsamples = 20\nvalue = 3.18"] ;
404 -> 414 ;
415 [label="hoogte <= 23.5\nmse = 0.007\nsamples = 15\nvalue = 3.16"] ;
414 -> 415 ;
416 [label="toespoor <= 996.5\nmse = 0.0\nsamples = 4\nvalue = 3.22"] ;
415 -> 416 ;
417 [label="mse = 0.0\nsamples = 2\nvalue = 3.24"] ;
416 -> 417 ;
418 [label="hoogte <= 22.5\nmse = 0.0\nsamples = 2\nvalue = 3.2"] ;
416 -> 418 ;
419 [label="mse = 0.0\nsamples = 1\nvalue = 3.19"] ;
418 -> 419 ;
420 [label="mse = -0.0\nsamples = 1\nvalue = 3.21"] ;
418 -> 420 ;
421 [label="hoogte <= 24.5\nmse = 0.008\nsamples = 11\nvalue = 3.138"] ;
415 -> 421 ;
422 [label="camber <= -0.25\nmse = 0.006\nsamples = 4\nvalue = 3.08"] ;
421 -> 422 ;
423 [label="toespoor <= 995.5\nmse = 0.001\nsamples = 3\nvalue = 3.123"] ;
422 -> 423 ;
424 [label="mse = 0.0\nsamples = 1\nvalue = 3.16"] ;
423 -> 424 ;
425 [label="toespoor <= 997.5\nmse = 0.0\nsamples = 2\nvalue = 3.105"] ;
423 -> 425 ;
426 [label="mse = 0.0\nsamples = 1\nvalue = 3.11"] ;
425 -> 426 ;
427 [label="mse = 0.0\nsamples = 1\nvalue = 3.1"] ;
425 -> 427 ;
428 [label="mse = 0.0\nsamples = 1\nvalue = 2.95"] ;
422 -> 428 ;
429 [label="toespoor <= 1000.0\nmse = 0.006\nsamples = 7\nvalue = 3.171"] ;
421 -> 429 ;
430 [label="bandendruk <= 0.75\nmse = 0.001\nsamples = 4\nvalue = 3.215"] ;
429 -> 430 ;
431 [label="toespoor <= 998.0\nmse = 0.0\nsamples = 2\nvalue = 3.2"] ;
430 -> 431 ;
432 [label="mse = 0.0\nsamples = 1\nvalue = 3.21"] ;
431 -> 432 ;
433 [label="mse = -0.0\nsamples = 1\nvalue = 3.19"] ;
431 -> 433 ;
434 [label="toespoor <= 996.0\nmse = 0.001\nsamples = 2\nvalue = 3.23"] ;
430 -> 434 ;
435 [label="mse = 0.0\nsamples = 1\nvalue = 3.2"] ;
434 -> 435 ;
436 [label="mse = 0.0\nsamples = 1\nvalue = 3.26"] ;
434 -> 436 ;
437 [label="hoogte <= 26.5\nmse = 0.008\nsamples = 3\nvalue = 3.113"] ;
429 -> 437 ;
438 [label="mse = 0.0\nsamples = 1\nvalue = 2.99"] ;
437 -> 438 ;
439 [label="bandendruk <= 0.75\nmse = 0.0\nsamples = 2\nvalue = 3.175"] ;
437 -> 439 ;
440 [label="mse = 0.0\nsamples = 1\nvalue = 3.16"] ;
439 -> 440 ;
441 [label="mse = 0.0\nsamples = 1\nvalue = 3.19"] ;
439 -> 441 ;
442 [label="toespoor <= 997.5\nmse = 0.016\nsamples = 5\nvalue = 3.242"] ;
414 -> 442 ;
443 [label="mse = 0.0\nsamples = 1\nvalue = 3.44"] ;
442 -> 443 ;
444 [label="hoogte <= 24.5\nmse = 0.008\nsamples = 4\nvalue = 3.192"] ;
442 -> 444 ;
445 [label="bandendruk <= 0.75\nmse = 0.0\nsamples = 3\nvalue = 3.243"] ;
444 -> 445 ;
446 [label="mse = 0.0\nsamples = 1\nvalue = 3.27"] ;
445 -> 446 ;
447 [label="mse = -0.0\nsamples = 2\nvalue = 3.23"] ;
445 -> 447 ;
448 [label="mse = 0.0\nsamples = 1\nvalue = 3.04"] ;
444 -> 448 ;
449 [label="bandendruk <= 0.75\nmse = 0.021\nsamples = 3\nvalue = 3.413"] ;
403 -> 449 ;
450 [label="mse = 0.0\nsamples = 1\nvalue = 3.21"] ;
449 -> 450 ;
451 [label="toespoor <= 998.0\nmse = 0.001\nsamples = 2\nvalue = 3.515"] ;
449 -> 451 ;
452 [label="mse = 0.0\nsamples = 1\nvalue = 3.55"] ;
451 -> 452 ;
453 [label="mse = 0.0\nsamples = 1\nvalue = 3.48"] ;
451 -> 453 ;
454 [label="hoogte <= 26.5\nmse = 0.034\nsamples = 12\nvalue = 3.38"] ;
402 -> 454 ;
455 [label="camber <= -0.15\nmse = 0.033\nsamples = 8\nvalue = 3.315"] ;
454 -> 455 ;
456 [label="camber <= -0.35\nmse = 0.018\nsamples = 5\nvalue = 3.208"] ;
455 -> 456 ;
457 [label="mse = 0.0\nsamples = 1\nvalue = 2.96"] ;
456 -> 457 ;
458 [label="bandendruk <= 0.75\nmse = 0.003\nsamples = 4\nvalue = 3.27"] ;
456 -> 458 ;
459 [label="toespoor <= 1004.5\nmse = 0.0\nsamples = 3\nvalue = 3.3"] ;
458 -> 459 ;
460 [label="toespoor <= 1003.5\nmse = 0.0\nsamples = 2\nvalue = 3.31"] ;
459 -> 460 ;
461 [label="mse = 0.0\nsamples = 1\nvalue = 3.32"] ;
460 -> 461 ;
462 [label="mse = 0.0\nsamples = 1\nvalue = 3.3"] ;
460 -> 462 ;
463 [label="mse = 0.0\nsamples = 1\nvalue = 3.28"] ;
459 -> 463 ;
464 [label="mse = -0.0\nsamples = 1\nvalue = 3.18"] ;
458 -> 464 ;
465 [label="camber <= -0.05\nmse = 0.006\nsamples = 3\nvalue = 3.493"] ;
455 -> 465 ;
466 [label="mse = 0.0\nsamples = 1\nvalue = 3.6"] ;
465 -> 466 ;
467 [label="bandendruk <= 0.75\nmse = 0.001\nsamples = 2\nvalue = 3.44"] ;
465 -> 467 ;
468 [label="mse = 0.0\nsamples = 1\nvalue = 3.41"] ;
467 -> 468 ;
469 [label="mse = -0.0\nsamples = 1\nvalue = 3.47"] ;
467 -> 469 ;
470 [label="camber <= -0.35\nmse = 0.013\nsamples = 4\nvalue = 3.51"] ;
454 -> 470 ;
471 [label="mse = 0.0\nsamples = 1\nvalue = 3.69"] ;
470 -> 471 ;
472 [label="toespoor <= 1004.0\nmse = 0.003\nsamples = 3\nvalue = 3.45"] ;
470 -> 472 ;
473 [label="bandendruk <= 0.7\nmse = 0.001\nsamples = 2\nvalue = 3.415"] ;
472 -> 473 ;
474 [label="mse = 0.0\nsamples = 1\nvalue = 3.44"] ;
473 -> 474 ;
475 [label="mse = -0.0\nsamples = 1\nvalue = 3.39"] ;
473 -> 475 ;
476 [label="mse = 0.0\nsamples = 1\nvalue = 3.52"] ;
472 -> 476 ;
477 [label="bandendruk <= 0.65\nmse = 0.028\nsamples = 79\nvalue = 3.206"] ;
323 -> 477 ;
478 [label="camber <= -0.35\nmse = 0.016\nsamples = 20\nvalue = 3.324"] ;
477 -> 478 ;
479 [label="hoogte <= 33.0\nmse = 0.013\nsamples = 15\nvalue = 3.355"] ;
478 -> 479 ;
480 [label="camber <= -0.55\nmse = 0.005\nsamples = 2\nvalue = 3.24"] ;
479 -> 480 ;
481 [label="mse = 0.0\nsamples = 1\nvalue = 3.31"] ;
480 -> 481 ;
482 [label="mse = 0.0\nsamples = 1\nvalue = 3.17"] ;
480 -> 482 ;
483 [label="camber <= -0.85\nmse = 0.012\nsamples = 13\nvalue = 3.373"] ;
479 -> 483 ;
484 [label="hoogte <= 36.0\nmse = 0.014\nsamples = 4\nvalue = 3.287"] ;
483 -> 484 ;
485 [label="toespoor <= 995.5\nmse = 0.011\nsamples = 3\nvalue = 3.333"] ;
484 -> 485 ;
486 [label="mse = 0.0\nsamples = 1\nvalue = 3.19"] ;
485 -> 486 ;
487 [label="toespoor <= 999.0\nmse = 0.001\nsamples = 2\nvalue = 3.405"] ;
485 -> 487 ;
488 [label="mse = 0.0\nsamples = 1\nvalue = 3.38"] ;
487 -> 488 ;
489 [label="mse = -0.0\nsamples = 1\nvalue = 3.43"] ;
487 -> 489 ;
490 [label="mse = -0.0\nsamples = 1\nvalue = 3.15"] ;
484 -> 490 ;
491 [label="toespoor <= 998.0\nmse = 0.006\nsamples = 9\nvalue = 3.411"] ;
483 -> 491 ;
492 [label="hoogte <= 38.5\nmse = 0.004\nsamples = 4\nvalue = 3.468"] ;
491 -> 492 ;
493 [label="hoogte <= 36.0\nmse = 0.0\nsamples = 2\nvalue = 3.525"] ;
492 -> 493 ;
494 [label="mse = 0.0\nsamples = 1\nvalue = 3.51"] ;
493 -> 494 ;
495 [label="mse = 0.0\nsamples = 1\nvalue = 3.54"] ;
493 -> 495 ;
496 [label="camber <= -0.75\nmse = 0.0\nsamples = 2\nvalue = 3.41"] ;
492 -> 496 ;
497 [label="mse = 0.0\nsamples = 1\nvalue = 3.39"] ;
496 -> 497 ;
498 [label="mse = 0.0\nsamples = 1\nvalue = 3.43"] ;
496 -> 498 ;
499 [label="toespoor <= 1002.5\nmse = 0.003\nsamples = 5\nvalue = 3.366"] ;
491 -> 499 ;
500 [label="toespoor <= 999.5\nmse = 0.001\nsamples = 4\nvalue = 3.343"] ;
499 -> 500 ;
501 [label="mse = 0.0\nsamples = 1\nvalue = 3.3"] ;
500 -> 501 ;
502 [label="camber <= -0.5\nmse = 0.001\nsamples = 3\nvalue = 3.357"] ;
500 -> 502 ;
503 [label="mse = 0.0\nsamples = 1\nvalue = 3.34"] ;
502 -> 503 ;
504 [label="hoogte <= 37.5\nmse = 0.001\nsamples = 2\nvalue = 3.365"] ;
502 -> 504 ;
505 [label="mse = 0.0\nsamples = 1\nvalue = 3.34"] ;
504 -> 505 ;
506 [label="mse = -0.0\nsamples = 1\nvalue = 3.39"] ;
504 -> 506 ;
507 [label="mse = -0.0\nsamples = 1\nvalue = 3.46"] ;
499 -> 507 ;
508 [label="toespoor <= 1001.0\nmse = 0.013\nsamples = 5\nvalue = 3.232"] ;
478 -> 508 ;
509 [label="mse = 0.0\nsamples = 1\nvalue = 3.37"] ;
508 -> 509 ;
510 [label="hoogte <= 36.5\nmse = 0.01\nsamples = 4\nvalue = 3.198"] ;
508 -> 510 ;
511 [label="mse = 0.0\nsamples = 1\nvalue = 3.04"] ;
510 -> 511 ;
512 [label="hoogte <= 39.5\nmse = 0.002\nsamples = 3\nvalue = 3.25"] ;
510 -> 512 ;
513 [label="toespoor <= 1003.5\nmse = 0.0\nsamples = 2\nvalue = 3.28"] ;
512 -> 513 ;
514 [label="mse = 0.0\nsamples = 1\nvalue = 3.3"] ;
513 -> 514 ;
515 [label="mse = 0.0\nsamples = 1\nvalue = 3.26"] ;
513 -> 515 ;
516 [label="mse = 0.0\nsamples = 1\nvalue = 3.19"] ;
512 -> 516 ;
517 [label="camber <= -0.45\nmse = 0.026\nsamples = 59\nvalue = 3.165"] ;
477 -> 517 ;
518 [label="hoogte <= 35.5\nmse = 0.031\nsamples = 25\nvalue = 3.21"] ;
517 -> 518 ;
519 [label="hoogte <= 32.5\nmse = 0.022\nsamples = 8\nvalue = 3.342"] ;
518 -> 519 ;
520 [label="hoogte <= 31.5\nmse = 0.001\nsamples = 2\nvalue = 3.22"] ;
519 -> 520 ;
521 [label="mse = 0.0\nsamples = 1\nvalue = 3.19"] ;
520 -> 521 ;
522 [label="mse = 0.0\nsamples = 1\nvalue = 3.25"] ;
520 -> 522 ;
523 [label="camber <= -0.55\nmse = 0.022\nsamples = 6\nvalue = 3.383"] ;
519 -> 523 ;
524 [label="toespoor <= 1000.0\nmse = 0.02\nsamples = 4\nvalue = 3.318"] ;
523 -> 524 ;
525 [label="mse = 0.0\nsamples = 1\nvalue = 3.11"] ;
524 -> 525 ;
526 [label="hoogte <= 34.5\nmse = 0.007\nsamples = 3\nvalue = 3.387"] ;
524 -> 526 ;
527 [label="toespoor <= 1001.5\nmse = 0.001\nsamples = 2\nvalue = 3.445"] ;
526 -> 527 ;
528 [label="mse = 0.0\nsamples = 1\nvalue = 3.42"] ;
527 -> 528 ;
529 [label="mse = -0.0\nsamples = 1\nvalue = 3.47"] ;
527 -> 529 ;
530 [label="mse = 0.0\nsamples = 1\nvalue = 3.27"] ;
526 -> 530 ;
531 [label="mse = 0.0\nsamples = 2\nvalue = 3.515"] ;
523 -> 531 ;
532 [label="toespoor <= 998.5\nmse = 0.024\nsamples = 17\nvalue = 3.148"] ;
518 -> 532 ;
533 [label="camber <= -0.95\nmse = 0.024\nsamples = 8\nvalue = 3.066"] ;
532 -> 533 ;
534 [label="mse = 0.0\nsamples = 1\nvalue = 3.38"] ;
533 -> 534 ;
535 [label="bandendruk <= 0.75\nmse = 0.011\nsamples = 7\nvalue = 3.021"] ;
533 -> 535 ;
536 [label="camber <= -0.7\nmse = 0.0\nsamples = 4\nvalue = 3.062"] ;
535 -> 536 ;
537 [label="hoogte <= 36.5\nmse = 0.0\nsamples = 2\nvalue = 3.05"] ;
536 -> 537 ;
538 [label="mse = 0.0\nsamples = 1\nvalue = 3.07"] ;
537 -> 538 ;
539 [label="mse = 0.0\nsamples = 1\nvalue = 3.03"] ;
537 -> 539 ;
540 [label="toespoor <= 996.5\nmse = 0.0\nsamples = 2\nvalue = 3.075"] ;
536 -> 540 ;
541 [label="mse = 0.0\nsamples = 1\nvalue = 3.07"] ;
540 -> 541 ;
542 [label="mse = -0.0\nsamples = 1\nvalue = 3.08"] ;
540 -> 542 ;
543 [label="camber <= -0.8\nmse = 0.02\nsamples = 3\nvalue = 2.967"] ;
535 -> 543 ;
544 [label="mse = 0.0\nsamples = 1\nvalue = 2.83"] ;
543 -> 544 ;
545 [label="camber <= -0.6\nmse = 0.016\nsamples = 2\nvalue = 3.035"] ;
543 -> 545 ;
546 [label="mse = 0.0\nsamples = 1\nvalue = 3.16"] ;
545 -> 546 ;
547 [label="mse = 0.0\nsamples = 1\nvalue = 2.91"] ;
545 -> 547 ;
548 [label="hoogte <= 37.5\nmse = 0.013\nsamples = 9\nvalue = 3.221"] ;
532 -> 548 ;
549 [label="camber <= -0.85\nmse = 0.009\nsamples = 3\nvalue = 3.133"] ;
548 -> 549 ;
550 [label="mse = 0.0\nsamples = 1\nvalue = 3.27"] ;
549 -> 550 ;
551 [label="camber <= -0.6\nmse = 0.0\nsamples = 2\nvalue = 3.065"] ;
549 -> 551 ;
552 [label="mse = 0.0\nsamples = 1\nvalue = 3.05"] ;
551 -> 552 ;
553 [label="mse = 0.0\nsamples = 1\nvalue = 3.08"] ;
551 -> 553 ;
554 [label="camber <= -0.55\nmse = 0.009\nsamples = 6\nvalue = 3.265"] ;
548 -> 554 ;
555 [label="camber <= -0.85\nmse = 0.007\nsamples = 5\nvalue = 3.24"] ;
554 -> 555 ;
556 [label="hoogte <= 39.0\nmse = 0.01\nsamples = 3\nvalue = 3.227"] ;
555 -> 556 ;
557 [label="mse = 0.016\nsamples = 2\nvalue = 3.225"] ;
556 -> 557 ;
558 [label="mse = -0.0\nsamples = 1\nvalue = 3.23"] ;
556 -> 558 ;
559 [label="camber <= -0.7\nmse = 0.0\nsamples = 2\nvalue = 3.26"] ;
555 -> 559 ;
560 [label="mse = 0.0\nsamples = 1\nvalue = 3.25"] ;
559 -> 560 ;
561 [label="mse = 0.0\nsamples = 1\nvalue = 3.27"] ;
559 -> 561 ;
562 [label="mse = -0.0\nsamples = 1\nvalue = 3.39"] ;
554 -> 562 ;
563 [label="toespoor <= 997.5\nmse = 0.02\nsamples = 34\nvalue = 3.132"] ;
517 -> 563 ;
564 [label="bandendruk <= 0.75\nmse = 0.015\nsamples = 10\nvalue = 3.213"] ;
563 -> 564 ;
565 [label="camber <= -0.15\nmse = 0.005\nsamples = 4\nvalue = 3.29"] ;
564 -> 565 ;
566 [label="hoogte <= 32.5\nmse = 0.002\nsamples = 3\nvalue = 3.253"] ;
565 -> 566 ;
567 [label="mse = 0.0\nsamples = 1\nvalue = 3.2"] ;
566 -> 567 ;
568 [label="toespoor <= 995.5\nmse = 0.0\nsamples = 2\nvalue = 3.28"] ;
566 -> 568 ;
569 [label="mse = 0.0\nsamples = 1\nvalue = 3.3"] ;
568 -> 569 ;
570 [label="mse = 0.0\nsamples = 1\nvalue = 3.26"] ;
568 -> 570 ;
571 [label="mse = -0.0\nsamples = 1\nvalue = 3.4"] ;
565 -> 571 ;
572 [label="toespoor <= 996.5\nmse = 0.015\nsamples = 6\nvalue = 3.162"] ;
564 -> 572 ;
573 [label="camber <= -0.25\nmse = 0.002\nsamples = 2\nvalue = 3.055"] ;
572 -> 573 ;
574 [label="mse = 0.0\nsamples = 1\nvalue = 3.1"] ;
573 -> 574 ;
575 [label="mse = 0.0\nsamples = 1\nvalue = 3.01"] ;
573 -> 575 ;
576 [label="hoogte <= 39.0\nmse = 0.013\nsamples = 4\nvalue = 3.215"] ;
572 -> 576 ;
577 [label="camber <= -0.15\nmse = 0.004\nsamples = 3\nvalue = 3.157"] ;
576 -> 577 ;
578 [label="hoogte <= 35.5\nmse = 0.0\nsamples = 2\nvalue = 3.115"] ;
577 -> 578 ;
579 [label="mse = 0.0\nsamples = 1\nvalue = 3.1"] ;
578 -> 579 ;
580 [label="mse = -0.0\nsamples = 1\nvalue = 3.13"] ;
578 -> 580 ;
581 [label="mse = 0.0\nsamples = 1\nvalue = 3.24"] ;
577 -> 581 ;
582 [label="mse = -0.0\nsamples = 1\nvalue = 3.39"] ;
576 -> 582 ;
583 [label="hoogte <= 38.5\nmse = 0.018\nsamples = 24\nvalue = 3.098"] ;
563 -> 583 ;
584 [label="hoogte <= 35.5\nmse = 0.018\nsamples = 17\nvalue = 3.128"] ;
583 -> 584 ;
585 [label="hoogte <= 33.5\nmse = 0.014\nsamples = 12\nvalue = 3.077"] ;
584 -> 585 ;
586 [label="bandendruk <= 0.75\nmse = 0.014\nsamples = 9\nvalue = 3.107"] ;
585 -> 586 ;
587 [label="camber <= -0.1\nmse = 0.009\nsamples = 5\nvalue = 3.152"] ;
586 -> 587 ;
588 [label="camber <= -0.25\nmse = 0.006\nsamples = 2\nvalue = 3.2"] ;
587 -> 588 ;
589 [label="mse = 0.0\nsamples = 1\nvalue = 3.12"] ;
588 -> 589 ;
590 [label="mse = -0.0\nsamples = 1\nvalue = 3.28"] ;
588 -> 590 ;
591 [label="toespoor <= 1001.5\nmse = 0.009\nsamples = 3\nvalue = 3.12"] ;
587 -> 591 ;
592 [label="hoogte <= 32.0\nmse = 0.004\nsamples = 2\nvalue = 3.175"] ;
591 -> 592 ;
593 [label="mse = 0.0\nsamples = 1\nvalue = 3.24"] ;
592 -> 593 ;
594 [label="mse = 0.0\nsamples = 1\nvalue = 3.11"] ;
592 -> 594 ;
595 [label="mse = 0.0\nsamples = 1\nvalue = 3.01"] ;
591 -> 595 ;
596 [label="toespoor <= 998.5\nmse = 0.014\nsamples = 4\nvalue = 3.05"] ;
586 -> 596 ;
597 [label="mse = 0.0\nsamples = 1\nvalue = 3.24"] ;
596 -> 597 ;
598 [label="hoogte <= 31.5\nmse = 0.002\nsamples = 3\nvalue = 2.987"] ;
596 -> 598 ;
599 [label="mse = 0.0\nsamples = 1\nvalue = 2.92"] ;
598 -> 599 ;
600 [label="hoogte <= 32.5\nmse = 0.0\nsamples = 2\nvalue = 3.02"] ;
598 -> 600 ;
601 [label="mse = 0.0\nsamples = 1\nvalue = 3.03"] ;
600 -> 601 ;
602 [label="mse = 0.0\nsamples = 1\nvalue = 3.01"] ;
600 -> 602 ;
603 [label="bandendruk <= 0.75\nmse = 0.004\nsamples = 3\nvalue = 2.987"] ;
585 -> 603 ;
604 [label="mse = 0.0\nsamples = 1\nvalue = 2.9"] ;
603 -> 604 ;
605 [label="mse = 0.0\nsamples = 2\nvalue = 3.03"] ;
603 -> 605 ;
606 [label="camber <= -0.2\nmse = 0.006\nsamples = 5\nvalue = 3.252"] ;
584 -> 606 ;
607 [label="toespoor <= 1002.5\nmse = 0.005\nsamples = 3\nvalue = 3.213"] ;
606 -> 607 ;
608 [label="hoogte <= 37.0\nmse = 0.0\nsamples = 2\nvalue = 3.265"] ;
607 -> 608 ;
609 [label="mse = 0.0\nsamples = 1\nvalue = 3.25"] ;
608 -> 609 ;
610 [label="mse = 0.0\nsamples = 1\nvalue = 3.28"] ;
608 -> 610 ;
611 [label="mse = 0.0\nsamples = 1\nvalue = 3.11"] ;
607 -> 611 ;
612 [label="toespoor <= 1004.0\nmse = 0.0\nsamples = 2\nvalue = 3.31"] ;
606 -> 612 ;
613 [label="mse = 0.0\nsamples = 1\nvalue = 3.29"] ;
612 -> 613 ;
614 [label="mse = 0.0\nsamples = 1\nvalue = 3.33"] ;
612 -> 614 ;
615 [label="bandendruk <= 0.75\nmse = 0.009\nsamples = 7\nvalue = 3.026"] ;
583 -> 615 ;
616 [label="hoogte <= 39.5\nmse = 0.004\nsamples = 4\nvalue = 2.96"] ;
615 -> 616 ;
617 [label="mse = 0.0\nsamples = 1\nvalue = 2.89"] ;
616 -> 617 ;
618 [label="toespoor <= 1001.5\nmse = 0.003\nsamples = 3\nvalue = 2.983"] ;
616 -> 618 ;
619 [label="mse = 0.0\nsamples = 1\nvalue = 2.93"] ;
618 -> 619 ;
620 [label="camber <= -0.2\nmse = 0.003\nsamples = 2\nvalue = 3.01"] ;
618 -> 620 ;
621 [label="mse = 0.0\nsamples = 1\nvalue = 2.96"] ;
620 -> 621 ;
622 [label="mse = 0.0\nsamples = 1\nvalue = 3.06"] ;
620 -> 622 ;
623 [label="camber <= -0.3\nmse = 0.002\nsamples = 3\nvalue = 3.113"] ;
615 -> 623 ;
624 [label="mse = 0.0\nsamples = 1\nvalue = 3.05"] ;
623 -> 624 ;
625 [label="camber <= -0.1\nmse = 0.001\nsamples = 2\nvalue = 3.145"] ;
623 -> 625 ;
626 [label="mse = 0.0\nsamples = 1\nvalue = 3.12"] ;
625 -> 626 ;
627 [label="mse = 0.0\nsamples = 1\nvalue = 3.17"] ;
625 -> 627 ;
628 [label="main <= 1.5\nmse = 0.137\nsamples = 375\nvalue = 6.264"] ;
0 -> 628 [labeldistance=2.5, labelangle=-45, headlabel="False"] ;
629 [label="toespoor <= 997.5\nmse = 0.064\nsamples = 193\nvalue = 6.001"] ;
628 -> 629 ;
630 [label="hoogte <= 30.5\nmse = 0.047\nsamples = 53\nvalue = 5.864"] ;
629 -> 630 ;
631 [label="hoogte <= 20.5\nmse = 0.035\nsamples = 25\nvalue = 5.772"] ;
630 -> 631 ;
632 [label="bandendruk <= 0.65\nmse = 0.007\nsamples = 3\nvalue = 5.527"] ;
631 -> 632 ;
633 [label="camber <= -0.35\nmse = 0.006\nsamples = 2\nvalue = 5.49"] ;
632 -> 633 ;
634 [label="mse = 0.0\nsamples = 1\nvalue = 5.41"] ;
633 -> 634 ;
635 [label="mse = 0.0\nsamples = 1\nvalue = 5.57"] ;
633 -> 635 ;
636 [label="mse = 0.0\nsamples = 1\nvalue = 5.6"] ;
632 -> 636 ;
637 [label="camber <= -0.85\nmse = 0.029\nsamples = 22\nvalue = 5.805"] ;
631 -> 637 ;
638 [label="toespoor <= 996.5\nmse = 0.001\nsamples = 2\nvalue = 6.045"] ;
637 -> 638 ;
639 [label="mse = 0.0\nsamples = 1\nvalue = 6.08"] ;
638 -> 639 ;
640 [label="mse = 0.0\nsamples = 1\nvalue = 6.01"] ;
638 -> 640 ;
641 [label="toespoor <= 996.5\nmse = 0.026\nsamples = 20\nvalue = 5.782"] ;
637 -> 641 ;
642 [label="camber <= -0.55\nmse = 0.03\nsamples = 11\nvalue = 5.846"] ;
641 -> 642 ;
643 [label="hoogte <= 25.0\nmse = 0.003\nsamples = 2\nvalue = 5.695"] ;
642 -> 643 ;
644 [label="mse = 0.0\nsamples = 1\nvalue = 5.64"] ;
643 -> 644 ;
645 [label="mse = -0.0\nsamples = 1\nvalue = 5.75"] ;
643 -> 645 ;
646 [label="hoogte <= 24.5\nmse = 0.029\nsamples = 9\nvalue = 5.88"] ;
642 -> 646 ;
647 [label="camber <= -0.3\nmse = 0.033\nsamples = 4\nvalue = 5.955"] ;
646 -> 647 ;
648 [label="bandendruk <= 0.65\nmse = 0.006\nsamples = 2\nvalue = 6.115"] ;
647 -> 648 ;
649 [label="mse = 0.0\nsamples = 1\nvalue = 6.04"] ;
648 -> 649 ;
650 [label="mse = 0.0\nsamples = 1\nvalue = 6.19"] ;
648 -> 650 ;
651 [label="hoogte <= 23.5\nmse = 0.009\nsamples = 2\nvalue = 5.795"] ;
647 -> 651 ;
652 [label="mse = 0.0\nsamples = 1\nvalue = 5.7"] ;
651 -> 652 ;
653 [label="mse = -0.0\nsamples = 1\nvalue = 5.89"] ;
651 -> 653 ;
654 [label="toespoor <= 995.5\nmse = 0.019\nsamples = 5\nvalue = 5.82"] ;
646 -> 654 ;
655 [label="mse = 0.0\nsamples = 1\nvalue = 5.64"] ;
654 -> 655 ;
656 [label="camber <= -0.45\nmse = 0.013\nsamples = 4\nvalue = 5.865"] ;
654 -> 656 ;
657 [label="mse = 0.0\nsamples = 1\nvalue = 5.69"] ;
656 -> 657 ;
658 [label="camber <= -0.35\nmse = 0.004\nsamples = 3\nvalue = 5.923"] ;
656 -> 658 ;
659 [label="mse = 0.0\nsamples = 1\nvalue = 6.01"] ;
658 -> 659 ;
660 [label="mse = 0.0\nsamples = 2\nvalue = 5.88"] ;
658 -> 660 ;
661 [label="hoogte <= 27.5\nmse = 0.01\nsamples = 9\nvalue = 5.702"] ;
641 -> 661 ;
662 [label="hoogte <= 23.5\nmse = 0.002\nsamples = 7\nvalue = 5.749"] ;
661 -> 662 ;
663 [label="camber <= -0.4\nmse = 0.001\nsamples = 4\nvalue = 5.778"] ;
662 -> 663 ;
664 [label="bandendruk <= 0.75\nmse = 0.0\nsamples = 3\nvalue = 5.76"] ;
663 -> 664 ;
665 [label="mse = 0.0\nsamples = 2\nvalue = 5.765"] ;
664 -> 665 ;
666 [label="mse = 0.0\nsamples = 1\nvalue = 5.75"] ;
664 -> 666 ;
667 [label="mse = 0.0\nsamples = 1\nvalue = 5.83"] ;
663 -> 667 ;
668 [label="hoogte <= 25.5\nmse = 0.0\nsamples = 3\nvalue = 5.71"] ;
662 -> 668 ;
669 [label="mse = 0.0\nsamples = 1\nvalue = 5.68"] ;
668 -> 669 ;
670 [label="bandendruk <= 0.75\nmse = 0.0\nsamples = 2\nvalue = 5.725"] ;
668 -> 670 ;
671 [label="mse = 0.0\nsamples = 1\nvalue = 5.73"] ;
670 -> 671 ;
672 [label="mse = 0.0\nsamples = 1\nvalue = 5.72"] ;
670 -> 672 ;
673 [label="hoogte <= 29.0\nmse = 0.004\nsamples = 2\nvalue = 5.54"] ;
661 -> 673 ;
674 [label="mse = 0.0\nsamples = 1\nvalue = 5.48"] ;
673 -> 674 ;
675 [label="mse = 0.0\nsamples = 1\nvalue = 5.6"] ;
673 -> 675 ;
676 [label="camber <= -0.45\nmse = 0.043\nsamples = 28\nvalue = 5.946"] ;
630 -> 676 ;
677 [label="camber <= -0.95\nmse = 0.027\nsamples = 13\nvalue = 5.867"] ;
676 -> 677 ;
678 [label="bandendruk <= 0.65\nmse = 0.004\nsamples = 2\nvalue = 6.02"] ;
677 -> 678 ;
679 [label="mse = 0.0\nsamples = 1\nvalue = 6.08"] ;
678 -> 679 ;
680 [label="mse = 0.0\nsamples = 1\nvalue = 5.96"] ;
678 -> 680 ;
681 [label="toespoor <= 995.5\nmse = 0.027\nsamples = 11\nvalue = 5.839"] ;
677 -> 681 ;
682 [label="hoogte <= 32.5\nmse = 0.021\nsamples = 4\nvalue = 5.75"] ;
681 -> 682 ;
683 [label="mse = 0.0\nsamples = 1\nvalue = 5.98"] ;
682 -> 683 ;
684 [label="camber <= -0.65\nmse = 0.005\nsamples = 3\nvalue = 5.673"] ;
682 -> 684 ;
685 [label="bandendruk <= 0.75\nmse = 0.004\nsamples = 2\nvalue = 5.71"] ;
684 -> 685 ;
686 [label="mse = 0.0\nsamples = 1\nvalue = 5.77"] ;
685 -> 686 ;
687 [label="mse = 0.0\nsamples = 1\nvalue = 5.65"] ;
685 -> 687 ;
688 [label="mse = 0.0\nsamples = 1\nvalue = 5.6"] ;
684 -> 688 ;
689 [label="toespoor <= 996.5\nmse = 0.023\nsamples = 7\nvalue = 5.89"] ;
681 -> 689 ;
690 [label="hoogte <= 36.5\nmse = 0.014\nsamples = 4\nvalue = 5.985"] ;
689 -> 690 ;
691 [label="camber <= -0.8\nmse = 0.003\nsamples = 3\nvalue = 5.923"] ;
690 -> 691 ;
692 [label="mse = 0.0\nsamples = 1\nvalue = 5.99"] ;
691 -> 692 ;
693 [label="camber <= -0.6\nmse = 0.001\nsamples = 2\nvalue = 5.89"] ;
691 -> 693 ;
694 [label="mse = 0.0\nsamples = 1\nvalue = 5.86"] ;
693 -> 694 ;
695 [label="mse = -0.0\nsamples = 1\nvalue = 5.92"] ;
693 -> 695 ;
696 [label="mse = -0.0\nsamples = 1\nvalue = 6.17"] ;
690 -> 696 ;
697 [label="hoogte <= 37.5\nmse = 0.007\nsamples = 3\nvalue = 5.763"] ;
689 -> 697 ;
698 [label="hoogte <= 34.5\nmse = 0.002\nsamples = 2\nvalue = 5.815"] ;
697 -> 698 ;
699 [label="mse = 0.0\nsamples = 1\nvalue = 5.86"] ;
698 -> 699 ;
700 [label="mse = 0.0\nsamples = 1\nvalue = 5.77"] ;
698 -> 700 ;
701 [label="mse = 0.0\nsamples = 1\nvalue = 5.66"] ;
697 -> 701 ;
702 [label="toespoor <= 996.5\nmse = 0.046\nsamples = 15\nvalue = 6.015"] ;
676 -> 702 ;
703 [label="hoogte <= 34.5\nmse = 0.039\nsamples = 9\nvalue = 6.087"] ;
702 -> 703 ;
704 [label="camber <= -0.3\nmse = 0.017\nsamples = 5\nvalue = 6.18"] ;
703 -> 704 ;
705 [label="hoogte <= 32.5\nmse = 0.026\nsamples = 2\nvalue = 6.27"] ;
704 -> 705 ;
706 [label="mse = 0.0\nsamples = 1\nvalue = 6.11"] ;
705 -> 706 ;
707 [label="mse = 0.0\nsamples = 1\nvalue = 6.43"] ;
705 -> 707 ;
708 [label="bandendruk <= 0.65\nmse = 0.003\nsamples = 3\nvalue = 6.12"] ;
704 -> 708 ;
709 [label="mse = 0.0\nsamples = 1\nvalue = 6.05"] ;
708 -> 709 ;
710 [label="camber <= -0.1\nmse = 0.0\nsamples = 2\nvalue = 6.155"] ;
708 -> 710 ;
711 [label="mse = 0.0\nsamples = 1\nvalue = 6.14"] ;
710 -> 711 ;
712 [label="mse = 0.0\nsamples = 1\nvalue = 6.17"] ;
710 -> 712 ;
713 [label="bandendruk <= 0.65\nmse = 0.043\nsamples = 4\nvalue = 5.97"] ;
703 -> 713 ;
714 [label="mse = 0.0\nsamples = 1\nvalue = 6.26"] ;
713 -> 714 ;
715 [label="camber <= -0.2\nmse = 0.019\nsamples = 3\nvalue = 5.873"] ;
713 -> 715 ;
716 [label="hoogte <= 36.5\nmse = 0.0\nsamples = 2\nvalue = 5.775"] ;
715 -> 716 ;
717 [label="mse = 0.0\nsamples = 1\nvalue = 5.79"] ;
716 -> 717 ;
718 [label="mse = -0.0\nsamples = 1\nvalue = 5.76"] ;
716 -> 718 ;
719 [label="mse = 0.0\nsamples = 1\nvalue = 6.07"] ;
715 -> 719 ;
720 [label="hoogte <= 33.5\nmse = 0.036\nsamples = 6\nvalue = 5.908"] ;
702 -> 720 ;
721 [label="camber <= -0.3\nmse = 0.019\nsamples = 3\nvalue = 5.747"] ;
720 -> 721 ;
722 [label="mse = 0.0\nsamples = 1\nvalue = 5.91"] ;
721 -> 722 ;
723 [label="bandendruk <= 0.65\nmse = 0.009\nsamples = 2\nvalue = 5.665"] ;
721 -> 723 ;
724 [label="mse = 0.0\nsamples = 1\nvalue = 5.76"] ;
723 -> 724 ;
725 [label="mse = 0.0\nsamples = 1\nvalue = 5.57"] ;
723 -> 725 ;
726 [label="hoogte <= 35.5\nmse = 0.001\nsamples = 3\nvalue = 6.07"] ;
720 -> 726 ;
727 [label="mse = 0.0\nsamples = 1\nvalue = 6.04"] ;
726 -> 727 ;
728 [label="hoogte <= 38.0\nmse = 0.0\nsamples = 2\nvalue = 6.085"] ;
726 -> 728 ;
729 [label="mse = 0.0\nsamples = 1\nvalue = 6.07"] ;
728 -> 729 ;
730 [label="mse = 0.0\nsamples = 1\nvalue = 6.1"] ;
728 -> 730 ;
731 [label="hoogte <= 31.5\nmse = 0.061\nsamples = 140\nvalue = 6.053"] ;
629 -> 731 ;
732 [label="bandendruk <= 0.75\nmse = 0.062\nsamples = 93\nvalue = 6.009"] ;
731 -> 732 ;
733 [label="camber <= -0.65\nmse = 0.058\nsamples = 74\nvalue = 5.984"] ;
732 -> 733 ;
734 [label="hoogte <= 22.5\nmse = 0.064\nsamples = 33\nvalue = 5.921"] ;
733 -> 734 ;
735 [label="camber <= -0.95\nmse = 0.033\nsamples = 8\nvalue = 5.789"] ;
734 -> 735 ;
736 [label="hoogte <= 21.0\nmse = 0.006\nsamples = 2\nvalue = 6.005"] ;
735 -> 736 ;
737 [label="mse = 0.0\nsamples = 1\nvalue = 5.93"] ;
736 -> 737 ;
738 [label="mse = 0.0\nsamples = 1\nvalue = 6.08"] ;
736 -> 738 ;
739 [label="toespoor <= 1003.0\nmse = 0.021\nsamples = 6\nvalue = 5.717"] ;
735 -> 739 ;
740 [label="bandendruk <= 0.65\nmse = 0.018\nsamples = 4\nvalue = 5.663"] ;
739 -> 740 ;
741 [label="hoogte <= 20.5\nmse = 0.004\nsamples = 2\nvalue = 5.565"] ;
740 -> 741 ;
742 [label="mse = 0.0\nsamples = 1\nvalue = 5.63"] ;
741 -> 742 ;
743 [label="mse = 0.0\nsamples = 1\nvalue = 5.5"] ;
741 -> 743 ;
744 [label="toespoor <= 1000.5\nmse = 0.012\nsamples = 2\nvalue = 5.76"] ;
740 -> 744 ;
745 [label="mse = 0.0\nsamples = 1\nvalue = 5.65"] ;
744 -> 745 ;
746 [label="mse = 0.0\nsamples = 1\nvalue = 5.87"] ;
744 -> 746 ;
747 [label="hoogte <= 21.5\nmse = 0.011\nsamples = 2\nvalue = 5.825"] ;
739 -> 747 ;
748 [label="mse = 0.0\nsamples = 1\nvalue = 5.93"] ;
747 -> 748 ;
749 [label="mse = 0.0\nsamples = 1\nvalue = 5.72"] ;
747 -> 749 ;
750 [label="hoogte <= 24.5\nmse = 0.067\nsamples = 25\nvalue = 5.964"] ;
734 -> 750 ;
751 [label="toespoor <= 998.5\nmse = 0.027\nsamples = 5\nvalue = 6.216"] ;
750 -> 751 ;
752 [label="mse = 0.0\nsamples = 1\nvalue = 6.43"] ;
751 -> 752 ;
753 [label="camber <= -0.75\nmse = 0.02\nsamples = 4\nvalue = 6.162"] ;
751 -> 753 ;
754 [label="hoogte <= 23.5\nmse = 0.004\nsamples = 2\nvalue = 6.285"] ;
753 -> 754 ;
755 [label="mse = 0.0\nsamples = 1\nvalue = 6.35"] ;
754 -> 755 ;
756 [label="mse = -0.0\nsamples = 1\nvalue = 6.22"] ;
754 -> 756 ;
757 [label="hoogte <= 23.5\nmse = 0.005\nsamples = 2\nvalue = 6.04"] ;
753 -> 757 ;
758 [label="mse = 0.0\nsamples = 1\nvalue = 6.11"] ;
757 -> 758 ;
759 [label="mse = 0.0\nsamples = 1\nvalue = 5.97"] ;
757 -> 759 ;
760 [label="hoogte <= 25.5\nmse = 0.057\nsamples = 20\nvalue = 5.9"] ;
750 -> 760 ;
761 [label="toespoor <= 1000.0\nmse = 0.027\nsamples = 3\nvalue = 5.73"] ;
760 -> 761 ;
762 [label="toespoor <= 998.5\nmse = 0.0\nsamples = 2\nvalue = 5.845"] ;
761 -> 762 ;
763 [label="mse = 0.0\nsamples = 1\nvalue = 5.83"] ;
762 -> 763 ;
764 [label="mse = -0.0\nsamples = 1\nvalue = 5.86"] ;
762 -> 764 ;
765 [label="mse = 0.0\nsamples = 1\nvalue = 5.5"] ;
761 -> 765 ;
766 [label="hoogte <= 27.5\nmse = 0.056\nsamples = 17\nvalue = 5.931"] ;
760 -> 766 ;
767 [label="camber <= -0.95\nmse = 0.048\nsamples = 4\nvalue = 6.165"] ;
766 -> 767 ;
768 [label="mse = 0.0\nsamples = 1\nvalue = 5.8"] ;
767 -> 768 ;
769 [label="camber <= -0.75\nmse = 0.005\nsamples = 3\nvalue = 6.287"] ;
767 -> 769 ;
770 [label="toespoor <= 1001.0\nmse = 0.0\nsamples = 2\nvalue = 6.24"] ;
769 -> 770 ;
771 [label="mse = 0.0\nsamples = 1\nvalue = 6.22"] ;
770 -> 771 ;
772 [label="mse = -0.0\nsamples = 1\nvalue = 6.26"] ;
770 -> 772 ;
773 [label="mse = 0.0\nsamples = 1\nvalue = 6.38"] ;
769 -> 773 ;
774 [label="bandendruk <= 0.65\nmse = 0.036\nsamples = 13\nvalue = 5.858"] ;
766 -> 774 ;
775 [label="hoogte <= 30.5\nmse = 0.005\nsamples = 4\nvalue = 5.708"] ;
774 -> 775 ;
776 [label="toespoor <= 1003.5\nmse = 0.001\nsamples = 3\nvalue = 5.67"] ;
775 -> 776 ;
777 [label="hoogte <= 29.0\nmse = 0.0\nsamples = 2\nvalue = 5.65"] ;
776 -> 777 ;
778 [label="mse = 0.0\nsamples = 1\nvalue = 5.63"] ;
777 -> 778 ;
779 [label="mse = -0.0\nsamples = 1\nvalue = 5.67"] ;
777 -> 779 ;
780 [label="mse = -0.0\nsamples = 1\nvalue = 5.71"] ;
776 -> 780 ;
781 [label="mse = -0.0\nsamples = 1\nvalue = 5.82"] ;
775 -> 781 ;
782 [label="toespoor <= 1000.0\nmse = 0.035\nsamples = 9\nvalue = 5.926"] ;
774 -> 782 ;
783 [label="mse = 0.0\nsamples = 1\nvalue = 5.58"] ;
782 -> 783 ;
784 [label="hoogte <= 28.5\nmse = 0.023\nsamples = 8\nvalue = 5.969"] ;
782 -> 784 ;
785 [label="camber <= -0.85\nmse = 0.005\nsamples = 2\nvalue = 5.78"] ;
784 -> 785 ;
786 [label="mse = 0.0\nsamples = 1\nvalue = 5.85"] ;
785 -> 786 ;
787 [label="mse = 0.0\nsamples = 1\nvalue = 5.71"] ;
785 -> 787 ;
788 [label="hoogte <= 29.5\nmse = 0.013\nsamples = 6\nvalue = 6.032"] ;
784 -> 788 ;
789 [label="mse = 0.0\nsamples = 1\nvalue = 6.26"] ;
788 -> 789 ;
790 [label="camber <= -0.85\nmse = 0.003\nsamples = 5\nvalue = 5.986"] ;
788 -> 790 ;
791 [label="hoogte <= 30.5\nmse = 0.0\nsamples = 3\nvalue = 6.03"] ;
790 -> 791 ;
792 [label="mse = 0.0\nsamples = 2\nvalue = 6.02"] ;
791 -> 792 ;
793 [label="mse = -0.0\nsamples = 1\nvalue = 6.05"] ;
791 -> 793 ;
794 [label="toespoor <= 1002.0\nmse = 0.0\nsamples = 2\nvalue = 5.92"] ;
790 -> 794 ;
795 [label="mse = 0.0\nsamples = 1\nvalue = 5.91"] ;
794 -> 795 ;
796 [label="mse = -0.0\nsamples = 1\nvalue = 5.93"] ;
794 -> 796 ;
797 [label="toespoor <= 1004.5\nmse = 0.047\nsamples = 41\nvalue = 6.034"] ;
733 -> 797 ;
798 [label="toespoor <= 1002.5\nmse = 0.046\nsamples = 35\nvalue = 6.063"] ;
797 -> 798 ;
799 [label="camber <= -0.55\nmse = 0.04\nsamples = 26\nvalue = 6.018"] ;
798 -> 799 ;
800 [label="mse = 0.0\nsamples = 1\nvalue = 5.71"] ;
799 -> 800 ;
801 [label="hoogte <= 28.5\nmse = 0.038\nsamples = 25\nvalue = 6.03"] ;
799 -> 801 ;
802 [label="hoogte <= 26.5\nmse = 0.037\nsamples = 22\nvalue = 6.054"] ;
801 -> 802 ;
803 [label="camber <= -0.45\nmse = 0.036\nsamples = 16\nvalue = 6.003"] ;
802 -> 803 ;
804 [label="hoogte <= 21.5\nmse = 0.036\nsamples = 6\nvalue = 6.117"] ;
803 -> 804 ;
805 [label="mse = 0.0\nsamples = 1\nvalue = 6.4"] ;
804 -> 805 ;
806 [label="bandendruk <= 0.65\nmse = 0.024\nsamples = 5\nvalue = 6.06"] ;
804 -> 806 ;
807 [label="mse = 0.018\nsamples = 2\nvalue = 5.905"] ;
806 -> 807 ;
808 [label="hoogte <= 22.5\nmse = 0.001\nsamples = 3\nvalue = 6.163"] ;
806 -> 808 ;
809 [label="mse = 0.0\nsamples = 1\nvalue = 6.14"] ;
808 -> 809 ;
810 [label="hoogte <= 24.5\nmse = 0.001\nsamples = 2\nvalue = 6.175"] ;
808 -> 810 ;
811 [label="mse = 0.0\nsamples = 1\nvalue = 6.21"] ;
810 -> 811 ;
812 [label="mse = 0.0\nsamples = 1\nvalue = 6.14"] ;
810 -> 812 ;
813 [label="hoogte <= 25.0\nmse = 0.023\nsamples = 10\nvalue = 5.935"] ;
803 -> 813 ;
814 [label="bandendruk <= 0.65\nmse = 0.015\nsamples = 7\nvalue = 5.994"] ;
813 -> 814 ;
815 [label="hoogte <= 22.5\nmse = 0.0\nsamples = 2\nvalue = 5.86"] ;
814 -> 815 ;
816 [label="mse = 0.0\nsamples = 1\nvalue = 5.87"] ;
815 -> 816 ;
817 [label="mse = 0.0\nsamples = 1\nvalue = 5.85"] ;
815 -> 817 ;
818 [label="toespoor <= 999.5\nmse = 0.011\nsamples = 5\nvalue = 6.048"] ;
814 -> 818 ;
819 [label="hoogte <= 22.0\nmse = 0.003\nsamples = 2\nvalue = 5.935"] ;
818 -> 819 ;
820 [label="mse = 0.0\nsamples = 1\nvalue = 5.88"] ;
819 -> 820 ;
821 [label="mse = -0.0\nsamples = 1\nvalue = 5.99"] ;
819 -> 821 ;
822 [label="camber <= -0.3\nmse = 0.001\nsamples = 3\nvalue = 6.123"] ;
818 -> 822 ;
823 [label="mse = 0.0\nsamples = 1\nvalue = 6.07"] ;
822 -> 823 ;
824 [label="mse = 0.0\nsamples = 2\nvalue = 6.15"] ;
822 -> 824 ;
825 [label="toespoor <= 1000.5\nmse = 0.014\nsamples = 3\nvalue = 5.797"] ;
813 -> 825 ;
826 [label="toespoor <= 999.0\nmse = 0.008\nsamples = 2\nvalue = 5.73"] ;
825 -> 826 ;
827 [label="mse = 0.0\nsamples = 1\nvalue = 5.82"] ;
826 -> 827 ;
828 [label="mse = -0.0\nsamples = 1\nvalue = 5.64"] ;
826 -> 828 ;
829 [label="mse = 0.0\nsamples = 1\nvalue = 5.93"] ;
825 -> 829 ;
830 [label="toespoor <= 998.5\nmse = 0.015\nsamples = 6\nvalue = 6.188"] ;
802 -> 830 ;
831 [label="mse = 0.0\nsamples = 1\nvalue = 6.41"] ;
830 -> 831 ;
832 [label="toespoor <= 1001.0\nmse = 0.006\nsamples = 5\nvalue = 6.144"] ;
830 -> 832 ;
833 [label="hoogte <= 27.5\nmse = 0.003\nsamples = 3\nvalue = 6.197"] ;
832 -> 833 ;
834 [label="mse = 0.0\nsamples = 1\nvalue = 6.27"] ;
833 -> 834 ;
835 [label="toespoor <= 999.5\nmse = 0.0\nsamples = 2\nvalue = 6.16"] ;
833 -> 835 ;
836 [label="mse = 0.0\nsamples = 1\nvalue = 6.15"] ;
835 -> 836 ;
837 [label="mse = 0.0\nsamples = 1\nvalue = 6.17"] ;
835 -> 837 ;
838 [label="bandendruk <= 0.65\nmse = 0.001\nsamples = 2\nvalue = 6.065"] ;
832 -> 838 ;
839 [label="mse = 0.0\nsamples = 1\nvalue = 6.03"] ;
838 -> 839 ;
840 [label="mse = 0.0\nsamples = 1\nvalue = 6.1"] ;
838 -> 840 ;
841 [label="toespoor <= 999.5\nmse = 0.013\nsamples = 3\nvalue = 5.86"] ;
801 -> 841 ;
842 [label="camber <= -0.45\nmse = 0.0\nsamples = 2\nvalue = 5.94"] ;
841 -> 842 ;
843 [label="mse = 0.0\nsamples = 1\nvalue = 5.96"] ;
842 -> 843 ;
844 [label="mse = 0.0\nsamples = 1\nvalue = 5.92"] ;
842 -> 844 ;
845 [label="mse = 0.0\nsamples = 1\nvalue = 5.7"] ;
841 -> 845 ;
846 [label="hoogte <= 23.5\nmse = 0.042\nsamples = 9\nvalue = 6.191"] ;
798 -> 846 ;
847 [label="hoogte <= 20.5\nmse = 0.033\nsamples = 5\nvalue = 6.102"] ;
846 -> 847 ;
848 [label="mse = 0.0\nsamples = 1\nvalue = 6.33"] ;
847 -> 848 ;
849 [label="hoogte <= 22.5\nmse = 0.025\nsamples = 4\nvalue = 6.045"] ;
847 -> 849 ;
850 [label="toespoor <= 1003.5\nmse = 0.028\nsamples = 3\nvalue = 6.08"] ;
849 -> 850 ;
851 [label="mse = 0.0\nsamples = 1\nvalue = 6.09"] ;
850 -> 851 ;
852 [label="mse = 0.042\nsamples = 2\nvalue = 6.075"] ;
850 -> 852 ;
853 [label="mse = -0.0\nsamples = 1\nvalue = 5.94"] ;
849 -> 853 ;
854 [label="hoogte <= 27.5\nmse = 0.031\nsamples = 4\nvalue = 6.302"] ;
846 -> 854 ;
855 [label="bandendruk <= 0.65\nmse = 0.001\nsamples = 3\nvalue = 6.403"] ;
854 -> 855 ;
856 [label="mse = 0.0\nsamples = 1\nvalue = 6.44"] ;
855 -> 856 ;
857 [label="camber <= -0.35\nmse = 0.0\nsamples = 2\nvalue = 6.385"] ;
855 -> 857 ;
858 [label="mse = 0.0\nsamples = 1\nvalue = 6.38"] ;
857 -> 858 ;
859 [label="mse = -0.0\nsamples = 1\nvalue = 6.39"] ;
857 -> 859 ;
860 [label="mse = 0.0\nsamples = 1\nvalue = 6.0"] ;
854 -> 860 ;
861 [label="camber <= -0.4\nmse = 0.02\nsamples = 6\nvalue = 5.868"] ;
797 -> 861 ;
862 [label="hoogte <= 22.5\nmse = 0.016\nsamples = 3\nvalue = 5.76"] ;
861 -> 862 ;
863 [label="mse = 0.0\nsamples = 1\nvalue = 5.63"] ;
862 -> 863 ;
864 [label="hoogte <= 25.0\nmse = 0.011\nsamples = 2\nvalue = 5.825"] ;
862 -> 864 ;
865 [label="mse = 0.0\nsamples = 1\nvalue = 5.93"] ;
864 -> 865 ;
866 [label="mse = 0.0\nsamples = 1\nvalue = 5.72"] ;
864 -> 866 ;
867 [label="hoogte <= 26.0\nmse = 0.0\nsamples = 3\nvalue = 5.977"] ;
861 -> 867 ;
868 [label="camber <= -0.25\nmse = 0.0\nsamples = 2\nvalue = 5.965"] ;
867 -> 868 ;
869 [label="mse = 0.0\nsamples = 1\nvalue = 5.97"] ;
868 -> 869 ;
870 [label="mse = 0.0\nsamples = 1\nvalue = 5.96"] ;
868 -> 870 ;
871 [label="mse = 0.0\nsamples = 1\nvalue = 6.0"] ;
867 -> 871 ;
872 [label="camber <= -0.85\nmse = 0.064\nsamples = 19\nvalue = 6.107"] ;
732 -> 872 ;
873 [label="toespoor <= 1001.5\nmse = 0.021\nsamples = 3\nvalue = 6.307"] ;
872 -> 873 ;
874 [label="mse = 0.0\nsamples = 1\nvalue = 6.51"] ;
873 -> 874 ;
875 [label="hoogte <= 26.0\nmse = 0.0\nsamples = 2\nvalue = 6.205"] ;
873 -> 875 ;
876 [label="mse = 0.0\nsamples = 1\nvalue = 6.2"] ;
875 -> 876 ;
877 [label="mse = -0.0\nsamples = 1\nvalue = 6.21"] ;
875 -> 877 ;
878 [label="camber <= -0.35\nmse = 0.063\nsamples = 16\nvalue = 6.069"] ;
872 -> 878 ;
879 [label="hoogte <= 23.0\nmse = 0.03\nsamples = 6\nvalue = 5.903"] ;
878 -> 879 ;
880 [label="hoogte <= 21.0\nmse = 0.008\nsamples = 2\nvalue = 6.13"] ;
879 -> 880 ;
881 [label="mse = 0.0\nsamples = 1\nvalue = 6.04"] ;
880 -> 881 ;
882 [label="mse = -0.0\nsamples = 1\nvalue = 6.22"] ;
880 -> 882 ;
883 [label="toespoor <= 1002.0\nmse = 0.002\nsamples = 4\nvalue = 5.79"] ;
879 -> 883 ;
884 [label="hoogte <= 24.5\nmse = 0.001\nsamples = 3\nvalue = 5.813"] ;
883 -> 884 ;
885 [label="mse = 0.0\nsamples = 1\nvalue = 5.86"] ;
884 -> 885 ;
886 [label="mse = -0.0\nsamples = 2\nvalue = 5.79"] ;
884 -> 886 ;
887 [label="mse = 0.0\nsamples = 1\nvalue = 5.72"] ;
883 -> 887 ;
888 [label="toespoor <= 1004.5\nmse = 0.056\nsamples = 10\nvalue = 6.169"] ;
878 -> 888 ;
889 [label="hoogte <= 22.5\nmse = 0.044\nsamples = 9\nvalue = 6.212"] ;
888 -> 889 ;
890 [label="mse = 0.0\nsamples = 1\nvalue = 6.51"] ;
889 -> 890 ;
891 [label="hoogte <= 25.5\nmse = 0.037\nsamples = 8\nvalue = 6.175"] ;
889 -> 891 ;
892 [label="camber <= -0.25\nmse = 0.01\nsamples = 3\nvalue = 5.987"] ;
891 -> 892 ;
893 [label="mse = 0.0\nsamples = 1\nvalue = 6.11"] ;
892 -> 893 ;
894 [label="camber <= -0.15\nmse = 0.003\nsamples = 2\nvalue = 5.925"] ;
892 -> 894 ;
895 [label="mse = 0.0\nsamples = 1\nvalue = 5.87"] ;
894 -> 895 ;
896 [label="mse = -0.0\nsamples = 1\nvalue = 5.98"] ;
894 -> 896 ;
897 [label="hoogte <= 30.5\nmse = 0.019\nsamples = 5\nvalue = 6.288"] ;
891 -> 897 ;
898 [label="toespoor <= 1003.5\nmse = 0.003\nsamples = 4\nvalue = 6.352"] ;
897 -> 898 ;
899 [label="camber <= -0.2\nmse = 0.002\nsamples = 3\nvalue = 6.33"] ;
898 -> 899 ;
900 [label="mse = 0.0\nsamples = 1\nvalue = 6.39"] ;
899 -> 900 ;
901 [label="toespoor <= 1000.5\nmse = 0.0\nsamples = 2\nvalue = 6.3"] ;
899 -> 901 ;
902 [label="mse = 0.0\nsamples = 1\nvalue = 6.29"] ;
901 -> 902 ;
903 [label="mse = 0.0\nsamples = 1\nvalue = 6.31"] ;
901 -> 903 ;
904 [label="mse = -0.0\nsamples = 1\nvalue = 6.42"] ;
898 -> 904 ;
905 [label="mse = -0.0\nsamples = 1\nvalue = 6.03"] ;
897 -> 905 ;
906 [label="mse = 0.0\nsamples = 1\nvalue = 5.78"] ;
888 -> 906 ;
907 [label="hoogte <= 39.5\nmse = 0.049\nsamples = 47\nvalue = 6.141"] ;
731 -> 907 ;
908 [label="camber <= -0.15\nmse = 0.048\nsamples = 42\nvalue = 6.163"] ;
907 -> 908 ;
909 [label="camber <= -0.55\nmse = 0.048\nsamples = 36\nvalue = 6.186"] ;
908 -> 909 ;
910 [label="hoogte <= 38.5\nmse = 0.031\nsamples = 15\nvalue = 6.118"] ;
909 -> 910 ;
911 [label="camber <= -0.85\nmse = 0.027\nsamples = 13\nvalue = 6.086"] ;
910 -> 911 ;
912 [label="bandendruk <= 0.65\nmse = 0.002\nsamples = 2\nvalue = 5.965"] ;
911 -> 912 ;
913 [label="mse = 0.0\nsamples = 1\nvalue = 6.01"] ;
912 -> 913 ;
914 [label="mse = 0.0\nsamples = 1\nvalue = 5.92"] ;
912 -> 914 ;
915 [label="toespoor <= 1000.5\nmse = 0.029\nsamples = 11\nvalue = 6.108"] ;
911 -> 915 ;
916 [label="hoogte <= 33.0\nmse = 0.031\nsamples = 7\nvalue = 6.04"] ;
915 -> 916 ;
917 [label="camber <= -0.7\nmse = 0.002\nsamples = 2\nvalue = 5.89"] ;
916 -> 917 ;
918 [label="mse = 0.0\nsamples = 1\nvalue = 5.85"] ;
917 -> 918 ;
919 [label="mse = -0.0\nsamples = 1\nvalue = 5.93"] ;
917 -> 919 ;
920 [label="camber <= -0.75\nmse = 0.029\nsamples = 5\nvalue = 6.1"] ;
916 -> 920 ;
921 [label="mse = 0.055\nsamples = 2\nvalue = 6.175"] ;
920 -> 921 ;
922 [label="hoogte <= 37.0\nmse = 0.006\nsamples = 3\nvalue = 6.05"] ;
920 -> 922 ;
923 [label="hoogte <= 35.0\nmse = 0.002\nsamples = 2\nvalue = 6.0"] ;
922 -> 923 ;
924 [label="mse = 0.0\nsamples = 1\nvalue = 6.04"] ;
923 -> 924 ;
925 [label="mse = -0.0\nsamples = 1\nvalue = 5.96"] ;
923 -> 925 ;
926 [label="mse = 0.0\nsamples = 1\nvalue = 6.15"] ;
922 -> 926 ;
927 [label="hoogte <= 33.5\nmse = 0.004\nsamples = 4\nvalue = 6.228"] ;
915 -> 927 ;
928 [label="toespoor <= 1003.0\nmse = 0.001\nsamples = 2\nvalue = 6.285"] ;
927 -> 928 ;
929 [label="mse = 0.0\nsamples = 1\nvalue = 6.26"] ;
928 -> 929 ;
930 [label="mse = -0.0\nsamples = 1\nvalue = 6.31"] ;
928 -> 930 ;
931 [label="mse = -0.0\nsamples = 2\nvalue = 6.17"] ;
927 -> 931 ;
932 [label="toespoor <= 1002.5\nmse = 0.002\nsamples = 2\nvalue = 6.325"] ;
910 -> 932 ;
933 [label="mse = 0.0\nsamples = 1\nvalue = 6.37"] ;
932 -> 933 ;
934 [label="mse = -0.0\nsamples = 1\nvalue = 6.28"] ;
932 -> 934 ;
935 [label="bandendruk <= 0.75\nmse = 0.054\nsamples = 21\nvalue = 6.234"] ;
909 -> 935 ;
936 [label="camber <= -0.45\nmse = 0.053\nsamples = 19\nvalue = 6.208"] ;
935 -> 936 ;
937 [label="toespoor <= 1002.5\nmse = 0.035\nsamples = 7\nvalue = 6.301"] ;
936 -> 937 ;
938 [label="hoogte <= 36.5\nmse = 0.027\nsamples = 3\nvalue = 6.47"] ;
937 -> 938 ;
939 [label="toespoor <= 1000.5\nmse = 0.0\nsamples = 2\nvalue = 6.585"] ;
938 -> 939 ;
940 [label="mse = 0.0\nsamples = 1\nvalue = 6.57"] ;
939 -> 940 ;
941 [label="mse = -0.0\nsamples = 1\nvalue = 6.6"] ;
939 -> 941 ;
942 [label="mse = 0.0\nsamples = 1\nvalue = 6.24"] ;
938 -> 942 ;
943 [label="toespoor <= 1003.5\nmse = 0.003\nsamples = 4\nvalue = 6.175"] ;
937 -> 943 ;
944 [label="mse = 0.0\nsamples = 1\nvalue = 6.09"] ;
943 -> 944 ;
945 [label="toespoor <= 1004.5\nmse = 0.001\nsamples = 3\nvalue = 6.203"] ;
943 -> 945 ;
946 [label="bandendruk <= 0.65\nmse = 0.0\nsamples = 2\nvalue = 6.18"] ;
945 -> 946 ;
947 [label="mse = 0.0\nsamples = 1\nvalue = 6.17"] ;
946 -> 947 ;
948 [label="mse = 0.0\nsamples = 1\nvalue = 6.19"] ;
946 -> 948 ;
949 [label="mse = 0.0\nsamples = 1\nvalue = 6.25"] ;
945 -> 949 ;
950 [label="hoogte <= 33.5\nmse = 0.056\nsamples = 12\nvalue = 6.154"] ;
936 -> 950 ;
951 [label="camber <= -0.25\nmse = 0.052\nsamples = 3\nvalue = 6.327"] ;
950 -> 951 ;
952 [label="hoogte <= 32.5\nmse = 0.021\nsamples = 2\nvalue = 6.465"] ;
951 -> 952 ;
953 [label="mse = 0.0\nsamples = 1\nvalue = 6.32"] ;
952 -> 953 ;
954 [label="mse = 0.0\nsamples = 1\nvalue = 6.61"] ;
952 -> 954 ;
955 [label="mse = 0.0\nsamples = 1\nvalue = 6.05"] ;
951 -> 955 ;
956 [label="camber <= -0.25\nmse = 0.044\nsamples = 9\nvalue = 6.097"] ;
950 -> 956 ;
957 [label="toespoor <= 999.0\nmse = 0.027\nsamples = 5\nvalue = 5.962"] ;
956 -> 957 ;
958 [label="mse = 0.0\nsamples = 1\nvalue = 6.25"] ;
957 -> 958 ;
959 [label="toespoor <= 1004.5\nmse = 0.008\nsamples = 4\nvalue = 5.89"] ;
957 -> 959 ;
960 [label="bandendruk <= 0.65\nmse = 0.003\nsamples = 3\nvalue = 5.847"] ;
959 -> 960 ;
961 [label="mse = 0.0\nsamples = 1\nvalue = 5.91"] ;
960 -> 961 ;
962 [label="camber <= -0.35\nmse = 0.001\nsamples = 2\nvalue = 5.815"] ;
960 -> 962 ;
963 [label="mse = 0.0\nsamples = 1\nvalue = 5.85"] ;
962 -> 963 ;
964 [label="mse = 0.0\nsamples = 1\nvalue = 5.78"] ;
962 -> 964 ;
965 [label="mse = 0.0\nsamples = 1\nvalue = 6.02"] ;
959 -> 965 ;
966 [label="hoogte <= 37.5\nmse = 0.015\nsamples = 4\nvalue = 6.265"] ;
956 -> 966 ;
967 [label="hoogte <= 36.0\nmse = 0.003\nsamples = 3\nvalue = 6.33"] ;
966 -> 967 ;
968 [label="bandendruk <= 0.65\nmse = 0.001\nsamples = 2\nvalue = 6.365"] ;
967 -> 968 ;
969 [label="mse = 0.0\nsamples = 1\nvalue = 6.39"] ;
968 -> 969 ;
970 [label="mse = -0.0\nsamples = 1\nvalue = 6.34"] ;
968 -> 970 ;
971 [label="mse = -0.0\nsamples = 1\nvalue = 6.26"] ;
967 -> 971 ;
972 [label="mse = -0.0\nsamples = 1\nvalue = 6.07"] ;
966 -> 972 ;
973 [label="camber <= -0.25\nmse = 0.0\nsamples = 2\nvalue = 6.475"] ;
935 -> 973 ;
974 [label="mse = 0.0\nsamples = 1\nvalue = 6.49"] ;
973 -> 974 ;
975 [label="mse = 0.0\nsamples = 1\nvalue = 6.46"] ;
973 -> 975 ;
976 [label="toespoor <= 1002.5\nmse = 0.028\nsamples = 6\nvalue = 6.03"] ;
908 -> 976 ;
977 [label="bandendruk <= 0.75\nmse = 0.013\nsamples = 4\nvalue = 6.118"] ;
976 -> 977 ;
978 [label="bandendruk <= 0.65\nmse = 0.005\nsamples = 2\nvalue = 6.02"] ;
977 -> 978 ;
979 [label="mse = 0.0\nsamples = 1\nvalue = 5.95"] ;
978 -> 979 ;
980 [label="mse = 0.0\nsamples = 1\nvalue = 6.09"] ;
978 -> 980 ;
981 [label="camber <= -0.05\nmse = 0.002\nsamples = 2\nvalue = 6.215"] ;
977 -> 981 ;
982 [label="mse = 0.0\nsamples = 1\nvalue = 6.26"] ;
981 -> 982 ;
983 [label="mse = -0.0\nsamples = 1\nvalue = 6.17"] ;
981 -> 983 ;
984 [label="bandendruk <= 0.75\nmse = 0.011\nsamples = 2\nvalue = 5.855"] ;
976 -> 984 ;
985 [label="mse = 0.0\nsamples = 1\nvalue = 5.96"] ;
984 -> 985 ;
986 [label="mse = 0.0\nsamples = 1\nvalue = 5.75"] ;
984 -> 986 ;
987 [label="camber <= -0.75\nmse = 0.022\nsamples = 5\nvalue = 5.95"] ;
907 -> 987 ;
988 [label="toespoor <= 1002.0\nmse = 0.017\nsamples = 2\nvalue = 6.09"] ;
987 -> 988 ;
989 [label="mse = 0.0\nsamples = 1\nvalue = 6.22"] ;
988 -> 989 ;
990 [label="mse = 0.0\nsamples = 1\nvalue = 5.96"] ;
988 -> 990 ;
991 [label="bandendruk <= 0.75\nmse = 0.004\nsamples = 3\nvalue = 5.857"] ;
987 -> 991 ;
992 [label="toespoor <= 1002.0\nmse = 0.002\nsamples = 2\nvalue = 5.82"] ;
991 -> 992 ;
993 [label="mse = 0.0\nsamples = 1\nvalue = 5.86"] ;
992 -> 993 ;
994 [label="mse = 0.0\nsamples = 1\nvalue = 5.78"] ;
992 -> 994 ;
995 [label="mse = -0.0\nsamples = 1\nvalue = 5.93"] ;
991 -> 995 ;
996 [label="toespoor <= 997.5\nmse = 0.063\nsamples = 182\nvalue = 6.543"] ;
628 -> 996 ;
997 [label="bandendruk <= 0.75\nmse = 0.059\nsamples = 44\nvalue = 6.406"] ;
996 -> 997 ;
998 [label="toespoor <= 996.5\nmse = 0.056\nsamples = 33\nvalue = 6.353"] ;
997 -> 998 ;
999 [label="hoogte <= 31.0\nmse = 0.051\nsamples = 26\nvalue = 6.392"] ;
998 -> 999 ;
1000 [label="bandendruk <= 0.65\nmse = 0.035\nsamples = 15\nvalue = 6.469"] ;
999 -> 1000 ;
1001 [label="hoogte <= 25.0\nmse = 0.038\nsamples = 7\nvalue = 6.369"] ;
1000 -> 1001 ;
1002 [label="camber <= -0.35\nmse = 0.025\nsamples = 5\nvalue = 6.452"] ;
1001 -> 1002 ;
1003 [label="hoogte <= 21.5\nmse = 0.022\nsamples = 3\nvalue = 6.377"] ;
1002 -> 1003 ;
1004 [label="mse = 0.0\nsamples = 1\nvalue = 6.18"] ;
1003 -> 1004 ;
1005 [label="camber <= -0.55\nmse = 0.004\nsamples = 2\nvalue = 6.475"] ;
1003 -> 1005 ;
1006 [label="mse = 0.0\nsamples = 1\nvalue = 6.41"] ;
1005 -> 1006 ;
1007 [label="mse = 0.0\nsamples = 1\nvalue = 6.54"] ;
1005 -> 1007 ;
1008 [label="hoogte <= 22.0\nmse = 0.009\nsamples = 2\nvalue = 6.565"] ;
1002 -> 1008 ;
1009 [label="mse = 0.0\nsamples = 1\nvalue = 6.66"] ;
1008 -> 1009 ;
1010 [label="mse = 0.0\nsamples = 1\nvalue = 6.47"] ;
1008 -> 1010 ;
1011 [label="toespoor <= 995.5\nmse = 0.008\nsamples = 2\nvalue = 6.16"] ;
1001 -> 1011 ;
1012 [label="mse = 0.0\nsamples = 1\nvalue = 6.25"] ;
1011 -> 1012 ;
1013 [label="mse = -0.0\nsamples = 1\nvalue = 6.07"] ;
1011 -> 1013 ;
1014 [label="hoogte <= 26.0\nmse = 0.015\nsamples = 8\nvalue = 6.556"] ;
1000 -> 1014 ;
1015 [label="hoogte <= 23.5\nmse = 0.011\nsamples = 6\nvalue = 6.507"] ;
1014 -> 1015 ;
1016 [label="camber <= -0.05\nmse = 0.007\nsamples = 5\nvalue = 6.538"] ;
1015 -> 1016 ;
1017 [label="camber <= -0.4\nmse = 0.005\nsamples = 4\nvalue = 6.565"] ;
1016 -> 1017 ;
1018 [label="toespoor <= 995.5\nmse = 0.001\nsamples = 2\nvalue = 6.505"] ;
1017 -> 1018 ;
1019 [label="mse = 0.0\nsamples = 1\nvalue = 6.47"] ;
1018 -> 1019 ;
1020 [label="mse = 0.0\nsamples = 1\nvalue = 6.54"] ;
1018 -> 1020 ;
1021 [label="mse = 0.002\nsamples = 2\nvalue = 6.625"] ;
1017 -> 1021 ;
1022 [label="mse = 0.0\nsamples = 1\nvalue = 6.43"] ;
1016 -> 1022 ;
1023 [label="mse = -0.0\nsamples = 1\nvalue = 6.35"] ;
1015 -> 1023 ;
1024 [label="camber <= -0.75\nmse = 0.0\nsamples = 2\nvalue = 6.705"] ;
1014 -> 1024 ;
1025 [label="mse = 0.0\nsamples = 1\nvalue = 6.7"] ;
1024 -> 1025 ;
1026 [label="mse = -0.0\nsamples = 1\nvalue = 6.71"] ;
1024 -> 1026 ;
1027 [label="bandendruk <= 0.65\nmse = 0.053\nsamples = 11\nvalue = 6.286"] ;
999 -> 1027 ;
1028 [label="camber <= -0.8\nmse = 0.004\nsamples = 3\nvalue = 6.137"] ;
1027 -> 1028 ;
1029 [label="hoogte <= 34.0\nmse = 0.001\nsamples = 2\nvalue = 6.18"] ;
1028 -> 1029 ;
1030 [label="mse = 0.0\nsamples = 1\nvalue = 6.15"] ;
1029 -> 1030 ;
1031 [label="mse = 0.0\nsamples = 1\nvalue = 6.21"] ;
1029 -> 1031 ;
1032 [label="mse = 0.0\nsamples = 1\nvalue = 6.05"] ;
1028 -> 1032 ;
1033 [label="camber <= -0.7\nmse = 0.06\nsamples = 8\nvalue = 6.343"] ;
1027 -> 1033 ;
1034 [label="mse = 0.0\nsamples = 1\nvalue = 6.73"] ;
1033 -> 1034 ;
1035 [label="hoogte <= 38.5\nmse = 0.044\nsamples = 7\nvalue = 6.287"] ;
1033 -> 1035 ;
1036 [label="hoogte <= 32.5\nmse = 0.024\nsamples = 5\nvalue = 6.218"] ;
1035 -> 1036 ;
1037 [label="mse = 0.0\nsamples = 1\nvalue = 6.5"] ;
1036 -> 1037 ;
1038 [label="camber <= -0.45\nmse = 0.005\nsamples = 4\nvalue = 6.148"] ;
1036 -> 1038 ;
1039 [label="hoogte <= 33.5\nmse = 0.0\nsamples = 2\nvalue = 6.085"] ;
1038 -> 1039 ;
1040 [label="mse = 0.0\nsamples = 1\nvalue = 6.09"] ;
1039 -> 1040 ;
1041 [label="mse = -0.0\nsamples = 1\nvalue = 6.08"] ;
1039 -> 1041 ;
1042 [label="hoogte <= 36.0\nmse = 0.002\nsamples = 2\nvalue = 6.21"] ;
1038 -> 1042 ;
1043 [label="mse = 0.0\nsamples = 1\nvalue = 6.17"] ;
1042 -> 1043 ;
1044 [label="mse = 0.0\nsamples = 1\nvalue = 6.25"] ;
1042 -> 1044 ;
1045 [label="hoogte <= 39.5\nmse = 0.053\nsamples = 2\nvalue = 6.46"] ;
1035 -> 1045 ;
1046 [label="mse = 0.0\nsamples = 1\nvalue = 6.69"] ;
1045 -> 1046 ;
1047 [label="mse = 0.0\nsamples = 1\nvalue = 6.23"] ;
1045 -> 1047 ;
1048 [label="bandendruk <= 0.65\nmse = 0.051\nsamples = 7\nvalue = 6.211"] ;
998 -> 1048 ;
1049 [label="camber <= -0.45\nmse = 0.044\nsamples = 3\nvalue = 6.343"] ;
1048 -> 1049 ;
1050 [label="mse = 0.0\nsamples = 1\nvalue = 6.32"] ;
1049 -> 1050 ;
1051 [label="mse = 0.065\nsamples = 2\nvalue = 6.355"] ;
1049 -> 1051 ;
1052 [label="hoogte <= 30.5\nmse = 0.034\nsamples = 4\nvalue = 6.113"] ;
1048 -> 1052 ;
1053 [label="camber <= -0.55\nmse = 0.029\nsamples = 3\nvalue = 6.05"] ;
1052 -> 1053 ;
1054 [label="mse = 0.0\nsamples = 1\nvalue = 5.84"] ;
1053 -> 1054 ;
1055 [label="camber <= -0.3\nmse = 0.011\nsamples = 2\nvalue = 6.155"] ;
1053 -> 1055 ;
1056 [label="mse = 0.0\nsamples = 1\nvalue = 6.05"] ;
1055 -> 1056 ;
1057 [label="mse = 0.0\nsamples = 1\nvalue = 6.26"] ;
1055 -> 1057 ;
1058 [label="mse = 0.0\nsamples = 1\nvalue = 6.3"] ;
1052 -> 1058 ;
1059 [label="toespoor <= 996.5\nmse = 0.033\nsamples = 11\nvalue = 6.563"] ;
997 -> 1059 ;
1060 [label="hoogte <= 27.5\nmse = 0.006\nsamples = 4\nvalue = 6.43"] ;
1059 -> 1060 ;
1061 [label="mse = 0.0\nsamples = 1\nvalue = 6.3"] ;
1060 -> 1061 ;
1062 [label="camber <= -0.45\nmse = 0.001\nsamples = 3\nvalue = 6.473"] ;
1060 -> 1062 ;
1063 [label="toespoor <= 995.5\nmse = 0.0\nsamples = 2\nvalue = 6.495"] ;
1062 -> 1063 ;
1064 [label="mse = 0.0\nsamples = 1\nvalue = 6.48"] ;
1063 -> 1064 ;
1065 [label="mse = 0.0\nsamples = 1\nvalue = 6.51"] ;
1063 -> 1065 ;
1066 [label="mse = 0.0\nsamples = 1\nvalue = 6.43"] ;
1062 -> 1066 ;
1067 [label="camber <= -0.05\nmse = 0.033\nsamples = 7\nvalue = 6.639"] ;
1059 -> 1067 ;
1068 [label="camber <= -0.65\nmse = 0.027\nsamples = 6\nvalue = 6.598"] ;
1067 -> 1068 ;
1069 [label="mse = 0.036\nsamples = 2\nvalue = 6.7"] ;
1068 -> 1069 ;
1070 [label="hoogte <= 23.5\nmse = 0.015\nsamples = 4\nvalue = 6.547"] ;
1068 -> 1070 ;
1071 [label="mse = 0.0\nsamples = 1\nvalue = 6.73"] ;
1070 -> 1071 ;
1072 [label="hoogte <= 34.0\nmse = 0.005\nsamples = 3\nvalue = 6.487"] ;
1070 -> 1072 ;
1073 [label="hoogte <= 26.0\nmse = 0.004\nsamples = 2\nvalue = 6.45"] ;
1072 -> 1073 ;
1074 [label="mse = 0.0\nsamples = 1\nvalue = 6.51"] ;
1073 -> 1074 ;
1075 [label="mse = 0.0\nsamples = 1\nvalue = 6.39"] ;
1073 -> 1075 ;
1076 [label="mse = 0.0\nsamples = 1\nvalue = 6.56"] ;
1072 -> 1076 ;
1077 [label="mse = -0.0\nsamples = 1\nvalue = 6.88"] ;
1067 -> 1077 ;
1078 [label="hoogte <= 35.5\nmse = 0.057\nsamples = 138\nvalue = 6.586"] ;
996 -> 1078 ;
1079 [label="camber <= -0.15\nmse = 0.056\nsamples = 101\nvalue = 6.623"] ;
1078 -> 1079 ;
1080 [label="bandendruk <= 0.75\nmse = 0.05\nsamples = 90\nvalue = 6.596"] ;
1079 -> 1080 ;
1081 [label="toespoor <= 1002.5\nmse = 0.047\nsamples = 69\nvalue = 6.569"] ;
1080 -> 1081 ;
1082 [label="hoogte <= 32.5\nmse = 0.049\nsamples = 45\nvalue = 6.602"] ;
1081 -> 1082 ;
1083 [label="hoogte <= 31.5\nmse = 0.047\nsamples = 37\nvalue = 6.564"] ;
1082 -> 1083 ;
1084 [label="bandendruk <= 0.65\nmse = 0.034\nsamples = 32\nvalue = 6.598"] ;
1083 -> 1084 ;
1085 [label="hoogte <= 24.0\nmse = 0.028\nsamples = 11\nvalue = 6.673"] ;
1084 -> 1085 ;
1086 [label="hoogte <= 21.5\nmse = 0.001\nsamples = 2\nvalue = 6.905"] ;
1085 -> 1086 ;
1087 [label="mse = 0.0\nsamples = 1\nvalue = 6.87"] ;
1086 -> 1087 ;
1088 [label="mse = 0.0\nsamples = 1\nvalue = 6.94"] ;
1086 -> 1088 ;
1089 [label="toespoor <= 1001.5\nmse = 0.019\nsamples = 9\nvalue = 6.621"] ;
1085 -> 1089 ;
1090 [label="hoogte <= 30.5\nmse = 0.008\nsamples = 7\nvalue = 6.561"] ;
1089 -> 1090 ;
1091 [label="toespoor <= 1000.5\nmse = 0.004\nsamples = 6\nvalue = 6.533"] ;
1090 -> 1091 ;
1092 [label="toespoor <= 998.5\nmse = 0.002\nsamples = 5\nvalue = 6.512"] ;
1091 -> 1092 ;
1093 [label="hoogte <= 27.5\nmse = 0.0\nsamples = 2\nvalue = 6.565"] ;
1092 -> 1093 ;
1094 [label="mse = 0.0\nsamples = 1\nvalue = 6.57"] ;
1093 -> 1094 ;
1095 [label="mse = 0.0\nsamples = 1\nvalue = 6.56"] ;
1093 -> 1095 ;
1096 [label="hoogte <= 27.0\nmse = 0.001\nsamples = 3\nvalue = 6.477"] ;
1092 -> 1096 ;
1097 [label="mse = 0.0\nsamples = 1\nvalue = 6.44"] ;
1096 -> 1097 ;
1098 [label="camber <= -0.4\nmse = 0.0\nsamples = 2\nvalue = 6.495"] ;
1096 -> 1098 ;
1099 [label="mse = 0.0\nsamples = 1\nvalue = 6.49"] ;
1098 -> 1099 ;
1100 [label="mse = 0.0\nsamples = 1\nvalue = 6.5"] ;
1098 -> 1100 ;
1101 [label="mse = 0.0\nsamples = 1\nvalue = 6.64"] ;
1091 -> 1101 ;
1102 [label="mse = 0.0\nsamples = 1\nvalue = 6.73"] ;
1090 -> 1102 ;
1103 [label="hoogte <= 29.0\nmse = 0.0\nsamples = 2\nvalue = 6.83"] ;
1089 -> 1103 ;
1104 [label="mse = 0.0\nsamples = 1\nvalue = 6.82"] ;
1103 -> 1104 ;
1105 [label="mse = 0.0\nsamples = 1\nvalue = 6.84"] ;
1103 -> 1105 ;
1106 [label="hoogte <= 27.5\nmse = 0.033\nsamples = 21\nvalue = 6.56"] ;
1084 -> 1106 ;
1107 [label="camber <= -0.35\nmse = 0.03\nsamples = 15\nvalue = 6.519"] ;
1106 -> 1107 ;
1108 [label="toespoor <= 999.5\nmse = 0.021\nsamples = 11\nvalue = 6.467"] ;
1107 -> 1108 ;
1109 [label="camber <= -0.95\nmse = 0.012\nsamples = 4\nvalue = 6.613"] ;
1108 -> 1109 ;
1110 [label="mse = 0.0\nsamples = 1\nvalue = 6.79"] ;
1109 -> 1110 ;
1111 [label="toespoor <= 998.5\nmse = 0.002\nsamples = 3\nvalue = 6.553"] ;
1109 -> 1111 ;
1112 [label="mse = 0.0\nsamples = 1\nvalue = 6.61"] ;
1111 -> 1112 ;
1113 [label="hoogte <= 23.5\nmse = 0.0\nsamples = 2\nvalue = 6.525"] ;
1111 -> 1113 ;
1114 [label="mse = 0.0\nsamples = 1\nvalue = 6.54"] ;
1113 -> 1114 ;
1115 [label="mse = 0.0\nsamples = 1\nvalue = 6.51"] ;
1113 -> 1115 ;
1116 [label="camber <= -0.75\nmse = 0.008\nsamples = 7\nvalue = 6.384"] ;
1108 -> 1116 ;
1117 [label="camber <= -0.95\nmse = 0.003\nsamples = 4\nvalue = 6.445"] ;
1116 -> 1117 ;
1118 [label="hoogte <= 22.5\nmse = 0.001\nsamples = 2\nvalue = 6.405"] ;
1117 -> 1118 ;
1119 [label="mse = 0.0\nsamples = 1\nvalue = 6.38"] ;
1118 -> 1119 ;
1120 [label="mse = 0.0\nsamples = 1\nvalue = 6.43"] ;
1118 -> 1120 ;
1121 [label="toespoor <= 1001.5\nmse = 0.001\nsamples = 2\nvalue = 6.485"] ;
1117 -> 1121 ;
1122 [label="mse = 0.0\nsamples = 1\nvalue = 6.52"] ;
1121 -> 1122 ;
1123 [label="mse = 0.0\nsamples = 1\nvalue = 6.45"] ;
1121 -> 1123 ;
1124 [label="camber <= -0.5\nmse = 0.003\nsamples = 3\nvalue = 6.303"] ;
1116 -> 1124 ;
1125 [label="toespoor <= 1000.5\nmse = 0.0\nsamples = 2\nvalue = 6.265"] ;
1124 -> 1125 ;
1126 [label="mse = 0.0\nsamples = 1\nvalue = 6.27"] ;
1125 -> 1126 ;
1127 [label="mse = 0.0\nsamples = 1\nvalue = 6.26"] ;
1125 -> 1127 ;
1128 [label="mse = 0.0\nsamples = 1\nvalue = 6.38"] ;
1124 -> 1128 ;
1129 [label="toespoor <= 999.0\nmse = 0.025\nsamples = 4\nvalue = 6.663"] ;
1107 -> 1129 ;
1130 [label="mse = 0.0\nsamples = 1\nvalue = 6.41"] ;
1129 -> 1130 ;
1131 [label="toespoor <= 1000.5\nmse = 0.005\nsamples = 3\nvalue = 6.747"] ;
1129 -> 1131 ;
1132 [label="hoogte <= 24.0\nmse = 0.004\nsamples = 2\nvalue = 6.71"] ;
1131 -> 1132 ;
1133 [label="mse = 0.0\nsamples = 1\nvalue = 6.65"] ;
1132 -> 1133 ;
1134 [label="mse = -0.0\nsamples = 1\nvalue = 6.77"] ;
1132 -> 1134 ;
1135 [label="mse = 0.0\nsamples = 1\nvalue = 6.82"] ;
1131 -> 1135 ;
1136 [label="toespoor <= 999.5\nmse = 0.026\nsamples = 6\nvalue = 6.66"] ;
1106 -> 1136 ;
1137 [label="mse = 0.0\nsamples = 1\nvalue = 6.88"] ;
1136 -> 1137 ;
1138 [label="toespoor <= 1000.5\nmse = 0.019\nsamples = 5\nvalue = 6.616"] ;
1136 -> 1138 ;
1139 [label="mse = 0.0\nsamples = 1\nvalue = 6.41"] ;
1138 -> 1139 ;
1140 [label="camber <= -0.5\nmse = 0.011\nsamples = 4\nvalue = 6.668"] ;
1138 -> 1140 ;
1141 [label="mse = 0.021\nsamples = 2\nvalue = 6.655"] ;
1140 -> 1141 ;
1142 [label="toespoor <= 1001.5\nmse = 0.0\nsamples = 2\nvalue = 6.68"] ;
1140 -> 1142 ;
1143 [label="mse = 0.0\nsamples = 1\nvalue = 6.7"] ;
1142 -> 1143 ;
1144 [label="mse = 0.0\nsamples = 1\nvalue = 6.66"] ;
1142 -> 1144 ;
1145 [label="toespoor <= 999.5\nmse = 0.073\nsamples = 5\nvalue = 6.342"] ;
1083 -> 1145 ;
1146 [label="bandendruk <= 0.65\nmse = 0.004\nsamples = 2\nvalue = 6.07"] ;
1145 -> 1146 ;
1147 [label="mse = 0.0\nsamples = 1\nvalue = 6.01"] ;
1146 -> 1147 ;
1148 [label="mse = -0.0\nsamples = 1\nvalue = 6.13"] ;
1146 -> 1148 ;
1149 [label="camber <= -0.4\nmse = 0.038\nsamples = 3\nvalue = 6.523"] ;
1145 -> 1149 ;
1150 [label="camber <= -0.65\nmse = 0.0\nsamples = 2\nvalue = 6.66"] ;
1149 -> 1150 ;
1151 [label="mse = 0.0\nsamples = 1\nvalue = 6.68"] ;
1150 -> 1151 ;
1152 [label="mse = -0.0\nsamples = 1\nvalue = 6.64"] ;
1150 -> 1152 ;
1153 [label="mse = 0.0\nsamples = 1\nvalue = 6.25"] ;
1149 -> 1153 ;
1154 [label="camber <= -0.75\nmse = 0.019\nsamples = 8\nvalue = 6.78"] ;
1082 -> 1154 ;
1155 [label="camber <= -0.9\nmse = 0.022\nsamples = 3\nvalue = 6.7"] ;
1154 -> 1155 ;
1156 [label="mse = 0.0\nsamples = 1\nvalue = 6.7"] ;
1155 -> 1156 ;
1157 [label="mse = 0.032\nsamples = 2\nvalue = 6.7"] ;
1155 -> 1157 ;
1158 [label="toespoor <= 999.5\nmse = 0.011\nsamples = 5\nvalue = 6.828"] ;
1154 -> 1158 ;
1159 [label="mse = 0.0\nsamples = 1\nvalue = 7.01"] ;
1158 -> 1159 ;
1160 [label="bandendruk <= 0.65\nmse = 0.003\nsamples = 4\nvalue = 6.783"] ;
1158 -> 1160 ;
1161 [label="hoogte <= 34.0\nmse = 0.002\nsamples = 3\nvalue = 6.76"] ;
1160 -> 1161 ;
1162 [label="camber <= -0.4\nmse = 0.0\nsamples = 2\nvalue = 6.725"] ;
1161 -> 1162 ;
1163 [label="mse = 0.0\nsamples = 1\nvalue = 6.73"] ;
1162 -> 1163 ;
1164 [label="mse = 0.0\nsamples = 1\nvalue = 6.72"] ;
1162 -> 1164 ;
1165 [label="mse = 0.0\nsamples = 1\nvalue = 6.83"] ;
1161 -> 1165 ;
1166 [label="mse = -0.0\nsamples = 1\nvalue = 6.85"] ;
1160 -> 1166 ;
1167 [label="camber <= -0.45\nmse = 0.038\nsamples = 24\nvalue = 6.507"] ;
1081 -> 1167 ;
1168 [label="camber <= -0.65\nmse = 0.006\nsamples = 14\nvalue = 6.451"] ;
1167 -> 1168 ;
1169 [label="camber <= -0.75\nmse = 0.006\nsamples = 11\nvalue = 6.465"] ;
1168 -> 1169 ;
1170 [label="hoogte <= 32.5\nmse = 0.005\nsamples = 10\nvalue = 6.452"] ;
1169 -> 1170 ;
1171 [label="toespoor <= 1003.5\nmse = 0.005\nsamples = 7\nvalue = 6.427"] ;
1170 -> 1171 ;
1172 [label="mse = 0.0\nsamples = 1\nvalue = 6.33"] ;
1171 -> 1172 ;
1173 [label="toespoor <= 1004.5\nmse = 0.004\nsamples = 6\nvalue = 6.443"] ;
1171 -> 1173 ;
1174 [label="mse = 0.0\nsamples = 1\nvalue = 6.58"] ;
1173 -> 1174 ;
1175 [label="hoogte <= 23.5\nmse = 0.0\nsamples = 5\nvalue = 6.416"] ;
1173 -> 1175 ;
1176 [label="mse = 0.0\nsamples = 1\nvalue = 6.38"] ;
1175 -> 1176 ;
1177 [label="hoogte <= 26.0\nmse = 0.0\nsamples = 4\nvalue = 6.425"] ;
1175 -> 1177 ;
1178 [label="mse = 0.0\nsamples = 1\nvalue = 6.41"] ;
1177 -> 1178 ;
1179 [label="mse = 0.0\nsamples = 3\nvalue = 6.43"] ;
1177 -> 1179 ;
1180 [label="toespoor <= 1004.0\nmse = 0.001\nsamples = 3\nvalue = 6.51"] ;
1170 -> 1180 ;
1181 [label="camber <= -0.9\nmse = 0.0\nsamples = 2\nvalue = 6.53"] ;
1180 -> 1181 ;
1182 [label="mse = 0.0\nsamples = 1\nvalue = 6.52"] ;
1181 -> 1182 ;
1183 [label="mse = 0.0\nsamples = 1\nvalue = 6.54"] ;
1181 -> 1183 ;
1184 [label="mse = 0.0\nsamples = 1\nvalue = 6.47"] ;
1180 -> 1184 ;
1185 [label="mse = -0.0\nsamples = 1\nvalue = 6.59"] ;
1169 -> 1185 ;
1186 [label="toespoor <= 1004.5\nmse = 0.0\nsamples = 3\nvalue = 6.403"] ;
1168 -> 1186 ;
1187 [label="toespoor <= 1003.5\nmse = 0.0\nsamples = 2\nvalue = 6.415"] ;
1186 -> 1187 ;
1188 [label="mse = 0.0\nsamples = 1\nvalue = 6.41"] ;
1187 -> 1188 ;
1189 [label="mse = 0.0\nsamples = 1\nvalue = 6.42"] ;
1187 -> 1189 ;
1190 [label="mse = 0.0\nsamples = 1\nvalue = 6.38"] ;
1186 -> 1190 ;
1191 [label="hoogte <= 33.0\nmse = 0.072\nsamples = 10\nvalue = 6.584"] ;
1167 -> 1191 ;
1192 [label="toespoor <= 1004.5\nmse = 0.056\nsamples = 9\nvalue = 6.633"] ;
1191 -> 1192 ;
1193 [label="toespoor <= 1003.5\nmse = 0.033\nsamples = 4\nvalue = 6.755"] ;
1192 -> 1193 ;
1194 [label="camber <= -0.25\nmse = 0.008\nsamples = 3\nvalue = 6.66"] ;
1193 -> 1194 ;
1195 [label="camber <= -0.35\nmse = 0.001\nsamples = 2\nvalue = 6.72"] ;
1194 -> 1195 ;
1196 [label="mse = 0.0\nsamples = 1\nvalue = 6.69"] ;
1195 -> 1196 ;
1197 [label="mse = -0.0\nsamples = 1\nvalue = 6.75"] ;
1195 -> 1197 ;
1198 [label="mse = 0.0\nsamples = 1\nvalue = 6.54"] ;
1194 -> 1198 ;
1199 [label="mse = 0.0\nsamples = 1\nvalue = 7.04"] ;
1193 -> 1199 ;
1200 [label="camber <= -0.35\nmse = 0.053\nsamples = 5\nvalue = 6.536"] ;
1192 -> 1200 ;
1201 [label="hoogte <= 28.0\nmse = 0.031\nsamples = 2\nvalue = 6.725"] ;
1200 -> 1201 ;
1202 [label="mse = 0.0\nsamples = 1\nvalue = 6.55"] ;
1201 -> 1202 ;
1203 [label="mse = 0.0\nsamples = 1\nvalue = 6.9"] ;
1201 -> 1203 ;
1204 [label="camber <= -0.25\nmse = 0.029\nsamples = 3\nvalue = 6.41"] ;
1200 -> 1204 ;
1205 [label="mse = 0.0\nsamples = 1\nvalue = 6.28"] ;
1204 -> 1205 ;
1206 [label="hoogte <= 29.0\nmse = 0.031\nsamples = 2\nvalue = 6.475"] ;
1204 -> 1206 ;
1207 [label="mse = 0.0\nsamples = 1\nvalue = 6.65"] ;
1206 -> 1207 ;
1208 [label="mse = 0.0\nsamples = 1\nvalue = 6.3"] ;
1206 -> 1208 ;
1209 [label="mse = -0.0\nsamples = 1\nvalue = 6.14"] ;
1191 -> 1209 ;
1210 [label="hoogte <= 34.5\nmse = 0.049\nsamples = 21\nvalue = 6.686"] ;
1080 -> 1210 ;
1211 [label="toespoor <= 999.5\nmse = 0.043\nsamples = 19\nvalue = 6.719"] ;
1210 -> 1211 ;
1212 [label="hoogte <= 27.5\nmse = 0.03\nsamples = 6\nvalue = 6.593"] ;
1211 -> 1212 ;
1213 [label="camber <= -0.5\nmse = 0.025\nsamples = 4\nvalue = 6.535"] ;
1212 -> 1213 ;
1214 [label="hoogte <= 23.0\nmse = 0.022\nsamples = 2\nvalue = 6.65"] ;
1213 -> 1214 ;
1215 [label="mse = 0.0\nsamples = 1\nvalue = 6.8"] ;
1214 -> 1215 ;
1216 [label="mse = -0.0\nsamples = 1\nvalue = 6.5"] ;
1214 -> 1216 ;
1217 [label="hoogte <= 22.5\nmse = 0.0\nsamples = 2\nvalue = 6.42"] ;
1213 -> 1217 ;
1218 [label="mse = 0.0\nsamples = 1\nvalue = 6.43"] ;
1217 -> 1218 ;
1219 [label="mse = -0.0\nsamples = 1\nvalue = 6.41"] ;
1217 -> 1219 ;
1220 [label="camber <= -0.45\nmse = 0.02\nsamples = 2\nvalue = 6.71"] ;
1212 -> 1220 ;
1221 [label="mse = 0.0\nsamples = 1\nvalue = 6.57"] ;
1220 -> 1221 ;
1222 [label="mse = 0.0\nsamples = 1\nvalue = 6.85"] ;
1220 -> 1222 ;
1223 [label="hoogte <= 22.5\nmse = 0.039\nsamples = 13\nvalue = 6.777"] ;
1211 -> 1223 ;
1224 [label="hoogte <= 20.5\nmse = 0.036\nsamples = 2\nvalue = 6.91"] ;
1223 -> 1224 ;
1225 [label="mse = 0.0\nsamples = 1\nvalue = 6.72"] ;
1224 -> 1225 ;
1226 [label="mse = -0.0\nsamples = 1\nvalue = 7.1"] ;
1224 -> 1226 ;
1227 [label="toespoor <= 1001.5\nmse = 0.036\nsamples = 11\nvalue = 6.753"] ;
1223 -> 1227 ;
1228 [label="hoogte <= 25.0\nmse = 0.001\nsamples = 3\nvalue = 6.87"] ;
1227 -> 1228 ;
1229 [label="mse = 0.0\nsamples = 1\nvalue = 6.84"] ;
1228 -> 1229 ;
1230 [label="camber <= -0.65\nmse = 0.0\nsamples = 2\nvalue = 6.885"] ;
1228 -> 1230 ;
1231 [label="mse = 0.0\nsamples = 1\nvalue = 6.9"] ;
1230 -> 1231 ;
1232 [label="mse = 0.0\nsamples = 1\nvalue = 6.87"] ;
1230 -> 1232 ;
1233 [label="hoogte <= 29.5\nmse = 0.042\nsamples = 8\nvalue = 6.709"] ;
1227 -> 1233 ;
1234 [label="camber <= -0.65\nmse = 0.039\nsamples = 4\nvalue = 6.595"] ;
1233 -> 1234 ;
1235 [label="toespoor <= 1002.5\nmse = 0.004\nsamples = 2\nvalue = 6.45"] ;
1234 -> 1235 ;
1236 [label="mse = 0.0\nsamples = 1\nvalue = 6.39"] ;
1235 -> 1236 ;
1237 [label="mse = 0.0\nsamples = 1\nvalue = 6.51"] ;
1235 -> 1237 ;
1238 [label="hoogte <= 26.5\nmse = 0.032\nsamples = 2\nvalue = 6.74"] ;
1234 -> 1238 ;
1239 [label="mse = 0.0\nsamples = 1\nvalue = 6.92"] ;
1238 -> 1239 ;
1240 [label="mse = -0.0\nsamples = 1\nvalue = 6.56"] ;
1238 -> 1240 ;
1241 [label="toespoor <= 1004.5\nmse = 0.019\nsamples = 4\nvalue = 6.822"] ;
1233 -> 1241 ;
1242 [label="toespoor <= 1003.0\nmse = 0.003\nsamples = 3\nvalue = 6.897"] ;
1241 -> 1242 ;
1243 [label="mse = 0.0\nsamples = 1\nvalue = 6.83"] ;
1242 -> 1243 ;
1244 [label="camber <= -0.75\nmse = 0.001\nsamples = 2\nvalue = 6.93"] ;
1242 -> 1244 ;
1245 [label="mse = 0.0\nsamples = 1\nvalue = 6.9"] ;
1244 -> 1245 ;
1246 [label="mse = 0.0\nsamples = 1\nvalue = 6.96"] ;
1244 -> 1246 ;
1247 [label="mse = -0.0\nsamples = 1\nvalue = 6.6"] ;
1241 -> 1247 ;
1248 [label="toespoor <= 999.5\nmse = 0.001\nsamples = 2\nvalue = 6.375"] ;
1210 -> 1248 ;
1249 [label="mse = 0.0\nsamples = 1\nvalue = 6.4"] ;
1248 -> 1249 ;
1250 [label="mse = -0.0\nsamples = 1\nvalue = 6.35"] ;
1248 -> 1250 ;
1251 [label="toespoor <= 999.5\nmse = 0.054\nsamples = 11\nvalue = 6.841"] ;
1079 -> 1251 ;
1252 [label="hoogte <= 32.0\nmse = 0.017\nsamples = 2\nvalue = 6.61"] ;
1251 -> 1252 ;
1253 [label="mse = 0.0\nsamples = 1\nvalue = 6.48"] ;
1252 -> 1253 ;
1254 [label="mse = -0.0\nsamples = 1\nvalue = 6.74"] ;
1252 -> 1254 ;
1255 [label="toespoor <= 1004.5\nmse = 0.048\nsamples = 9\nvalue = 6.892"] ;
1251 -> 1255 ;
1256 [label="camber <= -0.05\nmse = 0.028\nsamples = 6\nvalue = 7.005"] ;
1255 -> 1256 ;
1257 [label="toespoor <= 1002.0\nmse = 0.029\nsamples = 4\nvalue = 6.94"] ;
1256 -> 1257 ;
1258 [label="mse = 0.0\nsamples = 1\nvalue = 6.65"] ;
1257 -> 1258 ;
1259 [label="toespoor <= 1003.5\nmse = 0.001\nsamples = 3\nvalue = 7.037"] ;
1257 -> 1259 ;
1260 [label="mse = 0.0\nsamples = 1\nvalue = 7.0"] ;
1259 -> 1260 ;
1261 [label="bandendruk <= 0.75\nmse = 0.0\nsamples = 2\nvalue = 7.055"] ;
1259 -> 1261 ;
1262 [label="mse = 0.0\nsamples = 1\nvalue = 7.06"] ;
1261 -> 1262 ;
1263 [label="mse = 0.0\nsamples = 1\nvalue = 7.05"] ;
1261 -> 1263 ;
1264 [label="hoogte <= 25.5\nmse = 0.0\nsamples = 2\nvalue = 7.135"] ;
1256 -> 1264 ;
1265 [label="mse = 0.0\nsamples = 1\nvalue = 7.12"] ;
1264 -> 1265 ;
1266 [label="mse = 0.0\nsamples = 1\nvalue = 7.15"] ;
1264 -> 1266 ;
1267 [label="camber <= -0.05\nmse = 0.012\nsamples = 3\nvalue = 6.667"] ;
1255 -> 1267 ;
1268 [label="bandendruk <= 0.65\nmse = 0.012\nsamples = 2\nvalue = 6.62"] ;
1267 -> 1268 ;
1269 [label="mse = 0.0\nsamples = 1\nvalue = 6.73"] ;
1268 -> 1269 ;
1270 [label="mse = 0.0\nsamples = 1\nvalue = 6.51"] ;
1268 -> 1270 ;
1271 [label="mse = 0.0\nsamples = 1\nvalue = 6.76"] ;
1267 -> 1271 ;
1272 [label="toespoor <= 1003.5\nmse = 0.044\nsamples = 37\nvalue = 6.487"] ;
1078 -> 1272 ;
1273 [label="toespoor <= 998.5\nmse = 0.037\nsamples = 29\nvalue = 6.523"] ;
1272 -> 1273 ;
1274 [label="camber <= -0.6\nmse = 0.004\nsamples = 2\nvalue = 6.275"] ;
1273 -> 1274 ;
1275 [label="mse = 0.0\nsamples = 1\nvalue = 6.34"] ;
1274 -> 1275 ;
1276 [label="mse = -0.0\nsamples = 1\nvalue = 6.21"] ;
1274 -> 1276 ;
1277 [label="camber <= -0.85\nmse = 0.035\nsamples = 27\nvalue = 6.541"] ;
1273 -> 1277 ;
1278 [label="hoogte <= 36.5\nmse = 0.005\nsamples = 3\nvalue = 6.37"] ;
1277 -> 1278 ;
1279 [label="mse = 0.0\nsamples = 1\nvalue = 6.47"] ;
1278 -> 1279 ;
1280 [label="mse = 0.0\nsamples = 2\nvalue = 6.32"] ;
1278 -> 1280 ;
1281 [label="camber <= -0.75\nmse = 0.034\nsamples = 24\nvalue = 6.562"] ;
1277 -> 1281 ;
1282 [label="toespoor <= 1000.5\nmse = 0.007\nsamples = 2\nvalue = 6.765"] ;
1281 -> 1282 ;
1283 [label="mse = 0.0\nsamples = 1\nvalue = 6.85"] ;
1282 -> 1283 ;
1284 [label="mse = -0.0\nsamples = 1\nvalue = 6.68"] ;
1282 -> 1284 ;
1285 [label="hoogte <= 37.5\nmse = 0.033\nsamples = 22\nvalue = 6.544"] ;
1281 -> 1285 ;
1286 [label="toespoor <= 1001.5\nmse = 0.018\nsamples = 5\nvalue = 6.414"] ;
1285 -> 1286 ;
1287 [label="bandendruk <= 0.75\nmse = 0.012\nsamples = 2\nvalue = 6.28"] ;
1286 -> 1287 ;
1288 [label="mse = 0.0\nsamples = 1\nvalue = 6.17"] ;
1287 -> 1288 ;
1289 [label="mse = 0.0\nsamples = 1\nvalue = 6.39"] ;
1287 -> 1289 ;
1290 [label="hoogte <= 36.5\nmse = 0.002\nsamples = 3\nvalue = 6.503"] ;
1286 -> 1290 ;
1291 [label="mse = 0.001\nsamples = 2\nvalue = 6.525"] ;
1290 -> 1291 ;
1292 [label="mse = -0.0\nsamples = 1\nvalue = 6.46"] ;
1290 -> 1292 ;
1293 [label="toespoor <= 999.5\nmse = 0.03\nsamples = 17\nvalue = 6.582"] ;
1285 -> 1293 ;
1294 [label="bandendruk <= 0.75\nmse = 0.011\nsamples = 5\nvalue = 6.474"] ;
1293 -> 1294 ;
1295 [label="camber <= -0.4\nmse = 0.002\nsamples = 3\nvalue = 6.393"] ;
1294 -> 1295 ;
1296 [label="bandendruk <= 0.65\nmse = 0.0\nsamples = 2\nvalue = 6.365"] ;
1295 -> 1296 ;
1297 [label="mse = 0.0\nsamples = 1\nvalue = 6.37"] ;
1296 -> 1297 ;
1298 [label="mse = -0.0\nsamples = 1\nvalue = 6.36"] ;
1296 -> 1298 ;
1299 [label="mse = 0.0\nsamples = 1\nvalue = 6.45"] ;
1295 -> 1299 ;
1300 [label="camber <= -0.4\nmse = 0.001\nsamples = 2\nvalue = 6.595"] ;
1294 -> 1300 ;
1301 [label="mse = 0.0\nsamples = 1\nvalue = 6.62"] ;
1300 -> 1301 ;
1302 [label="mse = -0.0\nsamples = 1\nvalue = 6.57"] ;
1300 -> 1302 ;
1303 [label="toespoor <= 1001.5\nmse = 0.032\nsamples = 12\nvalue = 6.628"] ;
1293 -> 1303 ;
